<?xml version="1.0"?>
<opencv_storage>
<opencv_ml_svm>
  <format>3</format>
  <svmType>EPS_SVR</svmType>
  <kernel>
    <type>RBF</type>
    <gamma>0.01</gamma></kernel>
  <C>1.</C>
  <p>0.001</p>
  <term_criteria><epsilon>0.001</epsilon>
    <iterations>3000</iterations></term_criteria>
  <var_count>228</var_count>
  <sv_total>262</sv_total>
  <support_vectors>
    <_>
      -1.85354149 -0.949252844 -0.00717666419 -0.00399588142
      -0.000147695348 -0.0112746526 -0.000636775629 -0.00180314179
      -3.84851046e-06 -1.6829601e-05 -3.11951339e-07 -9.09816445e-05
      -0.000252847065 -0.000192040316 2.98716545 -0.00328460033
      -0.0031982963 1.39710522 -0.000151575936 -0.00120416214
      -0.000827364391 -0.00555731682 -0.00813292712 -1.47930068e-05
      -0.00197331375 0.846179187 -6.76062837e-06 -4.88507176e-05
      -1.85546323e-05 0.0966364741 -0.000188582038 -0.0191445369
      -0.000925065251 -9.04659173e-05 -0.000857001985 -0.000203670861
      -6.51292576e-05 -0.0102096628 -0.000270796823 -0.000148749386
      -0.000594491314 -0.00164141087 -0.00027398346 -0.00429980224
      -0.00178745599 -0.000502020062 2.87820959 1.55038953 -0.0142938793
      -0.00189871981 -0.00270752283 -3.74681622e-06 -0.0100737335
      -0.0024860811 -0.0175276566 -0.0464070253 -0.0032822676
      -0.00290340814 -0.0058199428 -0.000672133756 -0.000598349026
      -0.00111316296 0.995889485 -0.0224370472 -2.77559247e-05
      -4.08071464e-05 -2.71171884e-05 -0.00522097386 -0.00163765543
      -0.000595259538 2.75551963 -0.00184380845 -0.00013441428
      -4.38930647e-06 -0.000824219955 -1.7905475e-05 -0.0056347209
      2.54818058 -0.00191675371 -1.05687504e-05 -5.42880059e-07
      -0.000449659477 0.499997377 -0.000243534509 -0.000646825647
      -0.00181052973 -0.0181322861 -9.6151598e-06 -0.00754916994
      -0.00426470488 -0.00049418112 -0.00564095844 -0.00496075908
      1.35330749 -0.0183622036 -0.00078583241 0.671009541 -0.00633895677
      -0.00242132833 -6.39106365e-05 -0.00613965839 1.24877119
      -1.06111463e-06 -0.000122979312 -0.000856714207 2.63895631
      -0.000135350536 -2.93760277e-05 -0.000479097245 -0.00476042507
      -0.00193320028 0.421706289 -2.13963503e-05 -6.30287323e-05
      -0.000782301242 -4.81507357e-07 -3.43325109e-06 -0.000149909189
      -5.31075566e-05 -0.00721776811 -9.15926012e-06 -0.00609909603
      -0.00061340275 -0.0129932771 -0.00718552293 -0.00341065577
      -0.0154869063 -0.014125919 -0.00134364038 0.303278744 0.305822849
      -8.0579608e-05 -7.03468831e-05 0.527727902 0.104901627 0.408294857
      -0.000163783116 0.123228304 -2.76818082e-06 0.376205742
      0.100717187 -0.000174804984 0.767031968 -0.00205486314 0.359953821
      -2.44883213e-05 -0.000185724712 -2.44154353e-06 -2.88308252e-06
      0.172113478 -0.00150629552 -0.00180508278 1.00659335
      -1.27593455e-06 0.557584047 -4.17354022e-06 -0.00117141334
      0.634929776 0.204748541 0.25410378 0.0350269452 0.0105167478
      0.929299414 -3.07134214e-05 -0.000358382822 0.397680014
      0.234611899 -0.00109795737 -0.000217344379 0.163753957 0.349384338
      0.0271960571 -0.0010084518 -0.00235598255 0.0400246158 0.34123534
      -0.00159029744 -1.59901665e-05 -0.00299938512 0.186050802
      -0.00461693108 -0.00241504074 -0.000114078837 -3.17513695e-06
      0.394521087 -2.13418488e-07 -4.33349413e-07 0.133384407 1.14295125
      -1.49225843e-05 -1.87638361e-05 -0.000209615973 -0.000409654458
      0.307634354 -0.000150456181 -9.49755777e-05 0.254028738
      -1.9495048e-05 0.0020584166 -0.000143120196 -3.97201657e-05
      -1.61597873e-05 0.0024432838 0.00506579131 -0.000247329357
      -7.33753986e-05 -0.000105856663 0.0742378607 -0.000661777391
      0.063101165 0.257363021 -0.000120254917 -1.43308426e-07
      -0.00019370165 -3.48733738e-05 0.27075547 0.526915312
      -2.45979882e-05 0.0120608956 -9.16876234e-05 -4.21559889e-05
      -0.000474092754 -3.76523094e-05 0.0584741607 -0.000265391718
      -0.000190720762 -2.95704031e-05 -0.000200950744</_>
    <_>
      -1.88182461 -0.965817213 -0.00717402669 -0.00402552634
      -0.000147411061 -0.0112652536 -0.000612506235 -0.00179636443
      -3.69797999e-06 -1.66584705e-05 -3.13239781e-07 -9.00344749e-05
      -0.000247124117 -0.000191549465 3.03907371 -0.00301778968
      -0.00319298916 1.39146328 -0.00014736806 -0.00119599933
      -0.000808997662 -0.00553893251 -0.00794329401 -1.43682173e-05
      -0.00145758211 0.876735687 -6.54167525e-06 -4.99571397e-05
      -1.83590419e-05 0.0294195525 -0.000188311285 -0.0190484188
      -0.000928887632 -8.78270876e-05 -0.000840302382 -0.000206971352
      -6.37317644e-05 -0.01037551 -0.000263956812 -0.000148672858
      -0.000577408646 -0.00162873685 -0.000278711435 -0.00441835634
      -0.00178531406 -0.000514249841 2.88581777 1.65400672 -0.0148264272
      -0.00186493574 -0.00269934791 -3.59003548e-06 -0.010161778
      -0.00256079668 -0.0173969176 -0.0469916873 -0.00324777258
      -0.00347449211 -0.00578132505 -0.000687150634 -0.000604870613
      -0.00109150063 1.02876544 -0.0220164824 -2.7697919e-05
      -4.0179566e-05 -2.71931403e-05 -0.00516174734 -0.00161402964
      -0.000587208604 2.75284934 -0.00183960563 -0.000132771791
      -4.13218777e-06 -0.000798805326 -1.76352114e-05 -0.00549022015
      2.60057902 -0.0019209492 -1.04719165e-05 -5.32767956e-07
      -0.000442293909 0.381414354 0.0224885568 -0.000620649313
      -0.00146605389 -0.0178247895 -9.51914444e-06 -0.00748161552
      -0.00439031981 -0.000483438722 -0.00558022363 -0.00490959035
      1.40652609 -0.0181944463 -0.000791624072 0.718388438 -0.0063244598
      -0.00239148131 -6.19432903e-05 -0.00609836681 1.28757656
      -1.02897445e-06 -0.000119356686 -0.000840788765 2.70258951
      -0.000132932575 -2.95076188e-05 -0.000476665591 -0.00507859746
      -0.00190183858 0.450325757 -2.08982674e-05 -6.28891066e-05
      -0.000774610497 -4.53613239e-07 -3.42090834e-06 -0.000150470922
      -5.30505822e-05 -0.00719954493 -9.17242323e-06 -0.0060933684
      -0.000600326399 -0.012616734 -0.00715648383 -0.00330543099
      -0.0158186667 -0.0138838347 -0.00120989827 0.306865513 0.30548048
      -8.05767922e-05 -7.06319624e-05 0.529098392 0.110622443
      0.407548249 -0.000163939854 0.126033366 -2.77037907e-06
      0.369635284 0.100892529 -0.000175306981 0.767300606 -0.00203456637
      0.358906031 -2.44727416e-05 -0.000186149628 -2.43198338e-06
      -2.88151614e-06 0.170165092 -0.00149247062 -0.00180299429
      1.01472902 -1.27525561e-06 0.562820733 -4.17204456e-06
      -0.00118388119 0.637756467 0.208041593 0.257665098 0.0340702087
      0.011124298 0.925047338 -3.06569746e-05 -0.000358447345
      0.396717519 0.234506488 -0.0011823742 -0.00021731398 0.162267536
      0.349938333 0.0250932723 -0.00101802289 -0.00230549206
      0.0381267741 0.340473831 -0.00158438482 -1.59768006e-05
      -0.00300201494 0.182239294 -0.00465213787 -0.00241869269
      -0.000114247618 -3.17261402e-06 0.392664164 -2.13157776e-07
      -4.33124711e-07 0.137202665 1.14128983 -1.49220823e-05
      -1.87633595e-05 -0.0002096143 -0.000409707078 0.307662904
      -0.000150454289 -9.49742898e-05 0.254077256 -1.94945897e-05
      0.00210542232 -0.000143118887 -3.9719409e-05 -1.6159418e-05
      0.00242446363 0.00503496081 -0.000247333315 -7.27670995e-05
      -0.000105865205 0.0742866546 -0.000661872036 0.062982671
      0.257395774 -0.000120253215 -1.45331725e-07 -0.000193702988
      -3.47501409e-05 0.270947069 0.52708751 -2.45973188e-05
      0.0119090527 -9.16857171e-05 -4.21552577e-05 -0.000474144297
      -3.72967661e-05 0.058495082 -0.000265407056 -0.000190719089
      -2.95699028e-05 -0.000201135015</_>
    <_>
      -1.96811521 -1.20531726 -0.0071609458 -0.00632762071
      -0.000149644911 -0.0113376444 -0.000624467444 -0.00181057653
      -3.89169463e-06 -1.67298331e-05 -3.07781079e-07 -9.32601179e-05
      -0.000261219742 -0.00019500521 3.22010851 -0.00106526131
      -0.00318302144 1.17064023 -0.000155134781 -0.00120500533
      -0.000830068253 -0.00550476881 -0.00765809976 -1.49613797e-05
      -0.000436015049 1.06889868 -6.96300958e-06 -4.97851943e-05
      -1.8534558e-05 -0.000488922407 -0.000187873404 -0.0188762788
      -0.000962641381 -9.13039912e-05 -0.000851354329 -0.000204928438
      -6.69021683e-05 -0.0106736105 -0.000274675491 -0.000145897968
      -0.000595077465 -0.00165858923 -0.000277160492 -0.0041134092
      -0.00175183138 -0.000503552554 2.70961213 1.51945829 -0.014591244
      -0.0019226257 -0.0026333502 -3.77352717e-06 -0.00998189859
      -0.00108210288 -0.0179712474 -0.0484373271 -0.00330756279
      -0.00315015181 -0.0057904576 -0.000671078451 -0.000566426665
      -0.00109738228 1.19011831 -0.0213131905 -2.81451776e-05
      -4.04441525e-05 -2.8156639e-05 -0.00518590445 -0.00168565672
      -0.00059930206 2.85751987 -0.00183311594 -0.000132993737
      -4.45235992e-06 -0.000835426152 -1.87262613e-05 -0.00351357297
      2.71563029 -0.00189048052 -1.08015511e-05 -5.46501042e-07
      -0.000436783885 0.568605483 -0.00226270454 -0.000654589676
      -0.00223436952 -0.018119663 -9.5451951e-06 -0.00749441423
      -0.00420674169 -0.000497281144 -0.00559562072 -0.00496966392
      1.6889993 -0.0187822301 -0.000780009141 0.551603377 -0.00627654698
      -0.00243384857 -6.50572329e-05 -0.006215428 1.48914552
      -1.0877244e-06 -0.000124428057 -0.000868527568 2.62269545
      -0.000136925257 -2.96474154e-05 -0.000486707111 -0.00573631283
      -0.00193057209 0.404883653 -2.13726053e-05 -6.23108353e-05
      -0.000790649618 -5.07483321e-07 -3.4455536e-06 -0.000153510293
      -5.24439565e-05 -0.00736558717 -9.20544244e-06 -0.0060416148
      -0.000638602301 -0.0113623114 -0.00717447791 -0.00349216745
      -0.0158970747 -0.0133761689 -0.00150914246 0.314514458 0.29464218
      -8.10103593e-05 -7.30676911e-05 0.504899859 0.0826881528
      0.429078162 -0.000162972487 0.135678947 -2.76337164e-06
      0.345129013 0.0784407258 -0.000176610833 0.752718449
      -0.00216054474 0.366709203 -2.44177663e-05 -0.000187615762
      -2.37225163e-06 -2.8246568e-06 0.171706796 -0.00176306092
      -0.0020642546 1.05630898 -1.26185705e-06 0.56984961
      -4.12924601e-06 -0.0010133615 0.665788293 0.204258144 0.259049416
      0.0282441359 0.00409623981 0.903408587 -3.02217177e-05
      -0.000366069813 0.372918904 0.197432697 -0.0011661629
      -0.000220370275 0.177642241 0.376850754 0.0638271496
      -0.00111872295 -0.00226178067 0.0400897041 0.347157359
      -0.00159585709 -1.58346302e-05 -0.0030674648 0.189364702
      -0.00479341811 -0.00244993134 -0.000114588613 -3.12559882e-06
      0.410238326 -2.14207503e-07 -4.26391182e-07 0.134752229 1.16491389
      -1.49233338e-05 -1.87643764e-05 -0.000209625083 -0.000409567787
      0.307518929 -0.000150459789 -9.49774476e-05 0.253895879
      -1.94956792e-05 0.00198515132 -0.000143122859 -3.97212571e-05
      -1.61602566e-05 0.0025633648 0.00518761575 -0.000247337099
      -7.33615088e-05 -0.000105828331 0.0741474777 -0.000661670405
      0.063273862 0.257251352 -0.000120258141 -1.3949699e-07
      -0.000193706263 -3.40719125e-05 0.270428807 0.526568234
      -2.45988813e-05 0.0123352334 -9.16906356e-05 -4.21569675e-05
      -0.000474049652 -3.81920108e-05 0.0584148057 -0.000265377399
      -0.000190728882 -2.95711125e-05 -0.000200603259</_>
    <_>
      -1.93955672 -1.065382 -0.00716269668 -0.00500926282 -0.0001518114
      -0.0113065047 -0.000605619454 -0.00180084631 -3.78556115e-06
      -1.66146165e-05 -3.14994338e-07 -9.21830579e-05 -0.000251542951
      -0.00019457977 3.15145326 -0.00198641792 -0.00316597265 1.29130054
      -0.000150299209 -0.00119157694 -0.00081583811 -0.00550312782
      -0.00758266542 -1.46568436e-05 -0.000774402812 0.976015389
      -6.7144947e-06 -5.09305282e-05 -1.83162829e-05 -0.000553983497
      -0.000187804268 -0.0189164449 -0.000952949747 -8.86960697e-05
      -0.000838198466 -0.000207909412 -6.51173177e-05 -0.0110393045
      -0.000267278141 -0.000147708532 -0.000578426581 -0.00163757743
      -0.000280422129 -0.00430501997 -0.0017615637 -0.000514480227
      2.80262756 1.63627315 -0.0151763065 -0.0018837367 -0.00261131604
      -3.58361331e-06 -0.0100664562 -0.00218156609 -0.0175625924
      -0.0480851121 -0.00327332108 -0.00359981251 -0.00576762762
      -0.000684998464 -0.000575728598 -0.00108493469 1.12085676
      -0.0215832181 -2.76616302e-05 -3.95932802e-05 -2.80023996e-05
      -0.00515283924 -0.00164466316 -0.000581392494 2.79474592
      -0.00184474164 -0.000131819077 -4.17422234e-06 -0.00081140874
      -1.78471382e-05 -0.00454520248 2.69986582 -0.00190498692
      -1.06201342e-05 -5.47345735e-07 -0.000432469271 0.437983781
      -0.000751413754 -0.000637414865 -0.00172439811 -0.0177110806
      -9.53880681e-06 -0.00746287452 -0.00431159418 -0.000485621305
      -0.00552969566 -0.00492246542 1.55118108 -0.0184342973
      -0.000787401281 0.643568218 -0.00628294516 -0.00240743021
      -6.36762852e-05 -0.00612144684 1.38344085 -1.05116783e-06
      -0.000120739387 -0.000846452545 2.67424822 -0.000135143346
      -2.9565379e-05 -0.000483039796 -0.00626229448 -0.00190664839
      0.434193969 -2.09692771e-05 -6.23048327e-05 -0.000780309725
      -4.62522792e-07 -3.44022669e-06 -0.000152499779 -5.24206698e-05
      -0.00728813652 -9.22333675e-06 -0.00605771411 -0.00062300975
      -0.0117477626 -0.00714613637 -0.00337965949 -0.0159712825
      -0.013564813 -0.00126685435 0.31146431 0.303633302 -8.08252371e-05
      -7.08463776e-05 0.517812848 0.108114168 0.406449586
      -0.000164000012 0.131160468 -2.79308051e-06 0.375252128
      0.103322491 -0.000174961664 0.770628512 -0.00196338468 0.359318376
      -2.44291532e-05 -0.000186962978 -2.45171941e-06 -2.87219109e-06
      0.162604511 -0.00144027045 -0.00182413426 1.01371241
      -1.27041699e-06 0.563400447 -4.15654767e-06 -0.00115262636
      0.644856334 0.200329795 0.25750196 0.0337908342 0.0128376782
      0.926853597 -3.0771851e-05 -0.00036074224 0.391976863 0.237776697
      -0.0011413449 -0.000217984518 0.162007332 0.339163333 0.0290961862
      -0.00104434544 -0.00234150211 0.0422095731 0.342821538
      -0.00159302796 -1.5943082e-05 -0.0030151289 0.177772313
      -0.00463283155 -0.00242943689 -0.000114817019 -3.16606338e-06
      0.391510427 -2.1257641e-07 -4.3114531e-07 0.133057997 1.15087581
      -1.49220823e-05 -1.87633595e-05 -0.0002096143 -0.000409707078
      0.307662904 -0.000150454289 -9.49742898e-05 0.254077256
      -1.94945897e-05 0.00210542232 -0.000143118887 -3.9719409e-05
      -1.6159418e-05 0.00242446363 0.00503496081 -0.000247333315
      -7.27670995e-05 -0.000105865205 0.0742866546 -0.000661872036
      0.062982671 0.257395774 -0.000120253215 -1.45331725e-07
      -0.000193702988 -3.47501409e-05 0.270947069 0.52708751
      -2.45973188e-05 0.0119090527 -9.16857171e-05 -4.21552577e-05
      -0.000474144297 -3.72967661e-05 0.058495082 -0.000265407056
      -0.000190719089 -2.95699028e-05 -0.000201135015</_>
    <_>
      -1.908656 -0.943006516 -0.00715324283 -0.00427135779
      -0.000150346386 -0.0112415394 -0.00061041076 -0.00181538053
      -3.67047437e-06 -1.65641868e-05 -3.13367252e-07 -8.98848084e-05
      -0.000247153075 -0.000192665684 3.0757525 -0.00345838768
      -0.00317436736 1.44255424 -0.000149021944 -0.00119940308
      -0.000815071864 -0.00553439418 -0.00788971223 -1.43277557e-05
      -0.00187497644 0.838585734 -6.54366204e-06 -5.02606235e-05
      -1.8432087e-05 0.126440346 -0.000189595681 -0.0191048123
      -0.000916394696 -8.886258e-05 -0.000845175586 -0.000207886565
      -6.33918389e-05 -0.0110819461 -0.000265713985 -0.000149144573
      -0.000585185131 -0.00161752745 -0.000290677999 -0.004494817
      -0.00177807023 -0.000513278588 2.92704773 1.60547781 -0.0154057154
      -0.00185547129 -0.00274872617 -3.54199688e-06 -0.0101281237
      -0.00236915192 -0.0174627528 -0.0465663895 -0.0032564397
      -0.00346085872 -0.00578062749 -0.000669797126 -0.000608110859
      -0.00109511788 1.02097511 -0.0224771146 -2.76926057e-05
      -4.02486075e-05 -2.7134085e-05 -0.00516645797 -0.00161609217
      -0.000589485106 2.80589414 -0.00183869665 -0.000133169713
      -4.29303645e-06 -0.000805325632 -1.75765126e-05 -0.00585616147
      2.58960581 -0.00192709803 -1.04228639e-05 -5.55627594e-07
      -0.000442257937 0.424198687 -5.4041815e-05 -0.000636842626
      -0.00167027535 -0.0177043192 -9.47558965e-06 -0.00747391814
      -0.00434566569 -0.000483639567 -0.00557658169 -0.00492538745
      1.35394788 -0.0182632394 -0.000802718452 0.676014423
      -0.00628212281 -0.00240516779 -6.21661311e-05 -0.0060292948
      1.26587415 -1.03462241e-06 -0.000120247016 -0.000840718742
      2.71114302 -0.000131715104 -2.96636936e-05 -0.000475529581
      -0.00479537435 -0.00190807448 0.442672282 -2.10747021e-05
      -6.38773417e-05 -0.000774997578 -4.5807252e-07 -3.37389019e-06
      -0.000150549226 -5.30793186e-05 -0.00717573147 -9.13083022e-06
      -0.00611283071 -0.000596618687 -0.0130439373 -0.00720372936
      -0.00332212867 -0.0158178117 -0.0141979009 -0.00118657551
      0.321032166 0.292608976 -8.01077549e-05 -6.93189359e-05
      0.529084086 0.102843538 0.435661912 -0.000166003942 0.154755712
      -2.67074688e-06 0.362568885 0.110376328 -0.000174937915
      0.749311268 -0.00170568458 0.350068808 -2.47022417e-05
      -0.000183743352 -2.31519084e-06 -2.89991522e-06 0.167698145
      -0.00152650767 -0.00178572943 1.0275625 -1.27945611e-06
      0.539491355 -4.19203343e-06 -0.000767415157 0.639911413
      0.225466013 0.262213856 0.0381469652 0.0278924853 0.92795366
      -3.08904637e-05 -0.000364230946 0.39522016 0.246457964
      -0.00109415792 -0.00021008047 0.19530347 0.342575163 0.0186441913
      -0.000963741215 -0.00220946572 0.054416813 0.321300209
      -0.00158853736 -1.59953615e-05 -0.00300058885 0.188349903
      -0.00486234482 -0.00243300293 -0.000115522293 -3.15044826e-06
      0.389759988 -2.12822442e-07 -4.3518375e-07 0.132617623 1.14307415
      -1.49223861e-05 -1.87636488e-05 -0.00020961526 -0.00040967518
      0.307647139 -0.000150455438 -9.49750756e-05 0.254048109
      -1.9494868e-05 0.00207543746 -0.000143119672 -3.97198673e-05
      -1.61596417e-05 0.00243470073 0.00505311042 -0.000247330841
      -7.31777036e-05 -0.000105859952 0.0742556453 -0.000661814469
      0.0630590022 0.257377088 -0.000120254248 -1.44139634e-07
      -0.000193702115 -3.48504254e-05 0.270825863 0.526980996
      -2.45977262e-05 0.0120054856 -9.16868812e-05 -4.21557015e-05
      -0.000474112545 -3.75237105e-05 0.058482185 -0.000265397597
      -0.000190720064 -2.95702066e-05 -0.000201019531</_>
    <_>
      -1.99400008 -0.88538301 -0.0071711666 -0.00662524765
      -0.000152899273 -0.0112567227 -0.000619974046 -0.00184422568
      -3.76224534e-06 -1.67009166e-05 -3.13955354e-07 -9.06425339e-05
      -0.00025188399 -0.000191101441 3.32382631 -0.00379259628
      -0.00319456402 1.4778018 -0.000151541142 -0.00120950432
      -0.000822886534 -0.00557094067 -0.00786156021 -1.46368111e-05
      -0.00256018294 0.827563226 -6.6720786e-06 -5.05246353e-05
      -1.8616689e-05 0.109015942 -0.000190782332 -0.0190840364
      -0.000909066934 -8.89877047e-05 -0.000854945392 -0.000208592377
      -6.38687052e-05 -0.0112504 -0.000263467547 -0.000152653156
      -0.000591799093 -0.00162969017 -0.000283072208 -0.00433714548
      -0.00182538584 -0.000511209946 2.9855032 1.54129934 -0.0161921419
      -0.00186452072 -0.00268788682 -3.67689495e-06 -0.0102070672
      -0.000915891142 -0.0177293234 -0.0492953323 -0.00326070189
      -0.00360822701 -0.00578829274 -0.000689920969 -0.000596654543
      -0.00111654983 1.02824855 -0.0235645082 -2.80554304e-05
      -4.05336359e-05 -2.75218699e-05 -0.00521728676 -0.00161244534
      -0.000597124221 2.91505575 -0.00185470795 -0.000134668109
      -4.41147131e-06 -0.000819646986 -1.76133381e-05 -0.00624519773
      2.76373172 -0.00194767572 -1.05566342e-05 -5.45620537e-07
      -0.000448676117 0.547134995 -0.00243811822 -0.000654536183
      -0.00215254934 -0.0182325318 -9.53563267e-06 -0.00742739486
      -0.00451216195 -0.000486404373 -0.0056644557 -0.0049826121
      1.31215966 -0.0183444228 -0.000791174243 0.55089277 -0.00630511576
      -0.00242038653 -6.22639709e-05 -0.00606028503 1.25473762
      -1.05174672e-06 -0.000122834288 -0.000847359188 2.85236835
      -0.000133447189 -2.99825588e-05 -0.000475383538 -0.00528166583
      -0.00194644555 0.487728208 -2.14164702e-05 -6.26859837e-05
      -0.000775373715 -4.58170319e-07 -3.38770292e-06 -0.000148153864
      -5.32485865e-05 -0.00715607172 -9.03347336e-06 -0.0062677837
      -0.000586797192 -0.0134692835 -0.00723623065 -0.00334050227
      -0.0159345847 -0.015181886 -0.00123368995 0.312472939 0.302528143
      -8.05959426e-05 -7.14678754e-05 0.512940943 0.118944652
      0.405264854 -0.000164498008 0.133027703 -2.76608921e-06
      0.365917861 0.102008969 -0.00017481792 0.771409392 -0.00191618584
      0.356560022 -2.44458988e-05 -0.000186168327 -2.44447574e-06
      -2.87932448e-06 0.156836808 -0.00143772492 -0.00177146785
      1.01588619 -1.27335227e-06 0.569073498 -4.16567082e-06
      -0.00113779039 0.64512831 0.19783479 0.256841242 0.0354498774
      0.0155681223 0.931292593 -3.07374321e-05 -0.000360088568
      0.389931649 0.237248212 -0.00120410114 -0.000217447858 0.164971799
      0.333711147 0.0216416121 -0.00102494739 -0.00231387024
      0.0395711362 0.345305681 -0.00158781349 -1.59702795e-05
      -0.00301138358 0.168555737 -0.00465813326 -0.0024318588
      -0.000114893242 -3.16614978e-06 0.385642648 -2.13316852e-07
      -4.32632277e-07 0.129885525 1.14075029 -1.49220823e-05
      -1.87633595e-05 -0.0002096143 -0.000409707078 0.307662904
      -0.000150454289 -9.49742898e-05 0.254077256 -1.94945897e-05
      0.00210542232 -0.000143118887 -3.9719409e-05 -1.6159418e-05
      0.00242446363 0.00503496081 -0.000247333315 -7.27670995e-05
      -0.000105865205 0.0742866546 -0.000661872036 0.062982671
      0.257395774 -0.000120253215 -1.45331725e-07 -0.000193702988
      -3.47501409e-05 0.270947069 0.52708751 -2.45973188e-05
      0.0119090527 -9.16857171e-05 -4.21552577e-05 -0.000474144297
      -3.72967661e-05 0.058495082 -0.000265407056 -0.000190719089
      -2.95699028e-05 -0.000201135015</_>
    <_>
      -1.95439088 -0.846813738 -0.00730864611 -0.00608775951
      -0.00015288993 -0.0114260586 -0.00066057092 -0.001849505
      -3.92356742e-06 -1.70652838e-05 -3.14638498e-07 -9.21691899e-05
      -0.000255183695 -0.000193937492 3.28026414 -0.00453992188
      -0.00325582922 1.50046682 -0.000156463444 -0.00121579901
      -0.000852124533 -0.00568442279 -0.00828537252 -1.51598961e-05
      -0.00354212965 0.775170982 -6.84745009e-06 -4.97889196e-05
      -1.88481317e-05 0.18690151 -0.000194562352 -0.019707622
      -0.000914691598 -9.15689161e-05 -0.000881195301 -0.000204425305
      -6.51814116e-05 -0.0107880514 -0.000271598052 -0.000154699403
      -0.000615423312 -0.00165709667 -0.000270272954 -0.00421599578
      -0.00185139803 -0.000502963725 3.0132184 1.4408344 -0.0157749634
      -0.00191698782 -0.00272740563 -3.87990713e-06 -0.0102966996
      -0.00129724375 -0.0178882312 -0.0490794927 -0.00333983544
      -0.00323377084 -0.00592881627 -0.00069524697 -0.000608288683
      -0.00115621986 0.981430173 -0.0246356297 -2.79761425e-05
      -4.1955991e-05 -2.72580328e-05 -0.00533747347 -0.00164373219
      -0.000605593144 2.93802786 -0.00188239198 -0.000138542251
      -4.73021555e-06 -0.000843118178 -1.78664122e-05 -0.00701550394
      2.74043107 -0.00197193283 -1.06550333e-05 -5.51490359e-07
      -0.000468754763 0.641027093 -0.00234652101 -0.000680498837
      -0.00273263152 -0.0187173113 -9.79161541e-06 -0.00763793755
      -0.00454808073 -0.000503835676 -0.00582089135 -0.00505799148
      1.20384622 -0.0186532177 -0.000781100651 0.536420941
      -0.00642898865 -0.00248050503 -6.42937885e-05 -0.00618573837
      1.19790387 -1.0658672e-06 -0.000127117135 -0.000858778774
      2.82295728 -0.000136361239 -2.98728737e-05 -0.000481862749
      -0.00475492189 -0.00200744579 0.463460833 -2.2003911e-05
      -6.36189943e-05 -0.000788521895 -4.9196251e-07 -3.45706371e-06
      -0.000147491621 -5.42889647e-05 -0.00724550337 -9.11947518e-06
      -0.00638012029 -0.000599902472 -0.014378326 -0.00724154385
      -0.0034494081 -0.015383658 -0.0157988835 -0.00140012219
      0.309074312 0.301258981 -8.04409356e-05 -7.0898408e-05 0.516025662
      0.126554444 0.404996783 -0.000165368503 0.134010106
      -2.74167496e-06 0.372271299 0.111803651 -0.000175145251
      0.772324741 -0.00191376056 0.351273119 -2.44704042e-05
      -0.000185458121 -2.43821501e-06 -2.88774595e-06 0.158633888
      -0.00144624081 -0.00173703639 1.00802517 -1.27493865e-06
      0.561894596 -4.17130468e-06 -0.00113914802 0.641578615 0.197536081
      0.255782962 0.0352472439 0.0148376971 0.928693831 -3.08309354e-05
      -0.000360396836 0.390734822 0.242862165 -0.00111966394
      -0.000215890992 0.163195089 0.331383854 0.0185976624
      -0.000990201836 -0.0023254652 0.0385824516 0.344587505
      -0.00158636482 -1.6016189e-05 -0.00300503662 0.173579276
      -0.00466442201 -0.00242806831 -0.000115044699 -3.16714863e-06
      0.381857067 -2.13089294e-07 -4.33641475e-07 0.129151464 1.13316941
      -1.49225843e-05 -1.87638361e-05 -0.000209615973 -0.000409654458
      0.307634354 -0.000150456181 -9.49755777e-05 0.254028738
      -1.9495048e-05 0.0020584166 -0.000143120196 -3.97201657e-05
      -1.61597873e-05 0.0024432838 0.00506579131 -0.000247329357
      -7.33753986e-05 -0.000105856663 0.0742378607 -0.000661777391
      0.063101165 0.257363021 -0.000120254917 -1.43308426e-07
      -0.00019370165 -3.48733738e-05 0.27075547 0.526915312
      -2.45979882e-05 0.0120608956 -9.16876234e-05 -4.21559889e-05
      -0.000474092754 -3.76523094e-05 0.0584741607 -0.000265391718
      -0.000190720762 -2.95704031e-05 -0.000200950744</_>
    <_>
      -1.96754205 -0.840857267 -0.00726971077 -0.00612928672
      -0.000152206281 -0.0113536045 -0.000632670941 -0.00185177324
      -3.78777645e-06 -1.6904125e-05 -3.16606446e-07 -9.09171431e-05
      -0.000251270307 -0.000191724816 3.29792929 -0.00423707021
      -0.00323370332 1.5244298 -0.000152944427 -0.0012231376
      -0.000833214377 -0.00563286711 -0.00808253884 -1.47564942e-05
      -0.00280562998 0.793893278 -6.59404532e-06 -5.00750102e-05
      -1.87802252e-05 0.119260162 -0.000191827668 -0.0191378165
      -0.000918953447 -8.97124701e-05 -0.000864539528 -0.000208721045
      -6.4096741e-05 -0.0107593546 -0.000263698515 -0.000153906905
      -0.00059577293 -0.00164525711 -0.00027478725 -0.00431949925
      -0.00184172892 -0.000509656558 3.01057315 1.57788622 -0.0160449706
      -0.00188155717 -0.002720566 -3.70389307e-06 -0.010303014
      -0.00125155295 -0.0178477336 -0.0496455021 -0.00328566995
      -0.00362426904 -0.0058488152 -0.000696892675 -0.000607491937
      -0.00112726609 0.991835654 -0.0238791071 -2.7963797e-05
      -4.09322674e-05 -2.74509621e-05 -0.00526932301 -0.00162570924
      -0.000602133921 2.8876071 -0.00187169923 -0.000136181596
      -4.41270959e-06 -0.000822252012 -1.76971407e-05 -0.00659691729
      2.7822969 -0.00195681769 -1.05299287e-05 -5.31116996e-07
      -0.000457764079 0.554489434 -0.00216976227 -0.000656100397
      -0.00206381758 -0.0189120974 -9.74982413e-06 -0.0075097275
      -0.00459565362 -0.000490954902 -0.00572161423 -0.00503835501
      1.27041864 -0.0184115972 -0.000793037936 0.59922111 -0.00636936817
      -0.00243827305 -6.20955179e-05 -0.00610659597 1.22102749
      -1.04615538e-06 -0.000123065387 -0.000852696132 2.86110878
      -0.000134756323 -2.99666608e-05 -0.000479040929 -0.00521980925
      -0.00195786403 0.519098878 -2.16385197e-05 -6.26090696e-05
      -0.000782897929 -4.41666231e-07 -3.4587938e-06 -0.000148067353
      -5.37129636e-05 -0.00719476817 -9.09204118e-06 -0.00630771602
      -0.000591522839 -0.0138356229 -0.00725161238 -0.00333888223
      -0.0158659555 -0.0153174726 -0.00125291955 0.309897244 0.300805777
      -8.07459655e-05 -7.12922556e-05 0.522840679 0.1191824 0.414722741
      -0.000164465266 0.132236779 -2.77775507e-06 0.358905077
      0.104241863 -0.00017617183 0.775162578 -0.00200930983 0.357036203
      -2.4399109e-05 -0.000186791542 -2.45134061e-06 -2.87488911e-06
      0.157820404 -0.00148212642 -0.00173791044 1.01084471
      -1.27077215e-06 0.568769217 -4.15706472e-06 -0.00120622339
      0.644965529 0.196629882 0.256385326 0.0328377336 0.00425638258
      0.921551287 -3.07393893e-05 -0.000360814796 0.386597157
      0.231060863 -0.00120645715 -0.00021844187 0.161837801 0.340527117
      0.0251798108 -0.00101069477 -0.00233271811 0.0311660618
      0.344409287 -0.00158067548 -1.59425563e-05 -0.00301995222
      0.1696859 -0.00472316425 -0.00243291049 -0.000114873292
      -3.16494197e-06 0.388529569 -2.12779625e-07 -4.31491713e-07
      0.137392342 1.13096881 -1.49220823e-05 -1.87633595e-05
      -0.0002096143 -0.000409707078 0.307662904 -0.000150454289
      -9.49742898e-05 0.254077256 -1.94945897e-05 0.00210542232
      -0.000143118887 -3.9719409e-05 -1.6159418e-05 0.00242446363
      0.00503496081 -0.000247333315 -7.27670995e-05 -0.000105865205
      0.0742866546 -0.000661872036 0.062982671 0.257395774
      -0.000120253215 -1.45331725e-07 -0.000193702988 -3.47501409e-05
      0.270947069 0.52708751 -2.45973188e-05 0.0119090527
      -9.16857171e-05 -4.21552577e-05 -0.000474144297 -3.72967661e-05
      0.058495082 -0.000265407056 -0.000190719089 -2.95699028e-05
      -0.000201135015</_>
    <_>
      -1.8714174 -0.963018179 -0.00736157736 -0.00343772676
      -0.000151021857 -0.0115002776 -0.000664880092 -0.00179501832
      -4.20540346e-06 -1.77508118e-05 -3.26932053e-07 -9.53286435e-05
      -0.00026333268 -0.000193656451 3.01661015 -0.00332729635
      -0.00334593165 1.4714303 -0.000154371941 -0.00125441817
      -0.00083664502 -0.00573771959 -0.00851306226 -1.57447066e-05
      -0.00213393546 0.899886966 -7.22973709e-06 -5.18036759e-05
      -1.93348933e-05 -0.000115496441 -0.000190379375 -0.0199870989
      -0.000953685783 -8.91801756e-05 -0.000866622082 -0.00020629364
      -6.82023092e-05 -0.00980717782 -0.000277581479 -0.000158175229
      -0.000596904021 -0.0016834056 -0.000248335971 -0.00441535376
      -0.00195976137 -0.000518818328 2.92454195 1.66912842 -0.0134389242
      -0.00195843447 -0.00277213892 -4.130457e-06 -0.0105192959
      -0.0021433956 -0.0176133644 -0.048579663 -0.00329423859
      -0.00425708713 -0.00592690706 -0.000743778714 -0.000616391539
      -0.00116465345 1.03069115 -0.023472568 -2.72840844e-05
      -4.24136306e-05 -2.88358206e-05 -0.00530248042 -0.00163586868
      -0.000607307826 2.86041808 -0.00191337324 -0.000139502576
      -4.29317015e-06 -0.000836405437 -1.85604677e-05 -0.0063941828
      2.63989615 -0.00198150123 -1.10364563e-05 -5.24664244e-07
      -0.00046514062 0.519772232 -0.000589945237 -0.000657494355
      -0.00151617872 -0.0193443894 -1.00084553e-05 -0.00781283155
      -0.00474098977 -0.000501147297 -0.00582633121 -0.00518393284
      1.4151535 -0.0184315816 -0.00078656082 0.739058375 -0.00666243257
      -0.00245910697 -6.66956039e-05 -0.00637750607 1.27722573
      -1.13688293e-06 -0.0001245772 -0.000862478686 2.6566596
      -0.000142579927 -3.03478446e-05 -0.000487464393 -0.00500912592
      -0.00200247695 0.399778336 -2.19228259e-05 -6.19691564e-05
      -0.000809972989 -5.02302214e-07 -3.69387203e-06 -0.000151177926
      -5.52375641e-05 -0.00746146496 -9.2257078e-06 -0.00627083564
      -0.000631737872 -0.0134021919 -0.00739195384 -0.00337727787
      -0.0156185627 -0.0147528313 -0.00145583565 0.325226694 0.297557473
      -7.93612999e-05 -7.03675832e-05 0.538690925 0.11405874 0.444504678
      -0.000164056866 0.133495599 -2.61733248e-06 0.357665688
      0.108404428 -0.000173536522 0.741093278 -0.00149006629 0.334777087
      -2.48795459e-05 -0.000182764285 -2.31663216e-06 -2.90542107e-06
      0.170450836 -0.00142903358 -0.00170688983 1.01842225
      -1.29541115e-06 0.523165941 -4.24349446e-06 -0.000647981011
      0.62443924 0.24865669 0.265956491 0.0417788737 0.0324410498
      0.935354054 -3.03729339e-05 -0.000360857171 0.402368277
      0.262135714 -0.00110010372 -0.000209367427 0.206115156 0.35465458
      -7.39456664e-05 -0.000745095604 -0.00209879712 0.0573401526
      0.308401674 -0.00158122531 -1.61694461e-05 -0.00294600055
      0.174443156 -0.00470837345 -0.00237891823 -0.000114598777
      -3.15249713e-06 0.376771837 -2.19036025e-07 -4.41287824e-07
      0.138575897 1.16498697 -1.4920397e-05 -1.87616988e-05
      -0.000209611404 -0.000409880042 0.3077268 -0.000150448264
      -9.49699534e-05 0.254214585 -1.9493029e-05 0.00226325169
      -0.000143114739 -3.97168478e-05 -1.61581429e-05 0.00240060687
      0.00496352464 -0.000247352233 -7.0301925e-05 -0.000105887491
      0.0744444728 -0.000662203063 0.0625789315 0.257478148
      -0.000120247765 -1.51739215e-07 -0.000193710264 -3.39024118e-05
      0.271577895 0.527629375 -2.45950323e-05 0.0114150718
      -9.16793942e-05 -4.2152762e-05 -0.000474331377 -3.6096666e-05
      0.0585538335 -0.000265462179 -0.000190715829 -2.95682112e-05
      -0.000201726492</_>
    <_>
      -2.01588178 -1.04889154 -0.00721425982 -0.00752814161
      -0.000148835519 -0.0113193961 -0.000621759566 -0.00183554168
      -3.61443313e-06 -1.64451376e-05 -3.14654784e-07 -8.94061814e-05
      -0.00024867279 -0.000193560001 3.41240621 -0.00229739142
      -0.00316670886 1.26825213 -0.00015402172 -0.00120470568
      -0.000839312328 -0.00552751124 -0.00762083335 -1.4318437e-05
      -0.00154760864 0.960082889 -6.7679689e-06 -4.88123551e-05
      -1.82162821e-05 -0.000128877975 -0.000189862447 -0.0193843935
      -0.000941208506 -9.01896856e-05 -0.000854359183 -0.000205554767
      -6.32891242e-05 -0.0103882048 -0.000260443543 -0.000147953193
      -0.000596863683 -0.00165391888 -0.000280594104 -0.00387255778
      -0.00174517091 -0.00050187303 2.79803419 1.54043615 -0.0153060183
      -0.00187199132 -0.00260082958 -3.63508821e-06 -0.0100886496
      -0.000168170853 -0.0178814344 -0.0499582365 -0.00331836543
      -0.0020765902 -0.00581794884 -0.000655953365 -0.000582734006
      -0.0011004199 1.12707758 -0.0225694701 -2.79146698e-05
      -3.9958486e-05 -2.66550851e-05 -0.00526004005 -0.00164493383
      -0.000591559452 2.90333366 -0.00185083249 -0.000133771202
      -4.55775398e-06 -0.000810187601 -1.81494979e-05 -0.00499443244
      2.80403495 -0.00191643205 -1.05238541e-05 -5.05202479e-07
      -0.000447192258 0.672415972 -0.00346731138 -0.00065916311
      -0.0020200396 -0.0181296002 -9.61109254e-06 -0.00737261819
      -0.00438491302 -0.000492685358 -0.00565171707 -0.0049363682
      1.51924968 -0.0185241047 -0.000789568934 0.507569611 -0.0062548751
      -0.00243165996 -5.99903397e-05 -0.00608510245 1.40878332
      -1.00690875e-06 -0.000124205995 -0.000843986578 2.8115449
      -0.000132602421 -2.956772e-05 -0.00048189942 -0.00536064338
      -0.00193484256 0.435322553 -2.14718129e-05 -6.11535434e-05
      -0.000782805786 -4.67301703e-07 -3.44156706e-06 -0.000147584316
      -5.2632302e-05 -0.00718704797 -9.12780342e-06 -0.00623525307
      -0.000592127966 -0.0124360239 -0.00708441995 -0.00338122668
      -0.0156203387 -0.0143270493 -0.00144920778 0.316524297 0.308693886
      -8.10313795e-05 -7.23349804e-05 0.515666485 0.109709434
      0.413681626 -0.000164018042 0.133254647 -2.78900461e-06
      0.354629517 0.100695729 -0.000175912166 0.777713954 -0.00206129346
      0.358575135 -2.43606282e-05 -0.000187678495 -2.43847921e-06
      -2.85595729e-06 0.163666219 -0.00163835764 -0.00178197888
      1.02322829 -1.26359635e-06 0.577935755 -4.13671341e-06
      -0.00122579571 0.657662034 0.196958289 0.260211527 0.0319304839
      0.00793626904 0.919843376 -3.06748625e-05 -0.000363142142
      0.383935779 0.224783272 -0.00124409271 -0.000220735732 0.161436498
      0.342183501 0.0394172296 -0.00109456386 -0.0023202817 0.0314583406
      0.343346059 -0.00159484684 -1.58389448e-05 -0.00304838596
      0.167147309 -0.00465991115 -0.00244030776 -0.000114903029
      -3.15645707e-06 0.395257205 -2.12218453e-07 -4.28133774e-07
      0.131945148 1.14173508 -1.49250191e-05 -1.87660389e-05
      -0.000209628008 -0.000409394503 0.307455033 -0.000150465828
      -9.49817841e-05 0.253757894 -1.94972417e-05 0.00182629004
      -0.000143127007 -3.97238255e-05 -1.61615317e-05 0.00258754194
      0.00525963306 -0.000247318269 -7.58431852e-05 -0.000105805841
      0.0739885122 -0.000661339087 0.0636805147 0.257168829
      -0.000120263598 -1.33089486e-07 -0.000193699001 -3.49245602e-05
      0.269793987 0.526023567 -2.46011714e-05 0.012832731
      -9.16969657e-05 -4.21594668e-05 -0.000473862397 -3.93998416e-05
      0.0583555773 -0.000265322218 -0.000190732171 -2.95728041e-05
      -0.00020000826</_>
    <_>
      -1.97393143 -1.20133531 -0.00716504734 -0.00659588818
      -0.000147764993 -0.0112459827 -0.000608949456 -0.00181115919
      -3.55648308e-06 -1.61740591e-05 -3.09074949e-07 -8.89920484e-05
      -0.000247280404 -0.000195179658 3.28998184 -0.00121259876
      -0.00313151581 1.13806701 -0.000151792439 -0.0011878215
      -0.000832331774 -0.00545805786 -0.00743571483 -1.41666487e-05
      -0.000489527942 1.05057418 -6.87409192e-06 -4.85628334e-05
      -1.79455456e-05 -0.000579564658 -0.000188003396 -0.0188693851
      -0.000947802095 -8.95287667e-05 -0.000842630048 -0.000204115844
      -6.33021482e-05 -0.0102619529 -0.000261434616 -0.000144389778
      -0.000590580457 -0.00163953274 -0.000285312621 -0.00387835875
      -0.00169383874 -0.000501311268 2.6721077 1.57388377 -0.0147693856
      -0.00186469895 -0.00260489341 -3.50553728e-06 -0.00998518523
      -0.000907996495 -0.0177541319 -0.0488181636 -0.00330431154
      -0.00204998627 -0.00576871261 -0.00063106342 -0.000582337379
      -0.00107788539 1.18913507 -0.0212767888 -2.76481533e-05
      -3.95446914e-05 -2.66544466e-05 -0.00519032031 -0.00165336416
      -0.000583035755 2.83020735 -0.00181881234 -0.000132024448
      -4.51242886e-06 -0.000801142014 -1.82059666e-05 -0.00404382171
      2.73929572 -0.00187986996 -1.04879209e-05 -5.12318422e-07
      -0.000436978065 0.590968609 -0.00260232762 -0.00064908003
      -0.00171088928 -0.0178321004 -9.51078255e-06 -0.00732499268
      -0.00421181414 -0.000490001636 -0.00556139229 -0.0048569818
      1.65969586 -0.01853716 -0.000787800818 0.559242308 -0.00616723904
      -0.00241637439 -6.00883541e-05 -0.00602452271 1.49581933
      -9.98469545e-07 -0.000122467856 -0.000836901658 2.66597986
      -0.000131469322 -2.9318684e-05 -0.00048156525 -0.0052881646
      -0.0019015373 0.401858121 -2.11788702e-05 -6.13068696e-05
      -0.000781346112 -4.73056957e-07 -3.40286692e-06 -0.000149633328
      -5.20262984e-05 -0.00723838666 -9.1250713e-06 -0.00608680584
      -0.000603607914 -0.0114457887 -0.00698148413 -0.00340289157
      -0.0155302538 -0.0133004086 -0.00148855965 0.315224677 0.310787648
      -8.09356352e-05 -7.22872646e-05 0.514873862 0.105537042 0.41202122
      -0.000163284698 0.132769287 -2.78476e-06 0.35055694 0.0912353545
      -0.000175795314 0.777236521 -0.00214887527 0.357528329
      -2.43810136e-05 -0.000187199592 -2.42657711e-06 -2.86121008e-06
      0.163700312 -0.00161523849 -0.00180291233 1.0261147
      -1.26765656e-06 0.578108132 -4.14854094e-06 -0.00124286651
      0.653354466 0.192469701 0.260508657 0.0307746958 0.00580243766
      0.920644999 -3.0504285e-05 -0.000360782811 0.387866527 0.219400078
      -0.00129584933 -0.00022085433 0.164963156 0.344194978 0.0406207219
      -0.00106222392 -0.00228420319 0.0293275788 0.349269211
      -0.00158659392 -1.58616567e-05 -0.00303820311 0.171759129
      -0.00463481154 -0.00243162829 -0.000114115501 -3.16230103e-06
      0.399163693 -2.12127574e-07 -4.29790617e-07 0.134643018 1.14136672
      -1.49250191e-05 -1.87660389e-05 -0.000209628008 -0.000409394503
      0.307455033 -0.000150465828 -9.49817841e-05 0.253757894
      -1.94972417e-05 0.00182629004 -0.000143127007 -3.97238255e-05
      -1.61615317e-05 0.00258754194 0.00525963306 -0.000247318269
      -7.58431852e-05 -0.000105805841 0.0739885122 -0.000661339087
      0.0636805147 0.257168829 -0.000120263598 -1.33089486e-07
      -0.000193699001 -3.49245602e-05 0.269793987 0.526023567
      -2.46011714e-05 0.012832731 -9.16969657e-05 -4.21594668e-05
      -0.000473862397 -3.93998416e-05 0.0583555773 -0.000265322218
      -0.000190732171 -2.95728041e-05 -0.00020000826</_>
    <_>
      -1.97393143 -1.20133531 -0.00716504734 -0.00659588818
      -0.000147764993 -0.0112459827 -0.000608949456 -0.00181115919
      -3.55648308e-06 -1.61740591e-05 -3.09074949e-07 -8.89920484e-05
      -0.000247280404 -0.000195179658 3.28998184 -0.00121259876
      -0.00313151581 1.13806701 -0.000151792439 -0.0011878215
      -0.000832331774 -0.00545805786 -0.00743571483 -1.41666487e-05
      -0.000489527942 1.05057418 -6.87409192e-06 -4.85628334e-05
      -1.79455456e-05 -0.000579564658 -0.000188003396 -0.0188693851
      -0.000947802095 -8.95287667e-05 -0.000842630048 -0.000204115844
      -6.33021482e-05 -0.0102619529 -0.000261434616 -0.000144389778
      -0.000590580457 -0.00163953274 -0.000285312621 -0.00387835875
      -0.00169383874 -0.000501311268 2.6721077 1.57388377 -0.0147693856
      -0.00186469895 -0.00260489341 -3.50553728e-06 -0.00998518523
      -0.000907996495 -0.0177541319 -0.0488181636 -0.00330431154
      -0.00204998627 -0.00576871261 -0.00063106342 -0.000582337379
      -0.00107788539 1.18913507 -0.0212767888 -2.76481533e-05
      -3.95446914e-05 -2.66544466e-05 -0.00519032031 -0.00165336416
      -0.000583035755 2.83020735 -0.00181881234 -0.000132024448
      -4.51242886e-06 -0.000801142014 -1.82059666e-05 -0.00404382171
      2.73929572 -0.00187986996 -1.04879209e-05 -5.12318422e-07
      -0.000436978065 0.590968609 -0.00260232762 -0.00064908003
      -0.00171088928 -0.0178321004 -9.51078255e-06 -0.00732499268
      -0.00421181414 -0.000490001636 -0.00556139229 -0.0048569818
      1.65969586 -0.01853716 -0.000787800818 0.559242308 -0.00616723904
      -0.00241637439 -6.00883541e-05 -0.00602452271 1.49581933
      -9.98469545e-07 -0.000122467856 -0.000836901658 2.66597986
      -0.000131469322 -2.9318684e-05 -0.00048156525 -0.0052881646
      -0.0019015373 0.401858121 -2.11788702e-05 -6.13068696e-05
      -0.000781346112 -4.73056957e-07 -3.40286692e-06 -0.000149633328
      -5.20262984e-05 -0.00723838666 -9.1250713e-06 -0.00608680584
      -0.000603607914 -0.0114457887 -0.00698148413 -0.00340289157
      -0.0155302538 -0.0133004086 -0.00148855965 0.315224677 0.310787648
      -8.09356352e-05 -7.22872646e-05 0.514873862 0.105537042 0.41202122
      -0.000163284698 0.132769287 -2.78476e-06 0.35055694 0.0912353545
      -0.000175795314 0.777236521 -0.00214887527 0.357528329
      -2.43810136e-05 -0.000187199592 -2.42657711e-06 -2.86121008e-06
      0.163700312 -0.00161523849 -0.00180291233 1.0261147
      -1.26765656e-06 0.578108132 -4.14854094e-06 -0.00124286651
      0.653354466 0.192469701 0.260508657 0.0307746958 0.00580243766
      0.920644999 -3.0504285e-05 -0.000360782811 0.387866527 0.219400078
      -0.00129584933 -0.00022085433 0.164963156 0.344194978 0.0406207219
      -0.00106222392 -0.00228420319 0.0293275788 0.349269211
      -0.00158659392 -1.58616567e-05 -0.00303820311 0.171759129
      -0.00463481154 -0.00243162829 -0.000114115501 -3.16230103e-06
      0.399163693 -2.12127574e-07 -4.29790617e-07 0.134643018 1.14136672
      -1.49250191e-05 -1.87660389e-05 -0.000209628008 -0.000409394503
      0.307455033 -0.000150465828 -9.49817841e-05 0.253757894
      -1.94972417e-05 0.00182629004 -0.000143127007 -3.97238255e-05
      -1.61615317e-05 0.00258754194 0.00525963306 -0.000247318269
      -7.58431852e-05 -0.000105805841 0.0739885122 -0.000661339087
      0.0636805147 0.257168829 -0.000120263598 -1.33089486e-07
      -0.000193699001 -3.49245602e-05 0.269793987 0.526023567
      -2.46011714e-05 0.012832731 -9.16969657e-05 -4.21594668e-05
      -0.000473862397 -3.93998416e-05 0.0583555773 -0.000265322218
      -0.000190732171 -2.95728041e-05 -0.00020000826</_>
    <_>
      -1.9995085 -0.948927343 -0.00728059281 -0.0074032587
      -0.000147918327 -0.0114202816 -0.000624025881 -0.00179275835
      -3.74937122e-06 -1.64052835e-05 -3.1072355e-07 -9.1584945e-05
      -0.000249180477 -0.000194817185 3.35622191 -0.00319112046
      -0.00319942879 1.38029575 -0.000157702321 -0.00117428484
      -0.000840792549 -0.00556726335 -0.0076235747 -1.48779473e-05
      -0.00213619624 0.859986603 -6.80453832e-06 -5.04951786e-05
      -1.86014186e-05 0.0630224198 -0.000193218002 -0.0187139679
      -0.000949614099 -9.09966475e-05 -0.00085295894 -0.000205960692
      -6.44506581e-05 -0.0120551754 -0.00026925953 -0.000149991189
      -0.000599149498 -0.00167168223 -0.00028065432 -0.00404553581
      -0.00173188886 -0.00050832401 2.80755615 1.49654913 -0.0174843352
      -0.00191407243 -0.00268300134 -3.68396923e-06 -0.0101695154
      -0.000433681213 -0.017445337 -0.0498865433 -0.00332965422
      -0.00360180996 -0.00583670381 -0.00069557823 -0.00059314369
      -0.00110916316 1.06758392 -0.0231169164 -2.81156972e-05
      -4.05093233e-05 -2.70956025e-05 -0.00528002065 -0.00165430328
      -0.000592043565 2.84535551 -0.00185789564 -0.000133256399
      -4.54314068e-06 -0.00085499062 -1.75387959e-05 -0.00558332773
      2.81126332 -0.00194143527 -1.04499259e-05 -5.63152184e-07
      -0.000448382896 0.565257967 -0.0023081773 -0.000657094468
      -0.0026953565 -0.0177211706 -9.65924028e-06 -0.00739109982
      -0.00450603943 -0.000498615438 -0.00561655732 -0.00482242554
      1.37847579 -0.0184744038 -0.000788318051 0.535773158
      -0.00624179887 -0.00245934329 -6.34051466e-05 -0.00595787633
      1.30177069 -1.0446131e-06 -0.000124218801 -0.000845198694
      2.9295814 -0.000133786205 -2.97124679e-05 -0.000488871243
      -0.00619946187 -0.00193014101 0.524670899 -2.15689652e-05
      -6.36713667e-05 -0.000794994528 -4.72352042e-07 -3.34302104e-06
      -0.00015038492 -5.32239756e-05 -0.00727599626 -9.30412807e-06
      -0.00629471289 -0.000619969098 -0.0127533935 -0.00708789937
      -0.00339616765 -0.0157362688 -0.0147386286 -0.00118659507
      0.31121695 0.303779215 -8.00817652e-05 -6.85547129e-05 0.530139446
      0.117458709 0.403844327 -0.000165914927 0.154425412
      -2.71494264e-06 0.385694802 0.118181348 -0.000175360808
      0.775240004 -0.00180962973 0.35223192 -2.45825304e-05
      -0.000183754441 -2.396426e-06 -2.90825756e-06 0.158151686
      -0.00133554824 -0.00164158642 1.00406635 -1.28077284e-06
      0.544413865 -4.19129356e-06 -0.00101176219 0.63383007 0.212917075
      0.266258001 0.0358037874 0.024712041 0.947005689 -3.09028146e-05
      -0.000359260215 0.406325221 0.267094135 -0.00110002363
      -0.000212697312 0.17435272 0.316001862 0.0118756443
      -0.000991667504 -0.00231841998 0.042878069 0.340161204
      -0.00158204674 -1.60628133e-05 -0.00298029487 0.18319729
      -0.00466090906 -0.00243407628 -0.000114690854 -3.17881177e-06
      0.383442342 -2.11490487e-07 -4.36514142e-07 0.127130151 1.13660216
      -1.49261914e-05 -1.87673468e-05 -0.000209623919 -0.000409281725
      0.307479203 -0.000150469292 -9.498484e-05 0.253718078
      -1.94983731e-05 0.00171756372 -0.000143129233 -3.97256481e-05
      -1.61624939e-05 0.00251847506 0.00523921847 -0.000247292541
      -7.84531221e-05 -0.000105804502 0.0738930702 -0.000661077735
      0.0639706179 0.257170588 -0.000120266777 -1.29407852e-07
      -0.000193687811 -3.64478292e-05 0.269386411 0.525726795
      -2.46028594e-05 0.0131379589 -9.17012148e-05 -4.21612967e-05
      -0.000473700871 -4.02401565e-05 0.0583402105 -0.000265275827
      -0.000190729275 -2.95740174e-05 -0.000199658723</_>
    <_>
      -1.94970715 -1.31163144 -0.00710790604 -0.00701797055
      -0.000144527105 -0.0112533439 -0.000600235071 -0.00175913237
      -3.79096218e-06 -1.61459866e-05 -3.05066465e-07 -9.12095784e-05
      -0.000250328507 -0.000195578075 3.22729158 -0.000540986191
      -0.00312226312 1.09643734 -0.00015636129 -0.00116393995
      -0.000819347042 -0.00538412249 -0.00725385314 -1.49537291e-05
      0.0225775763 1.08977664 -6.94218761e-06 -4.97467445e-05
      -1.80773204e-05 -0.000742098957 -0.000185356781 -0.0179295205
      -0.000975657953 -9.01214007e-05 -0.000827003329 -0.000205570337
      -6.52998788e-05 -0.0117161488 -0.00026981227 -0.000142778445
      -0.000585098693 -0.00165637932 -0.000278199994 -0.00402578712
      -0.00164815038 -0.000500415161 2.53028727 1.52878213 -0.0157120507
      -0.00189642853 -0.00259846053 -3.62869787e-06 -0.00986896362
      -0.000564614718 -0.0172500461 -0.0478645824 -0.00326911709
      -0.00336167123 -0.00570697756 -0.000662139442 -0.000561746885
      -0.00106703816 1.22367954 -0.0206530895 -2.82037909e-05
      -3.93412411e-05 -2.76880219e-05 -0.00514221005 -0.00166477542
      -0.000590337033 2.76471186 -0.00182172412 -0.000128735875
      -4.32261595e-06 -0.00083859032 -1.81865707e-05 -0.00303878519
      2.71694398 -0.00186245621 -1.05230201e-05 -5.65544099e-07
      -0.000423757912 0.564917982 -0.00194656756 -0.000632985146
      -0.00234883395 -0.017298406 -9.46500495e-06 -0.0072943992
      -0.00417463435 -0.000487858604 -0.00539951446 -0.00473969197
      1.76654387 -0.0184242669 -0.000783961324 0.577460766
      -0.00609365525 -0.00240734429 -6.43777385e-05 -0.00591249857
      1.52333307 -1.066957e-06 -0.000123348087 -0.000841767818
      2.69179416 -0.000135553739 -2.9616238e-05 -0.000489287078
      -0.00626682444 -0.00185902184 0.42224586 -2.10986746e-05
      -6.18044141e-05 -0.00080072548 -4.86314036e-07 -3.34962419e-06
      -0.00015233201 -5.12857805e-05 -0.0072931191 -9.22201616e-06
      -0.00595942372 -0.000644254149 -0.0105775017 -0.00702148862
      -0.0033481454 -0.0157990847 -0.0127996895 -0.00129062647
      0.327589512 0.297542453 -7.98372712e-05 -7.23826088e-05 0.51824528
      0.101879343 0.45877254 -0.000162936762 0.136872679 -2.63834886e-06
      0.339027286 0.0859706104 -0.000173508553 0.747445822
      -0.00160063326 0.336567163 -2.47860353e-05 -0.000182998701
      -2.30096248e-06 -2.88340016e-06 0.172178477 -0.00146009377
      -0.00176320761 1.03004897 -1.28976853e-06 0.532880366
      -4.22564653e-06 -0.000623969652 0.636011839 0.243277103
      0.273562014 0.0325293168 0.0296299309 0.93079555 -3.02377684e-05
      -0.000364046427 0.397019595 0.247217357 -0.0011788907
      -0.000212206651 0.217510998 0.364747375 0.0158222169
      -0.00075234205 -0.00202113646 0.0565830618 0.312974036
      -0.00158848008 -1.6048034e-05 -0.0029802667 0.175317347
      -0.00472187251 -0.0023928408 -0.000114272356 -3.13307032e-06
      0.393708885 -2.19318167e-07 -4.38430277e-07 0.140334591 1.17115057
      -1.49271882e-05 -1.87680034e-05 -0.000209638558 -0.000409163331
      0.307297021 -0.0001504744 -9.49873211e-05 0.253518224
      -1.94991953e-05 0.00161986798 -0.000143133031 -3.97270815e-05
      -1.61630869e-05 0.00271381438 0.00543036312 -0.000247308053
      -7.80581322e-05 -0.000105760977 0.0737671182 -0.000660948048
      0.0641958565 0.256997347 -0.000120271317 -1.24007926e-07
      -0.000193696498 -3.49916882e-05 0.268939644 0.525232136
      -2.46040072e-05 0.0135181472 -9.17052821e-05 -4.21625664e-05
      -0.000473656488 -4.09542008e-05 0.0582507364 -0.00026526014
      -0.000190742197 -2.95749433e-05 -0.000199171351</_>
    <_>
      0.865784466 -3.44785023 -0.00771556469 1.78820324 -0.000167300852
      -0.0125569031 -0.000627873989 -0.00180573144 -4.17698857e-06
      -1.75290206e-05 -3.31528298e-07 -9.75325602e-05 -0.000294306636
      -0.00022527836 0.611112952 0.849335015 -0.00330660585 0.455579996
      -0.000163641889 -0.00133141479 -0.000855253253 -0.00542774145
      -0.0100660985 -1.57088762e-05 1.13903308 1.82494915
      -9.22460458e-06 -4.81515926e-05 -2.18104142e-05 -0.0056712646
      -0.000186602934 -0.0158460662 -0.00131706859 -0.000112918089
      -0.000822554459 -0.000226670425 -7.81007111e-05 -0.00317094009
      -0.000358046149 -0.000125032835 -0.000621399435 -0.001811394
      -0.000400622725 -0.00491569703 -0.00160944939 -0.000524956267
      2.03044772 2.6031425 -0.00387480389 -0.00217144587 -0.00384313078
      -3.66860445e-06 -0.00976579078 -0.0208163373 -0.0186372232
      -0.0202269573 -0.00357343839 0.203768522 -0.00617957208
      -0.000840438064 -0.000669913716 -0.000986672938 1.42988801
      -0.00820013788 -3.09325951e-05 -4.593622e-05 -3.13449891e-05
      -0.00565729896 -0.00204674085 -0.000659222307 1.57428646
      -0.00179200701 -0.000127435633 -4.00064346e-06 -0.000922284788
      -2.21658338e-05 0.669138551 0.994790614 -0.00173689344
      -1.12708349e-05 -9.01041687e-07 -0.00040919779 -0.00506385509
      2.09641862 -0.000589591044 0.504651189 -0.015758194 -1.0120898e-05
      -0.00882539153 -0.00224473956 -0.000550987199 -0.00553051941
      -0.00560851302 3.43122315 -0.0206077043 -0.000943846302 1.95037758
      -0.00687344233 -0.00256030401 -8.44778842e-05 -0.00771290902
      2.32081413 -1.41252019e-06 -0.000130690576 -0.00104971556
      1.2351675 -0.000156965529 -3.28357564e-05 -0.000574847625
      -0.00540587725 -0.00178255572 -0.000520379224 -2.28703102e-05
      -8.96597703e-05 -0.000981772318 -6.54282474e-07 -4.21611867e-06
      -0.000218122746 -5.21571164e-05 -0.00864098966 -1.11043273e-05
      -0.0043310863 -0.000886745751 -0.0043067513 -0.00803226791
      -0.00393506652 -0.0179327857 -0.00133257487 -0.0032677555
      0.301280499 0.208525717 -9.25352433e-05 -9.4626761e-05 0.398088545
      -0.000321014231 0.517284751 -0.000153755944 0.0974213108
      -4.03541162e-06 0.0577803776 0.0898599252 -0.000193912609
      0.730968058 -0.0036507349 0.494831562 -2.2572025e-05
      -0.000206284516 -3.11037547e-06 -2.43737554e-06 0.218127578
      -0.00202656235 -0.00376344891 0.738681674 -1.11657073e-06
      0.638501883 -3.7272282e-06 -0.00277422904 0.849184275
      -0.000286447321 0.0467740446 -0.000339001068 -0.000547306961
      0.504421294 -3.43336651e-05 -0.000425611157 0.0483726487
      -0.0013535592 -0.00123528612 -0.000285706745 0.107534498
      0.479918838 0.567303479 -0.0013472148 -0.00150730053
      -0.00198940234 0.212625146 -0.0014914542 -1.37693214e-05
      -0.00349218491 0.278446674 -0.00641386211 -0.00265745935
      -0.000127601204 -3.04394052e-06 0.452499479 -2.22993435e-07
      -3.61770219e-07 0.210967109 0.869500458 -1.49662483e-05
      -1.88037029e-05 -0.000209817328 -0.00040501199 0.304571629
      -0.000150627413 -9.50870235e-05 0.249305025 -1.95344874e-05
      -2.08790589e-05 -0.000143240643 -3.97858348e-05 -1.61912412e-05
      0.00483264029 0.00837621838 -0.000247100514 -0.000119417418
      -0.00010498034 0.0698144808 -0.00065384421 0.0734710917
      0.254013568 -0.000120409102 3.83524457e-06 -0.00019364008
      -3.78252917e-05 0.253637284 0.511139035 -2.46552863e-05
      0.0257674456 -9.18548103e-05 -4.22185913e-05 -0.000469890074
      -6.88979562e-05 0.0564117096 -0.000264127448 -0.000190913226
      -2.96135513e-05 -0.000184235163</_>
    <_>
      1.00407588 -3.13759208 -0.00767441979 1.90014076 -0.000166305224
      -0.0124382647 -0.00062371575 -0.00180686882 -4.03035529e-06
      -1.7367498e-05 -3.29566348e-07 -9.51356342e-05 -0.00028946239
      -0.00022135071 0.535088718 0.7081635 -0.00329194241 0.557520986
      -0.0001595746 -0.00132655469 -0.000852159515 -0.00541333854
      -0.0104100127 -1.53091132e-05 1.03891408 1.67150199
      -8.86731959e-06 -4.73956061e-05 -2.16910175e-05 -0.00523724826
      -0.000186061428 -0.0159382652 -0.00128212094 -0.000112941038
      -0.000823185779 -0.00022550713 -7.61871343e-05 -0.00306591089
      -0.00035513594 -0.00012425649 -0.000621323299 -0.00178251928
      -0.000410199194 -0.00497790286 -0.00160351989 -0.000523455557
      2.14907026 2.61369681 -0.00357739232 -0.00213743374 -0.00390007626
      -3.57550562e-06 -0.00975724775 -0.0216175877 -0.0184277128
      -0.0198682807 -0.00353379501 0.244412035 -0.00614659069
      -0.000838484382 -0.000695180963 -0.000983277801 1.29520178
      -0.0089644501 -3.10012329e-05 -4.61277668e-05 -3.05091999e-05
      -0.00564743672 -0.0020186 -0.000659606652 1.5251267 -0.00177896349
      -0.000126912244 -4.02461592e-06 -0.000910513161 -2.17409615e-05
      0.544973493 0.954099953 -0.0017368315 -1.10521005e-05
      -9.12059193e-07 -0.000414334936 -0.00572095904 2.2157371
      -0.000585915521 0.519622684 -0.0155599732 -1.00156421e-05
      -0.00880562328 -0.00225528679 -0.000546876458 -0.00553299068
      -0.00561262714 3.21915078 -0.0203092881 -0.000954578398 2.01083684
      -0.00684108259 -0.00253817346 -8.29464334e-05 -0.0076105874
      2.1728158 -1.38876419e-06 -0.000129225198 -0.00104875863
      1.26831138 -0.000153696601 -3.27323178e-05 -0.000566841161
      -0.00513843959 -0.00176884979 -0.000365672022 -2.28323825e-05
      -9.13160402e-05 -0.000969820307 -6.39145583e-07 -4.18240188e-06
      -0.000216497458 -5.20756985e-05 -0.00850325543 -1.0986173e-05
      -0.00430447143 -0.000862018904 -0.00542809675 -0.00805122405
      -0.00389257958 -0.01796191 -0.00181286526 -0.00324014691
      0.29423517 0.218823433 -9.17951838e-05 -9.51041147e-05 0.384258151
      -7.46034993e-06 0.475751638 -0.000153184403 0.0916114524
      -4.0045652e-06 0.0349367112 0.0653017983 -0.000197806803
      0.75805223 -0.00392025802 0.480014086 -2.23485113e-05
      -0.000206342491 -3.14654767e-06 -2.44641069e-06 0.212429345
      -0.00185687281 -0.00365958177 0.732866168 -1.11925181e-06
      0.64130038 -3.72546424e-06 -0.00291417353 0.846620977
      -0.000564921123 0.0525874197 -0.000350285496 -0.000619388069
      0.476000637 -3.39774306e-05 -0.000419388205 0.0582901165
      -0.00135541789 -0.00155080087 -0.000295533013 0.0842499435
      0.454956144 0.576287031 -0.00149636623 -0.00157150789
      -0.00209625717 0.23470445 -0.00146667659 -1.382763e-05
      -0.00348910433 0.24502936 -0.00613611098 -0.00264699152
      -0.0001244819 -3.04544142e-06 0.435641468 -2.22904745e-07
      -3.6434372e-07 0.227103308 0.844047964 -1.49659436e-05
      -1.88034137e-05 -0.000209816353 -0.000405043887 0.304587424
      -0.000150626263 -9.5086245e-05 0.249334186 -1.95342091e-05
      -2.05792476e-05 -0.000143239842 -3.97853728e-05 -1.61910175e-05
      0.00482240319 0.00835806876 -0.000247102958 -0.000119006814
      -0.000104985585 0.0698454827 -0.000653901661 0.0733947679
      0.254032254 -0.000120408069 3.71603528e-06 -0.000193640954
      -3.77250071e-05 0.25375852 0.511245549 -2.46548789e-05
      0.0256710202 -9.18536462e-05 -4.22181511e-05 -0.000469921826
      -6.86710118e-05 0.0564246103 -0.000264136906 -0.000190912237
      -2.96132475e-05 -0.000184350618</_>
    <_>
      0.971838534 -3.51644564 -0.00758546218 1.82837915 -0.000164126875
      -0.0123526212 -0.000610140327 -0.00176408759 -3.93700066e-06
      -1.7142871e-05 -3.30034482e-07 -9.49362438e-05 -0.000285865739
      -0.000221325827 0.524737835 0.914995313 -0.00324671995 0.463306248
      -0.00016023725 -0.00132897403 -0.000839021348 -0.00534221437
      -0.00997134857 -1.5261312e-05 1.1898011 1.87038004 -9.37494679e-06
      -4.74173794e-05 -2.14019528e-05 -0.00531664724 -0.000184418532
      -0.0154950377 -0.00128495577 -0.000111098314 -0.000807214645
      -0.000227873825 -7.59699251e-05 -0.0030778842 -0.000347542751
      -0.0001237424 -0.000614891236 -0.00176853233 -0.000404508406
      -0.00485825073 -0.00157074747 -0.00051557587 2.00285554 2.6322968
      -0.00354033057 -0.00211380725 -0.00382613321 -3.52767438e-06
      -0.00963392574 -0.0205756128 -0.0185298398 -0.0192478504
      -0.00350509677 0.243312418 -0.00604742207 -0.000805139891
      -0.000675064744 -0.000963044353 1.45991659 -0.00757972104
      -3.09901552e-05 -4.52566819e-05 -3.04589685e-05 -0.00559338741
      -0.00200639293 -0.000662654638 1.51162124 -0.00175442966
      -0.000125851016 -3.95113557e-06 -0.000914205739 -2.22063591e-05
      0.698128641 0.930821478 -0.00170439982 -1.10875535e-05
      -8.66554615e-07 -0.000401310826 -0.00555980299 2.14636064
      -0.000577779836 0.541198373 -0.015364401 -9.83200334e-06
      -0.00869578868 -0.00221662945 -0.000538638502 -0.0054496401
      -0.00561403437 3.5080955 -0.0203687288 -0.000945088628 1.97354877
      -0.00674040895 -0.00252457708 -8.11805003e-05 -0.00760070188
      2.37114215 -1.36798167e-06 -0.000128032028 -0.00104457827
      1.17919099 -0.000153048983 -3.28960559e-05 -0.000559568813
      -0.0045790514 -0.00174359046 -0.00052219443 -2.25966323e-05
      -8.82251552e-05 -0.000966392166 -6.50091238e-07 -4.13647331e-06
      -0.000214976622 -5.13480081e-05 -0.00851838943 -1.08389777e-05
      -0.00422389479 -0.00086361327 -0.0039839861 -0.00797250587
      -0.00387825072 -0.01799923 -0.00103276235 -0.00327509851
      0.29545778 0.211348265 -9.08080619e-05 -9.55383148e-05 0.399795115
      -0.000200260358 0.522816479 -0.000153884394 0.0764325783
      -3.85213389e-06 0.0499246344 0.0719056353 -0.000189934333
      0.69927448 -0.00338287139 0.462042987 -2.31149697e-05
      -0.000200698967 -3.06672314e-06 -2.52013433e-06 0.221239239
      -0.00220819935 -0.00361379352 0.717535853 -1.15875957e-06
      0.614650369 -3.85366729e-06 -0.00249470468 0.808722258
      -0.000191384548 0.0516988337 -0.000237851084 -0.000344571599
      0.513412058 -3.41883315e-05 -0.00041454591 0.0504333749
      -0.00138848892 -0.00105279649 -0.000279582542 0.125163212
      0.492953628 0.521396637 -0.00109017373 -0.00165972533
      -0.00193094218 0.209531471 -0.00145905756 -1.41029641e-05
      -0.00336034526 0.256744981 -0.00611993019 -0.00254453416
      -0.000125373539 -3.08621838e-06 0.431978136 -2.33767821e-07
      -3.78591494e-07 0.207993343 0.852007926 -1.4966763e-05
      -1.88039958e-05 -0.000209826743 -0.000404948485 0.304455936
      -0.00015063028 -9.50882968e-05 0.249184653 -1.95348985e-05
      -2.13809308e-05 -0.000143242796 -3.9786566e-05 -1.6191525e-05
      0.00496014208 0.00849656016 -0.000247112359 -0.000118923483
      -0.000104953571 0.06974563 -0.000653786643 0.0735827908
      0.253905594 -0.000120411634 4.13949601e-06 -0.000193646454
      -3.67780376e-05 0.253399044 0.510859847 -2.46558502e-05
      0.025973767 -9.18569494e-05 -4.2219217e-05 -0.000469876861
      -6.9260539e-05 0.0563578084 -0.000264121802 -0.000190921492
      -2.96140206e-05 -0.000183966025</_>
    <_>
      1.33456552 -3.1163981 -0.00755659817 2.06067348 -0.000163558172
      -0.0122299921 -0.000609630311 -0.00176819309 -3.81552718e-06
      -1.71592001e-05 -3.31712982e-07 -9.14385528e-05 -0.000279294443
      -0.00021700791 0.242754892 0.731355727 -0.0032393639 0.641592264
      -0.000156029229 -0.00133434124 -0.000832766294 -0.00532919914
      -0.010618601 -1.48151612e-05 1.07922912 1.67410135 -9.1050415e-06
      -4.62413627e-05 -2.13298863e-05 -0.00418720022 -0.000181952171
      -0.0158796571 -0.00124892138 -0.000109764092 -0.000804427022
      -0.000227890981 -7.41865588e-05 -0.00215944415 -0.000343529391
      -0.000123612015 -0.000612869044 -0.00172368647 -0.000409877655
      -0.00515896501 -0.00159352773 -0.000517400855 2.16717458
      2.69542098 -0.0024997897 -0.00206033769 -0.00392579334
      -3.46147408e-06 -0.0096689295 -0.0216357205 -0.0183072295
      -0.0159892626 -0.00345401675 0.33921054 -0.00603130786
      -0.000818203378 -0.000696685165 -0.00095997937 1.26540828
      -0.00819114782 -3.12860975e-05 -4.53363537e-05 -2.9755116e-05
      -0.00560670113 -0.00197450095 -0.000671986258 1.34833181
      -0.00174263609 -0.000126095532 -3.82316603e-06 -0.000896806479
      -2.17854522e-05 0.54851222 0.71058327 -0.00169791188
      -1.09680013e-05 -8.56110546e-07 -0.000405248866 -0.00604607351
      2.34437203 -0.00057161029 0.600626409 -0.0154831139
      -9.81314679e-06 -0.00878686178 -0.00221372675 -0.00053183391
      -0.005454225 -0.0056454991 3.27089953 -0.0200129356 -0.00095990015
      2.12656665 -0.00674804114 -0.00249105855 -7.9052923e-05
      -0.00754125696 2.17567658 -1.34629909e-06 -0.000126054845
      -0.00104313833 1.19580829 -0.000150502354 -3.27676426e-05
      -0.000552439364 -0.00354803144 -0.0017287184 -0.000535705767
      -2.26681532e-05 -8.90202427e-05 -0.000945727224 -6.1726837e-07
      -4.15701652e-06 -0.000212178566 -5.12261722e-05 -0.00838239864
      -1.07357182e-05 -0.00417042943 -0.000836334366 -0.00542112207
      -0.00808127038 -0.0037751114 -0.0178785454 -0.0013289816
      -0.00322376937 0.291694552 0.213810921 -9.08685251e-05
      -9.50311878e-05 0.403835028 -6.32736192e-05 0.504693687
      -0.000153555127 0.0644348264 -3.87978298e-06 0.0532659218
      0.0483573228 -0.000191125189 0.710601628 -0.0034602955 0.444467843
      -2.30575697e-05 -0.000202609517 -3.10002702e-06 -2.53373264e-06
      0.217363045 -0.00209515146 -0.00333769782 0.73246026
      -1.16369665e-06 0.625927269 -3.86502916e-06 -0.00266574766
      0.796836078 -0.000206416618 0.0520079061 -0.000323871325
      -0.00037047072 0.492535591 -3.39687431e-05 -0.0004098957
      0.0706444681 -0.00135154033 -0.00124960928 -0.000283834146
      0.112811066 0.484634459 0.514787436 -0.00124900008 -0.00180394808
      -0.00197098195 0.232620224 -0.00144751812 -1.41525361e-05
      -0.00332861859 0.221547633 -0.00586107653 -0.00250729686
      -0.000124097089 -3.10892369e-06 0.441333979 -2.321148e-07
      -3.80985199e-07 0.205983743 0.83346808 -1.49659254e-05
      -1.88033537e-05 -0.000209817968 -0.0004050438 0.304569542
      -0.000150626394 -9.50861795e-05 0.249320537 -1.95341781e-05
      -2.05659126e-05 -0.000143239973 -3.97853364e-05 -1.61909829e-05
      0.00484542549 0.00837637484 -0.000247106596 -0.000118738746
      -0.000104981955 0.0698431954 -0.000653914001 0.0733881593
      0.254017174 -0.000120408171 3.72959767e-06 -0.000193642714
      -3.7462898e-05 0.253756583 0.511229515 -2.46548279e-05
      0.0256764144 -9.18536171e-05 -4.22180965e-05 -0.000469932478
      -6.86571948e-05 0.0564182773 -0.0002641397 -0.000190913619
      -2.96132184e-05 -0.000184339966</_>
    <_>
      0.820299089 -3.18055344 -0.00742004858 1.71420836 -0.000156726499
      -0.0121170022 -0.000572678982 -0.00176065171 -3.653146e-06
      -1.65894053e-05 -3.24681309e-07 -8.92880926e-05 -0.000270144636
      -0.000210219732 0.672386467 0.702142715 -0.00315949484 0.477548957
      -0.000151471642 -0.00124860578 -0.000800572976 -0.00521234144
      -0.00964035001 -1.42824074e-05 1.12815535 1.65542638
      -7.65464847e-06 -4.55561421e-05 -1.98949874e-05 -0.00714628305
      -0.000176297894 -0.0141617963 -0.00121670612 -0.000102809565
      -0.000784713251 -0.000221345603 -7.08884254e-05 -0.00178715342
      -0.000323535089 -0.000114664013 -0.000575299491 -0.0016763719
      -0.000359949801 -0.00501243537 -0.00149475527 -0.000505051808
      2.0408597 2.69929528 -0.00504698185 -0.00199427921 -0.00355557632
      -3.23837207e-06 -0.00953699276 -0.0201199576 -0.017405292
      -0.0224587563 -0.00340648089 0.151457816 -0.0060108006
      -0.000785898126 -0.000610602845 -0.000915294571 1.28743792
      -0.007971799 -3.05719695e-05 -4.12902264e-05 -2.93288613e-05
      -0.00526237674 -0.00194051571 -0.000632909767 1.4530443
      -0.00173535838 -0.000118075601 -3.42864791e-06 -0.000836367719
      -2.07394805e-05 0.604105055 1.12555206 -0.00167046906
      -1.06888538e-05 -7.48483558e-07 -0.000386061991 -0.00655948976
      2.08650875 -0.000547353353 0.532627344 -0.014257744
      -1.00292737e-05 -0.00829208735 -0.00196803338 -0.000505773874
      -0.00519961957 -0.00518979644 3.18140388 -0.0194908511
      -0.000917949306 2.04975319 -0.00645101769 -0.00240221573
      -7.49880783e-05 -0.007090542 2.08535337 -1.21692653e-06
      -0.000118040858 -0.000968179083 1.42557538 -0.000142375473
      -3.05171216e-05 -0.000544952054 -0.00588080101 -0.00165064028
      0.132118344 -2.14755019e-05 -8.18427143e-05 -0.000864046335
      -5.24968129e-07 -3.96384075e-06 -0.000199431306 -4.96109133e-05
      -0.00823909603 -1.08179411e-05 -0.00431199232 -0.000800562906
      -0.00441245595 -0.0076113278 -0.0035019638 -0.0172822028
      -0.00136068801 -0.00262734666 0.300760329 0.219058603
      -9.22668114e-05 -9.52417977e-05 0.380232662 -4.04317761e-05
      0.472575486 -0.00015267136 0.0905771181 -4.06065828e-06
      0.0297355354 0.0667299107 -0.000197943358 0.754089713
      -0.00393040152 0.48494488 -2.22816507e-05 -0.000207360979
      -3.18341745e-06 -2.4411188e-06 0.215548366 -0.00184866111
      -0.00368350814 0.724576592 -1.11368649e-06 0.639775097
      -3.71198985e-06 -0.00300048222 0.85492003 -0.000762489333
      0.0453197658 -0.000340746308 -0.000601261971 0.461775929
      -3.416248e-05 -0.000420832919 0.0519199893 -0.00138004392
      -0.00146887801 -0.000297726452 0.0839146003 0.444687217
      0.582556665 -0.00157747709 -0.00153990567 -0.00209719595
      0.240404084 -0.00146070553 -1.375393e-05 -0.00350144971
      0.244438857 -0.00615033414 -0.00265063276 -0.000124935657
      -3.05201957e-06 0.439450562 -2.20725155e-07 -3.624925e-07
      0.230032504 0.831318736 -1.49644875e-05 -1.8802144e-05
      -0.000209807258 -0.000405201688 0.304716557 -0.000150620283
      -9.50825488e-05 0.249513477 -1.95329121e-05 -1.91947074e-05
      -0.000143235578 -3.97831973e-05 -1.6189997e-05 0.00470916927
      0.00822028518 -0.000247105694 -0.000117826719 -0.000105020321
      0.0699983686 -0.000654154166 0.0730532706 0.25416714
      -0.000120402678 3.07935989e-06 -0.000193640604 -3.79942721e-05
      0.254340738 0.511802554 -2.46530035e-05 0.0251996741
      -9.18480073e-05 -4.22161029e-05 -0.000470049679 -6.76329582e-05
      0.0565032847 -0.000264175906 -0.000190903796 -2.96118214e-05
      -0.000184931603</_>
    <_>
      1.70129168 -3.77264929 -0.0077713239 2.34907866 -0.000171167994
      -0.0126362396 -0.00059946382 -0.00182714977 -3.47934315e-06
      -1.69032446e-05 -3.33935049e-07 -9.02764295e-05 -0.000281990855
      -0.000226544362 -0.000137575116 0.989906132 -0.00323929568
      0.425283372 -0.000164846584 -0.00138743012 -0.000882960565
      -0.00539580081 -0.0111144679 -1.44028954e-05 1.35849369 1.93890417
      -1.01751448e-05 -4.60474912e-05 -2.15288128e-05 -0.00628922554
      -0.000185968282 -0.0146044558 -0.00132490264 -0.000114695467
      -0.000803410076 -0.000238557041 -7.41731055e-05 -0.00122441037
      -0.000354444492 -0.000123154648 -0.000643442734 -0.0017404902
      -0.00044642284 -0.0049622613 -0.00159283215 -0.000519609952
      2.05979395 2.98022342 -0.000905914814 -0.00210547447
      -0.00420448929 -3.37887286e-06 -0.00964124035 -0.0248547364
      -0.0196255669 -0.0141508933 -0.00362844765 0.525144398
      -0.00615742197 -0.000803215138 -0.00071785372 -0.000954816816
      1.43233252 -0.00563182589 -3.15276666e-05 -4.61903619e-05
      -2.90614516e-05 -0.00583187398 -0.00209044642 -0.000675264513
      1.14037573 -0.00175176677 -0.000123007238 -4.45470369e-06
      -0.000911403564 -2.18805453e-05 0.83338958 0.5180282
      -0.00168722263 -1.09427119e-05 -8.77033926e-07 -0.0004105689
      -0.00651363609 2.54875016 -0.00063695648 0.749452949 -0.0159796569
      -1.01338837e-05 -0.00923300255 -0.00201771292 -0.000555594801
      -0.00565065676 -0.00595758529 3.81377196 -0.0214895289
      -0.000994740054 2.26793599 -0.00693636201 -0.00256264652
      -7.8021978e-05 -0.00800601114 2.48288894 -1.35584219e-06
      -0.000128630039 -0.00108766777 1.01289713 -0.00015277999
      -3.40595325e-05 -0.000578808656 -0.00441790698 -0.00179510307
      -0.00174855313 -2.36216038e-05 -9.26642169e-05 -0.000946785498
      -6.5918249e-07 -4.43666886e-06 -0.000219289228 -5.16811706e-05
      -0.00879085902 -1.09230286e-05 -0.00397651782 -0.000861930661
      -0.00397739746 -0.00839545485 -0.00414902857 -0.0185216144
      0.107308201 -0.00390999159 0.308864892 0.245277971 -9.19827435e-05
      -9.39510355e-05 0.414514214 -0.000152865585 0.50128752
      -0.000152650609 0.0835957155 -3.97915846e-06 0.0341649279
      0.0828542635 -0.000192377003 0.72472018 -0.00367387012 0.453520417
      -2.26730353e-05 -0.000205404416 -3.12560701e-06 -2.4835042e-06
      0.227699712 -0.00200850191 -0.003758671 0.723197937
      -1.13678607e-06 0.633721888 -3.77486458e-06 -0.00274618971
      0.831604481 -0.000536943611 0.0333968401 -0.000282574911
      -0.0005427305 0.493282557 -3.41632476e-05 -0.000412360911
      0.0538645238 -0.00145965721 -0.0013982302 -0.000287304574
      0.103738531 0.470485598 0.555251539 -0.00125121616 -0.00148465962
      -0.0021118091 0.220802054 -0.00145896641 -1.38765708e-05
      -0.00343047362 0.247369409 -0.00613096682 -0.00259684445
      -0.000125631952 -3.06895458e-06 0.426470965 -2.23948817e-07
      -3.70074616e-07 0.232564732 0.828991592 -1.49683428e-05
      -1.88057147e-05 -0.000209823062 -0.000404794206 0.304468393
      -0.000150635169 -9.50924004e-05 0.249114558 -1.95364119e-05
      -2.2851098e-05 -0.000143245998 -3.97890108e-05 -1.61928001e-05
      0.00489224494 0.00848972052 -0.000247081392 -0.000122180834
      -0.000104947561 0.0696126074 -0.000653443451 0.0739715323
      0.253890604 -0.000120416094 4.65847552e-06 -0.000193633168
      -3.85577587e-05 0.252839893 0.510435939 -2.46580967e-05
      0.0263969675 -9.18627265e-05 -4.22216617e-05 -0.000469668361
      -7.03927144e-05 0.0563295372 -0.000264061644 -0.000190919105
      -2.96156431e-05 -0.00018347615</_>
    <_>
      1.54364252 -3.51372051 -0.00788086001 2.30350351 -0.000169305655
      -0.0126803797 -0.000607837108 -0.00182155787 -3.68382302e-06
      -1.72237396e-05 -3.39756298e-07 -9.11767202e-05 -0.000274906692
      -0.000221684313 0.193418935 0.772210121 -0.0033188893 0.411954284
      -0.00016181347 -0.00134001789 -0.000876804173 -0.00553350756
      -0.01112781 -1.49224679e-05 1.18409526 1.73931432 -9.30149872e-06
      -4.77374379e-05 -2.11871065e-05 -0.00808616169 -0.000187037658
      -0.0153636308 -0.00128339487 -0.000107393913 -0.000810486556
      -0.000231407976 -7.36573056e-05 -0.00222629379 -0.000346143526
      -0.00012765282 -0.000624931359 -0.00172980339 -0.000401591678
      -0.00509385578 -0.00167692208 -0.000524469244 1.91906536
      2.92494297 -0.00341886724 -0.00209628022 -0.0040756017
      -3.35159643e-06 -0.0100536197 -0.0239222348 -0.0187019911
      -0.0181933977 -0.00360681047 0.284450889 -0.00626385771
      -0.000864803907 -0.000685204868 -0.00098689273 1.3177855
      -0.00836927351 -3.0616593e-05 -4.51901396e-05 -2.97626448e-05
      -0.00575818121 -0.0020317717 -0.000664053718 1.22609866
      -0.00180534436 -0.000125617124 -4.18788022e-06 -0.000909115304
      -2.10738926e-05 0.622618616 0.686424732 -0.0017605935
      -1.09583298e-05 -8.27145413e-07 -0.000416263734 -0.00792510342
      2.5806706 -0.000636770856 0.63864249 -0.0161680542 -1.05132031e-05
      -0.00923977885 -0.00245569157 -0.00054711767 -0.00565658277
      -0.00575134857 3.47666812 -0.0208148006 -0.000954721472 2.32290816
      -0.00701324129 -0.00254435651 -7.78019094e-05 -0.00766817993
      2.23923874 -1.32898288e-06 -0.000123663543 -0.00103619706
      1.13819468 -0.00015062296 -3.32973359e-05 -0.000571097014
      -0.0054493621 -0.00179893174 -0.000209683451 -2.32503207e-05
      -8.88884606e-05 -0.000907912967 -5.93632819e-07 -4.4526555e-06
      -0.000210667029 -5.31921469e-05 -0.00874928292 -1.09174189e-05
      -0.00434670132 -0.000838018721 -0.00552125042 -0.00818597432
      -0.00394904893 -0.0180109013 -0.000863991794 -0.00341577316
      0.285770208 0.252995521 -9.16828576e-05 -9.45757856e-05
      0.417079777 0.0317769945 0.457749009 -0.000152918379 0.0953000113
      -3.97708845e-06 0.0310972556 0.0652178302 -0.000199436356
      0.801251113 -0.00392590137 0.434566736 -2.20173824e-05
      -0.000205291697 -3.16279966e-06 -2.41486396e-06 0.233742118
      -0.00155515235 -0.00346063636 0.700473964 -1.10854251e-06
      0.612273932 -3.67128837e-06 -0.00309256511 0.848991036
      -0.000749751402 0.0514708608 -0.000567732088 -0.000641036488
      0.481768996 -3.3254164e-05 -0.00041851803 0.0749896839
      -0.00121179305 -0.00167627109 -0.000301281805 0.0966272205
      0.444247931 0.593673587 -0.00155363604 -0.00126533443
      -0.00254029036 0.275876164 -0.00147904723 -1.37456e-05
      -0.00353332865 0.236305356 -0.00589908147 -0.00269349385
      -0.000124119368 -2.99535327e-06 0.422986478 -2.17811177e-07
      -3.61161057e-07 0.24401243 0.799017727 -1.49674443e-05
      -1.88049762e-05 -0.000209815626 -0.000404893886 0.304567665
      -0.00015063124 -9.50901303e-05 0.249241978 -1.95356242e-05
      -2.19801441e-05 -0.000143243189 -3.97876793e-05 -1.61921926e-05
      0.00479733944 0.00838384032 -0.000247079355 -0.000121687874
      -0.000104973369 0.0697125793 -0.000653590076 0.0737596303
      0.253990829 -0.000120412573 4.24456084e-06 -0.00019363116
      -3.89853485e-05 0.253213257 0.510806084 -2.46569671e-05
      0.0260905251 -9.18591904e-05 -4.22204248e-05 -0.000469738268
      -6.97435244e-05 0.0563860312 -0.000264083472 -0.000190912353
      -2.96147718e-05 -0.000183856944</_>
    <_>
      1.53952384 -3.65202045 -0.00790376496 2.30011582 -0.00017023753
      -0.0127464579 -0.000608257425 -0.00182366639 -3.71687543e-06
      -1.73155768e-05 -3.41606238e-07 -9.21066094e-05 -0.000277073763
      -0.000223230396 0.184370473 0.830398619 -0.00332775759 0.366292298
      -0.000163412711 -0.00134547555 -0.000880361942 -0.00554600358
      -0.0110647725 -1.50739888e-05 1.23067868 1.79998755
      -9.54271309e-06 -4.82074574e-05 -2.1312544e-05 -0.00831712037
      -0.000187511861 -0.0152470395 -0.00129749998 -0.00010790387
      -0.00081160327 -0.000233446655 -7.4491094e-05 -0.00224837917
      -0.000348669913 -0.000127729363 -0.000627702975 -0.00173961162
      -0.00040342912 -0.00510741957 -0.00167886727 -0.00052743376
      1.87434864 2.93747544 -0.00331638125 -0.00210900931 -0.00408333819
      -3.3628728e-06 -0.0100801755 -0.0238323174 -0.0188206043
      -0.0179026239 -0.00362801296 0.28278178 -0.00628404366
      -0.00086709013 -0.000680780795 -0.000988216256 1.3710463
      -0.00798171759 -3.07963746e-05 -4.53479297e-05 -3.01204327e-05
      -0.00578043703 -0.00204793713 -0.00066732429 1.23783815
      -0.00181284081 -0.000125947336 -4.19100888e-06 -0.000914559816
      -2.13691292e-05 0.675846875 0.664585769 -0.00176333752
      -1.10648007e-05 -8.32060721e-07 -0.000414538401 -0.00791755691
      2.57453895 -0.000640378741 0.644867837 -0.0161842331
      -1.05339477e-05 -0.00928735454 -0.00244184374 -0.00055007753
      -0.00567076448 -0.00579158869 3.57481599 -0.0209880285
      -0.000958626682 2.32023787 -0.00704180542 -0.00255971984
      -7.86068704e-05 -0.00773515785 2.30602145 -1.34158859e-06
      -0.000124518861 -0.00104128197 1.1217612 -0.000151831089
      -3.34955839e-05 -0.000574380916 -0.00540676387 -0.00180352642
      -0.000431435532 -2.33573792e-05 -8.91274904e-05 -0.000912931864
      -6.04448417e-07 -4.48299306e-06 -0.000212614526 -5.32880185e-05
      -0.00882584788 -1.09884968e-05 -0.00434241677 -0.000848593889
      -0.00512426253 -0.00822412409 -0.00398268597 -0.0181062669
      -0.000579474319 -0.00346085685 0.293374121 0.242172688
      -9.20561433e-05 -9.48901434e-05 0.416900635 0.00768464711
      0.476792455 -0.000152649416 0.087177597 -3.99628561e-06
      0.0311044157 0.0806106254 -0.00019581418 0.770592213
      -0.00385005143 0.458022892 -2.22786657e-05 -0.000203755189
      -3.12017687e-06 -2.43154363e-06 0.232886493 -0.00179959903
      -0.00356124621 0.704332709 -1.11279303e-06 0.61678952
      -3.69996405e-06 -0.00307789026 0.849125087 -0.000612868404
      0.0427561402 -0.000480576273 -0.000495221175 0.493202835
      -3.36698322e-05 -0.000420830882 0.0630616993 -0.0013607922
      -0.00151656743 -0.000294822821 0.107895195 0.465138257 0.58735311
      -0.00146500685 -0.00119248778 -0.00236523524 0.244468465
      -0.00147730066 -1.36971794e-05 -0.00352193764 0.260768116
      -0.00611416204 -0.00267660501 -0.000125224455 -3.01566774e-06
      0.43467766 -2.19946159e-07 -3.61917216e-07 0.237404808 0.82035464
      -1.49680154e-05 -1.880544e-05 -0.000209820515 -0.000404830294
      0.304502964 -0.000150633758 -9.5091571e-05 0.249159455
      -1.95361226e-05 -2.2537577e-05 -0.000143244994 -3.97885269e-05
      -1.61925764e-05 0.00485982001 0.00845300406 -0.000247080985
      -0.000121985599 -0.000104956547 0.0696482882 -0.0006534977
      0.0738951117 0.253925711 -0.000120414828 4.50911466e-06
      -0.000193632601 -3.86930624e-05 0.252973855 0.510568023
      -2.46576819e-05 0.026287429 -9.1861446e-05 -4.22212106e-05
      -0.000469694583 -7.01587051e-05 0.0563493446 -0.000264069793
      -0.000190916777 -2.96153266e-05 -0.000183612239</_>
    <_>
      1.55598891 -4.11212921 -0.0077217659 2.31614804 -0.000160753232
      -0.0126228686 -0.000584598165 -0.00166823401 -3.93804157e-06
      -1.72647324e-05 -3.35354088e-07 -9.39937454e-05 -0.000282534922
      -0.00022289659 0.141149119 1.04756105 -0.00330121699 0.127430931
      -0.000160001786 -0.00132504816 -0.000833351864 -0.00536280731
      -0.0103220511 -1.5592248e-05 1.39761388 1.96395504 -9.29250473e-06
      -4.939262e-05 -2.10685066e-05 -0.0101119699 -0.000182999982
      -0.0153373834 -0.0013474978 -0.000104705854 -0.000778577116
      -0.000229538957 -7.71405539e-05 -0.00240504881 -0.000348304195
      -0.000123357953 -0.000596762053 -0.00175945973 -0.00037971753
      -0.00491650449 -0.0016222113 -0.000526124611 1.62062597 2.884866
      -0.00203883625 -0.00212148717 -0.00383848208 -3.48468643e-06
      -0.00988278165 -0.0228761286 -0.0181610212 -0.0181227606
      -0.00352734374 0.178382888 -0.00609952305 -0.000852943864
      -0.00063230365 -0.000945971988 1.4795351 -0.00594452117
      -3.02850822e-05 -4.37776798e-05 -3.11610638e-05 -0.0056013912
      -0.00203983975 -0.000651895825 1.19322836 -0.00176405022
      -0.000122740021 -3.62944525e-06 -0.000894767465 -2.2056598e-05
      0.857336819 0.659486592 -0.00168926385 -1.11993986e-05
      -7.9348564e-07 -0.000386055966 -0.00852451567 2.58282924
      -0.000573056284 0.654256701 -0.0154127795 -1.01052719e-05
      -0.00918580126 -0.0024531777 -0.000535756641 -0.00541629223
      -0.00561437616 3.79195094 -0.0205747318 -0.00091753382 2.32250857
      -0.00695168553 -0.00249388302 -8.0169084e-05 -0.00769884558
      2.42942595 -1.35765015e-06 -0.000120930461 -0.00103804795
      0.951228201 -0.000155090034 -3.31895826e-05 -0.000569665921
      -0.00583320204 -0.00170966575 -0.00099995872 -2.22562612e-05
      -8.334632e-05 -0.000932891329 -6.33325669e-07 -4.39872747e-06
      -0.000213181745 -5.19935857e-05 -0.00886224303 -1.09147823e-05
      -0.00407620287 -0.000891023956 -0.00296349125 -0.00808326248
      -0.00386001053 -0.0183464792 0.0715233535 -0.00345772458
      0.301097065 0.225257069 -9.14009725e-05 -9.47529406e-05
      0.422838867 -9.50299291e-05 0.517851114 -0.000153283938
      0.0852099881 -3.8977023e-06 0.0399908274 0.0705329254
      -0.000190434308 0.723524451 -0.00348696904 0.444174111
      -2.28292629e-05 -0.000202205934 -3.09991037e-06 -2.49402933e-06
      0.234992534 -0.00205210503 -0.00355045823 0.723851442
      -1.14567547e-06 0.614987791 -3.80316965e-06 -0.00272082444 0.81961
      -0.000498096982 0.0472647697 -0.000333763921 -0.000448607927
      0.500811517 -3.38842401e-05 -0.000414590613 0.0613739006
      -0.00135712675 -0.0012258857 -0.000283520843 0.131544173
      0.471877694 0.53453505 -0.00119132397 -0.00147342286
      -0.00211807969 0.251591086 -0.00146437553 -1.39906788e-05
      -0.00340208458 0.253457546 -0.00601738272 -0.00258153188
      -0.000125647857 -3.06655943e-06 0.433164477 -2.26733874e-07
      -3.74232457e-07 0.223750219 0.82069248 -1.49688376e-05
      -1.88060549e-05 -0.000209829799 -0.000404736027 0.30438292
      -0.000150637628 -9.50936301e-05 0.249020115 -1.95368229e-05
      -2.33239116e-05 -0.000143247846 -3.97897275e-05 -1.61931002e-05
      0.00498244911 0.00857876241 -0.000247087999 -0.000122033467
      -0.000104927291 0.0695524365 -0.000653376395 0.07408081
      0.253808975 -0.000120418292 4.92238905e-06 -0.000193636995
      -3.78990553e-05 0.252624691 0.51019907 -2.46586733e-05 0.026579015
      -9.18647274e-05 -4.22222984e-05 -0.000469643826 -7.07390354e-05
      0.0562875494 -0.000264053233 -0.000190925086 -2.9616107e-05
      -0.000183242591</_>
    <_>
      0.790766835 -3.0355649 -0.00784187578 1.75408077 -0.000169323495
      -0.0125879617 -0.000628041395 -0.00184635143 -3.74634169e-06
      -1.71974571e-05 -3.33936441e-07 -9.20259481e-05 -0.000272723177
      -0.000221144466 0.782773376 0.653115809 -0.00331935519 0.654022634
      -0.000162857512 -0.00132697041 -0.00088239467 -0.00554244639
      -0.0105510373 -1.49468133e-05 0.957801759 1.67581236
      -8.87890928e-06 -4.77846661e-05 -2.16037497e-05 -0.00574292475
      -0.000193175612 -0.0158624519 -0.00125491782 -0.000109612847
      -0.000828438904 -0.000224156815 -7.26712824e-05 -0.00337772164
      -0.000339582708 -0.000131110675 -0.000643352396 -0.00175101648
      -0.000395399315 -0.00462380797 -0.0016558331 -0.000512451748
      2.20927358 2.65510583 -0.00566856889 -0.0020882166 -0.00384879461
      -3.56321448e-06 -0.00998760387 -0.0201920476 -0.0190977603
      -0.0236108769 -0.00359691586 0.215011299 -0.00622872263
      -0.000883405562 -0.000701354293 -0.001006659 1.32697463
      -0.0111884987 -3.00399061e-05 -4.59203911e-05 -2.88511146e-05
      -0.00582462782 -0.00200516917 -0.000663647312 1.55995166
      -0.00179801835 -0.000129247972 -4.41591465e-06 -0.000916777528
      -2.1481721e-05 0.442408413 1.07904136 -0.00178480207
      -1.07032338e-05 -8.46988542e-07 -0.000431566645 -0.00534846121
      2.09591413 -0.000640900573 0.484681308 -0.0159861129
      -1.02766844e-05 -0.00892058201 -0.00273304363 -0.000549505115
      -0.00571581395 -0.00572472997 3.2240355 -0.0206962097
      -0.000925823231 1.95421612 -0.00688788528 -0.00256841024
      -7.76782763e-05 -0.00759973284 2.20115399 -1.32239859e-06
      -0.000127216859 -0.0010406439 1.38734412 -0.000149430518
      -3.32141317e-05 -0.000562554225 -0.00525668776 -0.00183311058
      0.0334500968 -2.36736541e-05 -8.91368472e-05 -0.000927779183
      -5.90252796e-07 -4.20823289e-06 -0.000206767072 -5.28966775e-05
      -0.00845488813 -1.06924854e-05 -0.00456457958 -0.00081659382
      -0.00680372026 -0.00801343285 -0.00387714524 -0.0176450424
      -0.00356936734 -0.00334385596 0.298861146 0.234362334
      -9.09763548e-05 -9.52172704e-05 0.426409632 0.00275211688
      0.522266567 -0.000153885485 0.0866940543 -3.83133192e-06
      0.0467671156 0.0813961551 -0.000189642946 0.726382375
      -0.00338387839 0.434168518 -2.282883e-05 -0.000200648559
      -3.06338757e-06 -2.50034259e-06 0.239827573 -0.00217797491
      -0.00340735633 0.733223975 -1.15055013e-06 0.610943854
      -3.81778091e-06 -0.00272576022 0.809143007 -0.000290069496
      0.056698516 -0.000404062826 -0.000465977326 0.527893901
      -3.35713012e-05 -0.000413515198 0.0687706918 -0.00130345637
      -0.00119693542 -0.000280266802 0.132818818 0.482768983 0.520480335
      -0.00112532452 -0.00153888261 -0.00211772323 0.253143251
      -0.00148457836 -1.40641978e-05 -0.00339422189 0.255037725
      -0.00601954432 -0.00257340167 -0.000124743921 -3.05565482e-06
      0.44497332 -2.27933043e-07 -3.76432496e-07 0.218924686 0.82499522
      -1.49708076e-05 -1.8807943e-05 -0.0002098353 -0.000404531049
      0.304285347 -0.000150644933 -9.50986869e-05 0.24883996
      -1.9538631e-05 -2.51887741e-05 -0.000143252895 -3.97927106e-05
      -1.61945645e-05 0.00503957272 0.00868666917 -0.000247070275
      -0.000124641097 -0.000104896113 0.0693612993 -0.000653000141
      0.0745542794 0.253692836 -0.000120424877 5.69591066e-06
      -0.000193630578 -3.85848034e-05 0.251870662 0.509534657
      -2.46613163e-05 0.0271748453 -9.1872178e-05 -4.22251833e-05
      -0.000469435705 -7.21523174e-05 0.0562095642 -0.000263991475
      -0.000190930718 -2.96180733e-05 -0.000182524949</_>
    <_>
      0.667158067 -2.70333624 -0.0079231644 1.67998338 -0.00017679311
      -0.01271646 -0.000682520331 -0.00186929107 -4.37543304e-06
      -1.81108062e-05 -3.31705905e-07 -9.74882714e-05 -0.000288209354
      -0.000217701483 0.859876096 0.520029068 -0.00342669291 0.808204651
      -0.0001663804 -0.00135137676 -0.000907804293 -0.00571047189
      -0.0111955572 -1.64008125e-05 0.815526307 1.57001984
      -9.04775879e-06 -4.85385899e-05 -2.25450822e-05 -0.00499571208
      -0.000194200475 -0.0166576188 -0.00124111329 -0.00011221935
      -0.000855689577 -0.000220943795 -7.84281656e-05 -0.00417820457
      -0.000363668863 -0.000136497038 -0.00067006005 -0.00179117138
      -0.000377935823 -0.00509830751 -0.00176294649 -0.000517739216
      2.35484838 2.54317403 -0.00684382021 -0.00218152627 -0.00392209692
      -4.08329697e-06 -0.0101785194 -0.0198895112 -0.0189692602
      -0.0246998519 -0.00361023797 0.20648855 -0.00635464303
      -0.000971163739 -0.00069928146 -0.00108101114 1.23960018
      -0.0130112264 -2.97202587e-05 -4.84712655e-05 -3.13608325e-05
      -0.00588850537 -0.00201783772 -0.000676774071 1.58162034
      -0.00183932495 -0.000134594666 -4.58827799e-06 -0.000967062369
      -2.17659599e-05 0.312122732 1.16404212 -0.00185658922
      -1.1078745e-05 -9.25424786e-07 -0.000455138565 -0.00442675501
      1.98237932 -0.000667146407 0.392064273 -0.0166344885
      -1.05146291e-05 -0.009161436 -0.00289347791 -0.000570967793
      -0.00585417636 -0.00585104572 3.05455613 -0.0206847861
      -0.000933395408 1.87753963 -0.00713489205 -0.00260975235
      -8.55157123e-05 -0.00778100127 2.05368495 -1.45311708e-06
      -0.000133493726 -0.00105303316 1.47751737 -0.00015689354
      -3.37915808e-05 -0.000568739255 -0.00591640873 -0.00192474236
      0.0759993643 -2.469832e-05 -9.28372683e-05 -0.000943598105
      -6.26687665e-07 -4.33203331e-06 -0.000210238781 -5.45411131e-05
      -0.00853127893 -1.08095892e-05 -0.00480869273 -0.000846258597
      -0.00800230913 -0.00816994719 -0.00397280324 -0.0171973053
      -0.00493960502 -0.00330627454 0.27683869 0.248222649
      -9.16854115e-05 -9.62184713e-05 0.398192853 0.0320796371
      0.47681129 -0.000153329995 0.0845071301 -3.95469169e-06
      0.0594909042 0.0601956472 -0.000197925678 0.795941532
      -0.00366517436 0.436378747 -2.20811962e-05 -0.000205791628
      -3.15796933e-06 -2.41105749e-06 0.241738498 -0.00181648566
      -0.00326680136 0.686349154 -1.10632527e-06 0.591658652
      -3.6712147e-06 -0.00309628132 0.837952495 -0.000587705872
      0.0631590784 -0.000662280479 -0.000594629208 0.515998125
      -3.34000033e-05 -0.000424041675 0.0764304996 -0.00116028101
      -0.00119889167 -0.000300424581 0.110492155 0.47220245 0.571240485
      -0.00149757729 -0.0014735905 -0.00252408488 0.272219718
      -0.00152679102 -1.37312009e-05 -0.00354262185 0.251913041
      -0.00592926424 -0.00267397007 -0.000124364757 -2.99296948e-06
      0.457084417 -2.20105974e-07 -3.59859825e-07 0.225410849
      0.827179968 -1.49682473e-05 -1.88056092e-05 -0.000209823309
      -0.00040480349 0.304466814 -0.000150634864 -9.50921458e-05
      0.249118537 -1.95363191e-05 -2.27556939e-05 -0.000143245823
      -3.97888616e-05 -1.61927219e-05 0.00489708781 0.00849055499
      -0.000247083342 -0.000121963429 -0.000104947925 0.0696212351
      -0.000653464405 0.0739460513 0.253890842 -0.000120415825
      4.62878961e-06 -0.000193634027 -3.84365376e-05 0.252875835
      0.510462284 -2.46579584e-05 0.026369594 -9.186237e-05
      -4.22215126e-05 -0.000469681283 -7.03191909e-05 0.0563312657
      -0.000264065398 -0.00019091928 -2.96155449e-05 -0.000183507305</_>
    <_>
      0.528738439 -2.73383951 -0.00757460808 1.47166991 -0.000166348924
      -0.0121654393 -0.000616632751 -0.00184095232 -3.6348581e-06
      -1.70075582e-05 -3.29956038e-07 -8.82704626e-05 -0.00026925141
      -0.000209210397 0.921284318 0.558907688 -0.00327100558 0.806037307
      -0.000160450727 -0.00133312016 -0.000853077276 -0.00545316515
      -0.0106394524 -1.4740509e-05 0.884926021 1.58160388
      -8.99670249e-06 -4.6537396e-05 -2.14087431e-05 -0.00482183276
      -0.000185517536 -0.0146636413 -0.00117062405 -0.000104247491
      -0.000809116871 -0.000226969787 -7.10845052e-05 -0.00331246993
      -0.000327673653 -0.000130399741 -0.000643488369 -0.00166102883
      -0.000386935804 -0.00496827671 -0.00169021683 -0.000502960233
      2.32280636 2.6477859 -0.00766272983 -0.00198775646 -0.0037940247
      -3.6629333e-06 -0.00991874654 -0.0178738795 -0.0190193895
      -0.0241696201 -0.00344753754 0.175892502 -0.00608251197
      -0.000905733265 -0.000681963575 -0.000996660441 1.2643373
      -0.0123900371 -3.07328846e-05 -4.52921267e-05 -2.89009677e-05
      -0.00566059537 -0.00192055921 -0.000687168736 1.5488168
      -0.00175909011 -0.000126644052 -4.34917456e-06 -0.000936603465
      -2.16309436e-05 0.330233604 1.12760973 -0.0017782175
      -1.08082522e-05 -7.98874737e-07 -0.00042355503 -0.00493740896
      1.84278548 -0.000643380801 0.474548906 -0.0156386904
      -1.0088228e-05 -0.00858911313 -0.00274072378 -0.000526787655
      -0.0056468253 -0.00567474728 3.08863449 -0.0199802257
      -0.000926545006 1.88878644 -0.00667251507 -0.00249288743
      -7.44812423e-05 -0.00741689792 2.08170509 -1.32643277e-06
      -0.000126230516 -0.00102475344 1.63548172 -0.000146240622
      -3.35623954e-05 -0.000535692438 -0.00438725809 -0.00179780717
      0.150689647 -2.38397715e-05 -8.69071155e-05 -0.000873875164
      -5.66056997e-07 -4.07608695e-06 -0.000197847534 -5.18885863e-05
      -0.00819054898 -1.02771673e-05 -0.00465074927 -0.00076527748
      -0.00766748702 -0.00813135877 -0.00362556125 -0.0171514098
      -0.00520296814 -0.00308760838 0.295996338 0.225330383
      -9.00465238e-05 -9.52094924e-05 0.407844752 -0.000353963434
      0.543429971 -0.000153611472 0.0654104799 -3.70782413e-06
      0.0820994303 0.0830786452 -0.000186353471 0.705128551
      -0.0031056162 0.446705759 -2.32994134e-05 -0.000197682035
      -3.04141713e-06 -2.55487089e-06 0.253139645 -0.00252869283
      -0.00343900872 0.723369479 -1.1727451e-06 0.59989655
      -3.8953599e-06 -0.00236774003 0.783697903 0.000726491213
      0.0669707283 -0.000257646869 -0.000236832348 0.56844008
      -3.36072553e-05 -0.000412303227 0.0673588812 -0.00112543604
      -0.000607526163 -0.000272078469 0.15322201 0.486368358 0.480935127
      -0.000939425372 -0.00194531865 -0.00169955462 0.238237277
      -0.00151742669 -1.42469844e-05 -0.00332958205 0.276635677
      -0.00592515385 -0.00251537911 -0.000123397534 -3.08759627e-06
      0.448432654 -2.33725089e-07 -3.85084263e-07 0.189834222
      0.871796846 -1.49683719e-05 -1.88057274e-05 -0.000209823615
      -0.000404790597 0.304462314 -0.000150635329 -9.50924659e-05
      0.249107331 -1.95364319e-05 -2.28911449e-05 -0.000143246129
      -3.97890508e-05 -1.61928147e-05 0.0048995316 0.00849691033
      -0.000247082178 -0.000122175552 -0.000104945837 0.0696074292
      -0.00065344054 0.0739812776 0.253884733 -0.000120416247
      4.67366772e-06 -0.000193633561 -3.85079147e-05 0.252822101
      0.510417521 -2.46581258e-05 0.0264125392 -9.1862843e-05
      -4.22216945e-05 -0.000469667604 -7.04220511e-05 0.0563260205
      -0.000264061324 -0.0001909196 -2.96156704e-05 -0.000183457349</_>
    <_>
      0.698934376 -2.65385675 -0.00746212481 1.57552075 -0.000162561453
      -0.0119997049 -0.000611305004 -0.00181577413 -3.52213738e-06
      -1.68438219e-05 -3.27919082e-07 -8.55833059e-05 -0.000264123897
      -0.000206492114 0.752096653 0.533027887 -0.00320203276 0.830396295
      -0.000157693721 -0.00131236017 -0.000841800356 -0.00535585918
      -0.0105865048 -1.4436836e-05 0.878153086 1.53624523 -8.7637527e-06
      -4.42442069e-05 -2.06255136e-05 -0.00451969402 -0.000180690229
      -0.0150931785 -0.00114721584 -0.000102890823 -0.000803543546
      -0.00022625133 -6.93137335e-05 -0.00218807254 -0.000317674596
      -0.000126752333 -0.000632180774 -0.00164004322 -0.000376566575
      -0.00500066206 -0.00164980884 -0.00048812048 2.37675309 2.60734391
      -0.00562358322 -0.00194561377 -0.00370026287 -3.54267854e-06
      -0.00972991902 -0.018489074 -0.0187066197 -0.0223976132
      -0.00341127114 0.301542431 -0.00599998841 -0.000831447018
      -0.000664582069 -0.000979726552 1.1939292 -0.0115237301
      -3.10378928e-05 -4.37152703e-05 -2.79034975e-05 -0.00557475397
      -0.00190070656 -0.00068527495 1.49385941 -0.00173881452
      -0.000125030419 -4.20076412e-06 -0.000900803774 -2.14817464e-05
      0.333618909 0.980780661 -0.00172741408 -1.06293219e-05
      -7.37174105e-07 -0.000416102965 -0.00378293986 1.85811579
      -0.000629596529 0.499406248 -0.0156071885 -1.00061725e-05
      -0.00859462004 -0.00257600565 -0.00051672582 -0.00558038568
      -0.0056758807 3.01492524 -0.0198643617 -0.000917095807 1.94327867
      -0.00660452014 -0.00244063698 -7.17141666e-05 -0.00732509699
      2.00483513 -1.26460259e-06 -0.000124218597 -0.00102153129
      1.55871999 -0.000143922065 -3.26920126e-05 -0.000528515317
      -0.00349311205 -0.00177195587 0.0945510566 -2.31457816e-05
      -8.27374388e-05 -0.000860559638 -5.45094224e-07 -4.06510753e-06
      -0.000191649713 -5.08105659e-05 -0.00803752057 -1.0119601e-05
      -0.00454333704 -0.000747182232 -0.00757581089 -0.0080426354
      -0.00357856671 -0.0169595219 -0.00444045058 -0.00311997323
      0.295996338 0.225330383 -9.00465238e-05 -9.52094924e-05
      0.407844752 -0.000353963434 0.543429971 -0.000153611472
      0.0654104799 -3.70782413e-06 0.0820994303 0.0830786452
      -0.000186353471 0.705128551 -0.0031056162 0.446705759
      -2.32994134e-05 -0.000197682035 -3.04141713e-06 -2.55487089e-06
      0.253139645 -0.00252869283 -0.00343900872 0.723369479
      -1.1727451e-06 0.59989655 -3.8953599e-06 -0.00236774003
      0.783697903 0.000726491213 0.0669707283 -0.000257646869
      -0.000236832348 0.56844008 -3.36072553e-05 -0.000412303227
      0.0673588812 -0.00112543604 -0.000607526163 -0.000272078469
      0.15322201 0.486368358 0.480935127 -0.000939425372 -0.00194531865
      -0.00169955462 0.238237277 -0.00151742669 -1.42469844e-05
      -0.00332958205 0.276635677 -0.00592515385 -0.00251537911
      -0.000123397534 -3.08759627e-06 0.448432654 -2.33725089e-07
      -3.85084263e-07 0.189834222 0.871796846 -1.49675452e-05
      -1.8804918e-05 -0.000209822014 -0.000404875726 0.304495335
      -0.000150632346 -9.50903413e-05 0.249176487 -1.95356679e-05
      -2.21103055e-05 -0.000143244091 -3.97877957e-05 -1.61921926e-05
      0.0048854202 0.00845970958 -0.000247091055 -0.000120979174
      -0.000104957289 0.069685936 -0.000653602008 0.0737816617
      0.253926694 -0.000120413541 4.35800757e-06 -0.000193636952
      -3.8113034e-05 0.253134757 0.510687053 -2.46570071e-05
      0.0261670724 -9.18597361e-05 -4.22204757e-05 -0.000469758583
      -6.98287186e-05 0.0563557968 -0.000264088158 -0.000190917839
      -2.96148391e-05 -0.000183751239</_>
    <_>
      0.895009458 -2.87245607 -0.00742398296 1.72140002 -0.000167492661
      -0.0119448276 -0.000604270259 -0.00183484284 -3.37446954e-06
      -1.61647476e-05 -3.11616247e-07 -8.60237196e-05 -0.000266630115
      -0.000209229867 0.590245843 0.613101661 -0.00310395961 0.664237857
      -0.000156040231 -0.00127023191 -0.000847209652 -0.00521990471
      -0.0103801042 -1.38702535e-05 0.919795692 1.55657089
      -8.68854113e-06 -4.26997321e-05 -2.03915151e-05 -0.00478908792
      -0.000181673924 -0.0141873201 -0.0011855081 -0.000106408865
      -0.000785180833 -0.000218178247 -6.98581716e-05 -0.00184924284
