<?xml version="1.0"?>
<opencv_storage>
<opencv_ml_svm>
  <format>3</format>
  <svmType>EPS_SVR</svmType>
  <kernel>
    <type>RBF</type>
    <gamma>0.01</gamma></kernel>
  <C>1.</C>
  <p>0.001</p>
  <term_criteria><epsilon>0.001</epsilon>
    <iterations>3000</iterations></term_criteria>
  <var_count>228</var_count>
  <sv_total>298</sv_total>
  <support_vectors>
    <_>
      -1.85354149 -0.949252844 -0.00717666419 -0.00399588142
      -0.000147695348 -0.0112746526 -0.000636775629 -0.00180314179
      -3.84851046e-06 -1.6829601e-05 -3.11951339e-07 -9.09816445e-05
      -0.000252847065 -0.000192040316 2.98716545 -0.00328460033
      -0.0031982963 1.39710522 -0.000151575936 -0.00120416214
      -0.000827364391 -0.00555731682 -0.00813292712 -1.47930068e-05
      -0.00197331375 0.846179187 -6.76062837e-06 -4.88507176e-05
      -1.85546323e-05 0.0966364741 -0.000188582038 -0.0191445369
      -0.000925065251 -9.04659173e-05 -0.000857001985 -0.000203670861
      -6.51292576e-05 -0.0102096628 -0.000270796823 -0.000148749386
      -0.000594491314 -0.00164141087 -0.00027398346 -0.00429980224
      -0.00178745599 -0.000502020062 2.87820959 1.55038953 -0.0142938793
      -0.00189871981 -0.00270752283 -3.74681622e-06 -0.0100737335
      -0.0024860811 -0.0175276566 -0.0464070253 -0.0032822676
      -0.00290340814 -0.0058199428 -0.000672133756 -0.000598349026
      -0.00111316296 0.995889485 -0.0224370472 -2.77559247e-05
      -4.08071464e-05 -2.71171884e-05 -0.00522097386 -0.00163765543
      -0.000595259538 2.75551963 -0.00184380845 -0.00013441428
      -4.38930647e-06 -0.000824219955 -1.7905475e-05 -0.0056347209
      2.54818058 -0.00191675371 -1.05687504e-05 -5.42880059e-07
      -0.000449659477 0.499997377 -0.000243534509 -0.000646825647
      -0.00181052973 -0.0181322861 -9.6151598e-06 -0.00754916994
      -0.00426470488 -0.00049418112 -0.00564095844 -0.00496075908
      1.35330749 -0.0183622036 -0.00078583241 0.671009541 -0.00633895677
      -0.00242132833 -6.39106365e-05 -0.00613965839 1.24877119
      -1.06111463e-06 -0.000122979312 -0.000856714207 2.63895631
      -0.000135350536 -2.93760277e-05 -0.000479097245 -0.00476042507
      -0.00193320028 0.421706289 -2.13963503e-05 -6.30287323e-05
      -0.000782301242 -4.81507357e-07 -3.43325109e-06 -0.000149909189
      -5.31075566e-05 -0.00721776811 -9.15926012e-06 -0.00609909603
      -0.00061340275 -0.0129932771 -0.00718552293 -0.00341065577
      -0.0154869063 -0.014125919 -0.00134364038 0.303278744 0.305822849
      -8.0579608e-05 -7.03468831e-05 0.527727902 0.104901627 0.408294857
      -0.000163783116 0.123228304 -2.76818082e-06 0.376205742
      0.100717187 -0.000174804984 0.767031968 -0.00205486314 0.359953821
      -2.44883213e-05 -0.000185724712 -2.44154353e-06 -2.88308252e-06
      0.172113478 -0.00150629552 -0.00180508278 1.00659335
      -1.27593455e-06 0.557584047 -4.17354022e-06 -0.00117141334
      0.634929776 0.204748541 0.25410378 0.0350269452 0.0105167478
      0.929299414 -3.07134214e-05 -0.000358382822 0.397680014
      0.234611899 -0.00109795737 -0.000217344379 0.163753957 0.349384338
      0.0271960571 -0.0010084518 -0.00235598255 0.0400246158 0.34123534
      -0.00159029744 -1.59901665e-05 -0.00299938512 0.186050802
      -0.00461693108 -0.00241504074 -0.000114078837 -3.17513695e-06
      0.394521087 -2.13418488e-07 -4.33349413e-07 0.133384407 1.14295125
      -1.49225843e-05 -1.87638361e-05 -0.000209615973 -0.000409654458
      0.307634354 -0.000150456181 -9.49755777e-05 0.254028738
      -1.9495048e-05 0.0020584166 -0.000143120196 -3.97201657e-05
      -1.61597873e-05 0.0024432838 0.00506579131 -0.000247329357
      -7.33753986e-05 -0.000105856663 0.0742378607 -0.000661777391
      0.063101165 0.257363021 -0.000120254917 -1.43308426e-07
      -0.00019370165 -3.48733738e-05 0.27075547 0.526915312
      -2.45979882e-05 0.0120608956 -9.16876234e-05 -4.21559889e-05
      -0.000474092754 -3.76523094e-05 0.0584741607 -0.000265391718
      -0.000190720762 -2.95704031e-05 -0.000200950744</_>
    <_>
      -2.01837516 -1.18932128 -0.00713661173 -0.00821383484
      -0.000147569488 -0.0112444805 -0.000613943615 -0.00181959034
      -3.68056249e-06 -1.63795339e-05 -3.09556953e-07 -9.00259474e-05
      -0.000251053076 -0.000193348344 3.41406798 -0.00113067694
      -0.00313570187 1.15954483 -0.000153754736 -0.00119485881
      -0.000832208374 -0.00545546692 -0.00732565159 -1.43762109e-05
      -0.000625017507 1.07446611 -6.96468624e-06 -4.87501857e-05
      -1.80839215e-05 -0.000865208334 -0.000187180311 -0.0189031791
      -0.000952491537 -9.01187668e-05 -0.000848640397 -0.000204417651
      -6.41012957e-05 -0.0104376953 -0.000261763576 -0.000145353042
      -0.00059073529 -0.00165244378 -0.000274562219 -0.00379316788
      -0.00171788386 -0.000498387381 2.67252254 1.5278151 -0.0145072369
      -0.00187520904 -0.00253865705 -3.63979484e-06 -0.00997003075
      0.0126871541 -0.017752178 -0.0501228757 -0.00329716876
      -0.00215563923 -0.00575870136 -0.000633963558 -0.000565193943
      -0.00108801224 1.20885253 -0.0215779115 -2.77310737e-05
      -3.960092e-05 -2.70857818e-05 -0.00519082276 -0.00164808473
      -0.000586653186 2.90823126 -0.00183819875 -0.000132099216
      -4.47964612e-06 -0.000811156468 -1.84496439e-05 -0.00387451728
      2.83493924 -0.00188546057 -1.05767485e-05 -5.07331322e-07
      -0.000437540875 0.686752319 -0.00407116394 -0.000652818417
      -0.00203637802 -0.0179522745 -9.5176747e-06 -0.00732575357
      -0.00429214444 -0.00048995961 -0.00556506077 -0.00489252107
      1.68561161 -0.0184979048 -0.000779224909 0.483021021
      -0.00619160151 -0.00241475017 -6.11351425e-05 -0.00609403336
      1.51492214 -1.03110813e-06 -0.00012392801 -0.000842279173
      2.74480605 -0.00013349652 -2.94583497e-05 -0.000482583215
      -0.00554955704 -0.00191003515 0.390654802 -2.12107261e-05
      -6.00514031e-05 -0.000778714719 -4.83012968e-07 -3.43490228e-06
      -0.000147840474 -5.18506931e-05 -0.00722241402 -9.09065602e-06
      -0.00614567986 -0.00060698099 -0.011369979 -0.00700159371
      -0.00338105066 -0.0155995321 -0.0136175491 -0.0014859743
      0.316845715 0.309004962 -8.10251804e-05 -7.29788298e-05
      0.503726244 0.0991937444 0.408676505 -0.000162396187 0.128784657
      -2.8097727e-06 0.350275576 0.0915880352 -0.000176987902
      0.775088847 -0.00223681889 0.366897911 -2.43683298e-05
      -0.000187867379 -2.45673255e-06 -2.85395299e-06 0.151230067
      -0.00158061145 -0.00172913156 1.02760983 -1.26785653e-06
      0.583899379 -4.14822262e-06 -0.00122157182 0.66004622 0.191536769
      0.255433828 0.0296575334 0.00671736896 0.910655439 -3.0483443e-05
      -0.000360898819 0.38113901 0.221696585 -0.00129487843
      -0.000224233139 0.159832835 0.339971721 0.0411654711
      -0.00111336075 -0.00236446876 0.0314233676 0.350685656
      -0.00157188147 -1.58513303e-05 -0.0030347507 0.160425723
      -0.00460358011 -0.00242647156 -0.000113780319 -3.16449541e-06
      0.399475068 -2.13829438e-07 -4.29537522e-07 0.129587322 1.13804698
      -1.49250191e-05 -1.87660389e-05 -0.000209628008 -0.000409394503
      0.307455033 -0.000150465828 -9.49817841e-05 0.253757894
      -1.94972417e-05 0.00182629004 -0.000143127007 -3.97238255e-05
      -1.61615317e-05 0.00258754194 0.00525963306 -0.000247318269
      -7.58431852e-05 -0.000105805841 0.0739885122 -0.000661339087
      0.0636805147 0.257168829 -0.000120263598 -1.33089486e-07
      -0.000193699001 -3.49245602e-05 0.269793987 0.526023567
      -2.46011714e-05 0.012832731 -9.16969657e-05 -4.21594668e-05
      -0.000473862397 -3.93998416e-05 0.0583555773 -0.000265322218
      -0.000190732171 -2.95728041e-05 -0.00020000826</_>
    <_>
      -2.04748702 -1.22616696 -0.00717478432 -0.00893513579
      -0.000146674894 -0.0113241766 -0.00061327935 -0.00184540742
      -3.66308768e-06 -1.64129997e-05 -3.15637323e-07 -9.02825268e-05
      -0.000251441699 -0.000195323781 3.51539016 -0.00074754667
      -0.0031449236 1.14946175 -0.000154088222 -0.00120378169
      -0.0008360949 -0.00548442034 -0.00725949276 -1.44327805e-05
      -0.000452553533 1.12068784 -7.11274197e-06 -4.92690633e-05
      -1.81118485e-05 -0.000852796133 -0.000188560312 -0.0188718252
      -0.000954261748 -9.04965636e-05 -0.000853617967 -0.000208565529
      -6.40334038e-05 -0.0108253593 -0.000259722583 -0.000147508632
      -0.000591123127 -0.0016656504 -0.000279967324 -0.00382176298
      -0.00171960169 -0.000503001735 2.68665791 1.54062009 -0.015077984
      -0.00187352172 -0.00251606759 -3.61771936e-06 -0.0100564975
      0.0564465299 -0.017926909 -0.0510409959 -0.00332020898
      -0.00207253965 -0.00577969197 -0.000630844443 -0.000567881216
      -0.00109288783 1.26136947 -0.0216878224 -2.81128869e-05
      -3.9496299e-05 -2.71401896e-05 -0.00523022749 -0.00165219768
      -0.00059004873 2.9619503 -0.00185801485 -0.000132932284
      -4.49787149e-06 -0.000810073398 -1.83933553e-05 -0.00376684498
      2.86984682 -0.00189972669 -1.0652956e-05 -5.02239061e-07
      -0.000439636002 0.733964086 -0.00471555395 -0.000650375383
      -0.0019773941 -0.0181583241 -9.5330879e-06 -0.00733683817
      -0.00437344564 -0.000489618396 -0.00559121789 -0.00494643813
      1.74339938 -0.0186564233 -0.000788018398 0.451663733
      -0.00622367533 -0.00243225717 -6.0726823e-05 -0.0060525802
      1.56721342 -1.02900765e-06 -0.000124754893 -0.000848104479
      2.78136396 -0.000134052461 -2.98459636e-05 -0.000484971271
      -0.00570160476 -0.0019170607 0.38504383 -2.13255844e-05
      -5.94669909e-05 -0.000793882762 -4.81063807e-07 -3.45685658e-06
      -0.00014786949 -5.21711991e-05 -0.00723034702 -9.09134451e-06
      -0.00620987033 -0.000602848537 -0.0112309353 -0.00705353497
      -0.00338545023 -0.0158181135 -0.0137184048 -0.00147571485
      0.318554699 0.309515059 -8.09123085e-05 -7.31393156e-05
      0.509313941 0.0974812508 0.409176588 -0.000162562588 0.13029626
      -2.79350206e-06 0.35502255 0.0948377401 -0.000176532194
      0.772717059 -0.0021878432 0.363610953 -2.43496324e-05
      -0.00018777301 -2.43843692e-06 -2.84853468e-06 0.158067882
      -0.00159941777 -0.00177274458 1.03516912 -1.26633324e-06
      0.581400394 -4.14393207e-06 -0.00123214209 0.659632683 0.195304513
      0.263183802 0.029016668 0.00430874527 0.914482713 -3.03529614e-05
      -0.000360891427 0.38549909 0.22271806 -0.00128879037
      -0.000223113399 0.157309249 0.34543699 0.0412937999 -0.00110528886
      -0.00229634717 0.0336164534 0.350303531 -0.00158562115
      -1.58596995e-05 -0.00304206484 0.167601496 -0.00460368674
      -0.00243135798 -0.000113855065 -3.15806824e-06 0.399539918
      -2.13230379e-07 -4.29005524e-07 0.132081464 1.1458075
      -1.49250191e-05 -1.87660389e-05 -0.000209628008 -0.000409394503
      0.307455033 -0.000150465828 -9.49817841e-05 0.253757894
      -1.94972417e-05 0.00182629004 -0.000143127007 -3.97238255e-05
      -1.61615317e-05 0.00258754194 0.00525963306 -0.000247318269
      -7.58431852e-05 -0.000105805841 0.0739885122 -0.000661339087
      0.0636805147 0.257168829 -0.000120263598 -1.33089486e-07
      -0.000193699001 -3.49245602e-05 0.269793987 0.526023567
      -2.46011714e-05 0.012832731 -9.16969657e-05 -4.21594668e-05
      -0.000473862397 -3.93998416e-05 0.0583555773 -0.000265322218
      -0.000190732171 -2.95728041e-05 -0.00020000826</_>
    <_>
      1.24540997 -3.15274477 -0.00760424603 2.01933336 -0.000164581419
      -0.0123529276 -0.000620924518 -0.00177454914 -3.95935467e-06
      -1.74106244e-05 -3.32406074e-07 -9.37934456e-05 -0.000284077512
      -0.000218738409 0.32722193 0.726471364 -0.00327161094 0.602791786
      -0.000159250645 -0.00133286894 -0.000843414047 -0.00537216943
      -0.0105450125 -1.52179628e-05 1.0511508 1.67959094 -9.14179327e-06
      -4.70071318e-05 -2.16549706e-05 -0.0047119474 -0.000184009463
      -0.0161056668 -0.00126625283 -0.000111207184 -0.000813722902
      -0.000227653523 -7.55459623e-05 -0.00238105515 -0.000348769798
      -0.000125394654 -0.000620468636 -0.0017514053 -0.000408082531
      -0.00504793553 -0.00161982805 -0.000519192137 2.14638782
      2.65326166 -0.00298101804 -0.00209813542 -0.00390341552
      -3.55259385e-06 -0.0097225206 -0.0212919917 -0.0183736384
      -0.0165981427 -0.00349450205 0.302373618 -0.00608228473
      -0.000837754982 -0.000689281791 -0.000975989911 1.29001355
      -0.00859852694 -3.10538599e-05 -4.59201656e-05 -3.01894361e-05
      -0.00565256504 -0.00199149316 -0.000671769667 1.42773843
      -0.00176411541 -0.000128000946 -3.8899525e-06 -0.00090766669
      -2.20213915e-05 0.543801367 0.735152781 -0.00171746337
      -1.10502333e-05 -8.72790906e-07 -0.000409658416 -0.00578342145
      2.30585456 -0.000582330686 0.570794344 -0.0155137591
      -9.90784429e-06 -0.00885970052 -0.00226555555 -0.000539393513
      -0.00550599163 -0.00569310971 3.26459813 -0.0202181879
      -0.000952164584 2.08360887 -0.00681760488 -0.00252435682
      -8.11943755e-05 -0.00760959135 2.18586588 -1.36852884e-06
      -0.000127580817 -0.00104763161 1.19659746 -0.000152478591
      -3.28370843e-05 -0.000556283339 -0.00370920729 -0.00175868138
      -0.000589772535 -2.29632333e-05 -8.95740013e-05 -0.000959068537
      -6.32211425e-07 -4.18273476e-06 -0.000214358486 -5.17484805e-05
      -0.00844619237 -1.08357572e-05 -0.0042292201 -0.000852498168
      -0.00558114657 -0.00809670705 -0.00381665677 -0.0178392585
      -0.0016540396 -0.00329879136 0.299270183 0.20812431
      -9.11818061e-05 -9.50136018e-05 0.409387589 -0.000254036771
      0.52474916 -0.000153710207 0.0729918703 -3.894575e-06 0.0552384183
      0.0711850002 -0.000190351187 0.699396789 -0.00338545931
      0.466580987 -2.30600035e-05 -0.000202560754 -3.09447137e-06
      -2.51233769e-06 0.225564897 -0.002200505 -0.00358107476
      0.722141027 -1.15354237e-06 0.615390062 -3.83872657e-06
      -0.00256455806 0.811173737 -0.000292303041 0.0499601215
      -0.000244823779 -0.00040823326 0.503510952 -3.42443818e-05
      -0.00041569231 0.0552193448 -0.00135767041 -0.0009803375
      -0.000281308807 0.119585395 0.490716547 0.521927238 -0.00115470181
      -0.00169014884 -0.00190963328 0.216063857 -0.00146207237
      -1.4078837e-05 -0.00336831156 0.256770372 -0.00610626396
      -0.00254391367 -0.000125852195 -3.09217603e-06 0.440933406
      -2.31327149e-07 -3.76644437e-07 0.210475609 0.851310909
      -1.4966763e-05 -1.88039958e-05 -0.000209826743 -0.000404948485
      0.304455936 -0.00015063028 -9.50882968e-05 0.249184653
      -1.95348985e-05 -2.13809308e-05 -0.000143242796 -3.9786566e-05
      -1.6191525e-05 0.00496014208 0.00849656016 -0.000247112359
      -0.000118923483 -0.000104953571 0.06974563 -0.000653786643
      0.0735827908 0.253905594 -0.000120411634 4.13949601e-06
      -0.000193646454 -3.67780376e-05 0.253399044 0.510859847
      -2.46558502e-05 0.025973767 -9.18569494e-05 -4.2219217e-05
      -0.000469876861 -6.9260539e-05 0.0563578084 -0.000264121802
      -0.000190921492 -2.96140206e-05 -0.000183966025</_>
    <_>
      1.1224612 -3.45570946 -0.00752777699 1.93501019 -0.000159317395
      -0.0123001002 -0.000561319699 -0.00174884044 -3.53850032e-06
      -1.66044883e-05 -3.2777811e-07 -8.95754056e-05 -0.000269979617
      -0.000215108099 0.432272494 0.824065745 -0.00318609597 0.403297067
      -0.000151090702 -0.00126306282 -0.000809176534 -0.00526031433
      -0.0097871013 -1.41488863e-05 1.26006877 1.754246 -7.88746001e-06
      -4.52577369e-05 -1.98920734e-05 -0.00762692094 -0.000176216869
      -0.0142879412 -0.00125234842 -0.000103600243 -0.000780572649
      -0.000223223265 -7.14458583e-05 -0.00155161403 -0.000331019051
      -0.000113295035 -0.000577211729 -0.00170450518 -0.000372610986
      -0.00533348368 -0.00148225657 -0.000518847315 1.95874441 2.8148849
      -0.00400788616 -0.00202516653 -0.00369374081 -3.10503469e-06
      -0.00958710257 -0.0213518646 -0.0175900925 -0.0204427913
      -0.00346852141 0.228963524 -0.00607338781 -0.00074431469
      -0.000632681709 -0.000911313924 1.33671856 -0.00650955224
      -3.05729554e-05 -4.11113469e-05 -2.92061195e-05 -0.00532836001
      -0.00198675413 -0.000634551339 1.31952584 -0.00173857645
      -0.000117681673 -3.42827843e-06 -0.000833243539 -2.09513928e-05
      0.71293211 0.963025987 -0.00166538591 -1.08134791e-05
      -7.33605987e-07 -0.000381653925 -0.00716246571 2.23395038
      -0.000543137605 0.610851526 -0.0146567905 -1.00691905e-05
      -0.00850953069 -0.00186813355 -0.00051424047 -0.00520932907
      -0.00522848358 3.3762424 -0.0198640078 -0.000951771333 2.16466403
      -0.00656436477 -0.00241840002 -7.45739308e-05 -0.00725342426
      2.18531823 -1.20032564e-06 -0.000117813317 -0.000979054603
      1.26782501 -0.000145512473 -3.07562441e-05 -0.000557143765
      -0.00551605085 -0.00165381655 0.074639447 -2.14196807e-05
      -8.18429617e-05 -0.0008848242 -5.3801449e-07 -4.07594234e-06
      -0.00020370222 -5.02950716e-05 -0.00844967458 -1.10370838e-05
      -0.00423288858 -0.000828017888 -0.00359217753 -0.00770168286
      -0.00363982678 -0.0175055768 0.000181093812 -0.00273870025
      0.301997483 0.226337254 -9.23636835e-05 -9.46597793e-05 0.39360407
      1.36336312e-05 0.469981551 -0.00015234141 0.0889914557
      -4.06768504e-06 0.0288819075 0.0737273023 -0.000197569738
      0.757191777 -0.0039492012 0.47778964 -2.22013186e-05
      -0.000206759607 -3.17478134e-06 -2.43929912e-06 0.218397617
      -0.0017579589 -0.00374081219 0.725769997 -1.11264683e-06
      0.639608681 -3.70396924e-06 -0.00306694442 0.856216431
      -0.000720802462 0.037231952 -0.00035861865 -0.000557988998
      0.46336177 -3.41062296e-05 -0.000418852258 0.0548336506
      -0.00138832896 -0.00159420876 -0.000296225044 0.0877460614
      0.44759503 0.583891749 -0.00157682411 -0.00144782453
      -0.00212664274 0.239938453 -0.00146130286 -1.37189309e-05
      -0.00350797223 0.248179197 -0.00617879676 -0.00266498444
      -0.000124860569 -3.039803e-06 0.43378824 -2.19884669e-07
      -3.61943961e-07 0.241847381 0.82836926 -1.49644875e-05
      -1.8802144e-05 -0.000209807258 -0.000405201688 0.304716557
      -0.000150620283 -9.50825488e-05 0.249513477 -1.95329121e-05
      -1.91947074e-05 -0.000143235578 -3.97831973e-05 -1.6189997e-05
      0.00470916927 0.00822028518 -0.000247105694 -0.000117826719
      -0.000105020321 0.0699983686 -0.000654154166 0.0730532706
      0.25416714 -0.000120402678 3.07935989e-06 -0.000193640604
      -3.79942721e-05 0.254340738 0.511802554 -2.46530035e-05
      0.0251996741 -9.18480073e-05 -4.22161029e-05 -0.000470049679
      -6.76329582e-05 0.0565032847 -0.000264175906 -0.000190903796
      -2.96118214e-05 -0.000184931603</_>
    <_>
      1.67956209 -4.5014081 -0.00785527285 2.32696962 -0.000172508982
      -0.0128955645 -0.000600868952 -0.00177356915 -4.01326861e-06
      -1.74707857e-05 -3.39594436e-07 -9.85164515e-05 -0.000303167355
      -0.000236161868 -6.20876235e-05 1.29356778 -0.00336333271
      0.115148485 -0.000169263294 -0.00139668281 -0.000875856844
      -0.00545938313 -0.0105762454 -1.57440409e-05 1.59953725 2.22233176
      -1.08317845e-05 -5.09275633e-05 -2.24855539e-05 -0.00753954286
      -0.00018716554 -0.0144209843 -0.00140030729 -0.000116670424
      -0.000803659786 -0.000242000009 -8.05672535e-05 -0.00293300999
      -0.000376903627 -0.000127069914 -0.00063780538 -0.00182924047
      -0.000446948397 -0.00535299489 -0.00165474159 -0.000559433072
      1.7088567 3.00264239 -0.00133573927 -0.00222219317 -0.00425869832
      -3.62320588e-06 -0.00987514202 -0.0240133349 -0.0192703754
      -0.0140012614 -0.00364169269 0.357254118 -0.00617801351
      -0.000835044601 -0.000711156463 -0.000979899196 1.67575836
      -0.00360161276 -3.12698758e-05 -4.75703491e-05 -3.26514928e-05
      -0.00579191791 -0.00213650824 -0.00067114376 1.1855489
      -0.00178949453 -0.000124945902 -4.22163748e-06 -0.000937691482
      -2.27993514e-05 1.07640505 0.515753388 -0.00172077119
      -1.16179972e-05 -9.54064831e-07 -0.000399014389 -0.00836542901
      2.5772388 -0.000615934259 0.751140833 -0.01597948 -1.00807065e-05
      -0.0093124602 -0.00218992727 -0.000567302981 -0.00560352439
      -0.00584603287 4.24276161 -0.0216986798 -0.00100130297 2.26965213
      -0.00707097584 -0.00261937012 -8.6487853e-05 -0.00809705537
      2.74763465 -1.47878188e-06 -0.000131901077 -0.00109583046
      0.81532985 -0.000162829005 -3.50838818e-05 -0.000594651443
      -0.0051720459 -0.00180259079 -0.00237327511 -2.35459502e-05
      -9.39032034e-05 -0.00100582058 -7.56307827e-07 -4.524416e-06
      -0.000232197082 -5.32409213e-05 -0.00921011996 -1.1256865e-05
      -0.00393520249 -0.000940224214 -0.00143473677 -0.00845501572
      -0.0042513567 -0.0192995444 0.258337289 -0.00383657054 0.30805999
      0.236998469 -9.16089266e-05 -9.33348565e-05 0.419107437
      -0.000243329254 0.505100608 -0.000152792418 0.0822584257
      -3.944941e-06 0.0433308408 0.0844134614 -0.000190527455
      0.713911176 -0.00359807932 0.450154781 -2.28789486e-05
      -0.000204023192 -3.13078272e-06 -2.51482243e-06 0.22656548
      -0.00209767953 -0.00367654162 0.725949705 -1.15148623e-06
      0.632215202 -3.82499229e-06 -0.00264217495 0.820025802
      -0.00045858018 0.0377396941 -0.000228994759 -0.000508613419
      0.490318269 -3.41890227e-05 -0.000408736611 0.0573633239
      -0.00138525513 -0.00133868353 -0.000282373861 0.107087962
      0.465051413 0.539186835 -0.00120359717 -0.0015606482
      -0.00194662716 0.222739622 -0.00145591761 -1.40355714e-05
      -0.00337370159 0.240982682 -0.00602178741 -0.00255311374
      -0.000125118342 -3.0978556e-06 0.420440823 -2.26398242e-07
      -3.76261966e-07 0.224689856 0.831394076 -1.49663929e-05
      -1.88038794e-05 -0.000209816208 -0.000404998864 0.304580808
      -0.000150627777 -9.50874091e-05 0.249305815 -1.95346329e-05
      -2.10019007e-05 -0.000143240861 -3.9786064e-05 -1.61913686e-05
      0.00481590629 0.00836669654 -0.000247096061 -0.000119804921
      -0.000104981707 0.06980519 -0.00065380882 0.0735047758 0.254019231
      -0.00012040943 3.87476757e-06 -0.000193638087 -3.809396e-05
      0.253593773 0.511112332 -2.46555028e-05 0.02579806 -9.18553123e-05
      -4.22188314e-05 -0.000469867198 -6.89944063e-05 0.0564126447
      -0.000264120958 -0.000190912353 -2.96137041e-05 -0.000184201112</_>
    <_>
      1.27706909 -4.30635643 -0.00809336081 2.10183716 -0.000176668764
      -0.0130771333 -0.000616413134 -0.00180555938 -3.90890091e-06
      -1.74822053e-05 -3.47271822e-07 -9.68858149e-05 -0.00029115277
      -0.000234648993 0.38629967 1.1891557 -0.00339531782 0.232693359
      -0.000172545027 -0.00139703508 -0.000908139278 -0.00561572425
      -0.0106703807 -1.58164785e-05 1.4635663 2.18239951 -1.06700418e-05
      -5.10922e-05 -2.19889844e-05 -0.00881696772 -0.000193112326
      -0.0153208459 -0.00139456091 -0.000112148038 -0.000813899969
      -0.000236738051 -7.84531003e-05 -0.00325181824 -0.000361268205
      -0.000133435839 -0.000645177788 -0.00183193944 -0.000404837599
      -0.00471552555 -0.00170566677 -0.000537507643 1.6816678 2.96251416
      -0.00361698284 -0.00221838802 -0.00407659076 -3.74310139e-06
      -0.0101753259 -0.021837702 -0.0197463464 -0.0210854597
      -0.00372673525 0.235345393 -0.00629781699 -0.000893577817
      -0.000685027102 -0.00100549951 1.66005898 -0.00660690712
      -3.01688578e-05 -4.64716213e-05 -3.13412893e-05 -0.00596365752
      -0.00212229835 -0.000665542902 1.26284027 -0.00184451381
      -0.000127127467 -4.53115217e-06 -0.000963605708 -2.21374721e-05
      0.940511882 0.818323076 -0.00177660107 -1.14682152e-05
      -8.46247701e-07 -0.000417225529 -0.00675882259 2.36709189
      -0.00066452974 0.635894716 -0.0169068091 -1.06158359e-05
      -0.00942161214 -0.00283349236 -0.000572412275 -0.00577436434
      -0.00594041869 4.14186096 -0.0217965208 -0.000953355047 2.19991589
      -0.0072061019 -0.00265219272 -8.16815736e-05 -0.00806244928
      2.69678974 -1.43283842e-06 -0.000129160559 -0.00108300068
      1.0471977 -0.000161325559 -3.54622571e-05 -0.000597930106
      -0.00658115325 -0.00186289183 -0.00142490398 -2.40284171e-05
      -8.84262845e-05 -0.000982816913 -6.82451287e-07 -4.65247376e-06
      -0.000220813672 -5.41966547e-05 -0.00920685101 -1.10825067e-05
      -0.00433988869 -0.000911758456 -0.00278927805 -0.00836742483
      -0.00423589535 -0.0188135244 0.0418369845 -0.00382915093
      0.299693257 0.241713792 -9.21353276e-05 -9.42854167e-05
      0.407412767 -0.000135980634 0.485894918 -0.000152566499
      0.0897139534 -4.00263571e-06 0.0371494815 0.0801854506
      -0.000194056323 0.74513787 -0.00374799385 0.45970422
      -2.24941705e-05 -0.000204555574 -3.11497524e-06 -2.4558924e-06
      0.228536725 -0.00189510302 -0.00372059178 0.709792137
      -1.12294367e-06 0.622479022 -3.73434909e-06 -0.00289627421
      0.841226697 -0.000578006147 0.0342683196 -0.000398575386
      -0.000467062433 0.492983729 -3.39314793e-05 -0.000417233183
      0.0542843118 -0.0014733111 -0.00144249317 -0.000290589815
      0.109051719 0.468292326 0.580868363 -0.00137835287 -0.00128836615
      -0.00225394126 0.229667649 -0.00147359399 -1.37558727e-05
      -0.00348337553 0.263221055 -0.00619283738 -0.00264641107
      -0.000125625098 -3.04257151e-06 0.431930125 -2.20936414e-07
      -3.65254294e-07 0.229046732 0.827664673 -1.49697571e-05
      -1.88069862e-05 -0.000209830367 -0.000404642808 0.304359972
      -0.000150640801 -9.5096002e-05 0.248954371 -1.95376833e-05
      -2.41912712e-05 -0.000143249985 -3.97911317e-05 -1.61938096e-05
      0.00498088449 0.00860603899 -0.000247075601 -0.000123546153
      -0.000104917395 0.0694679022 -0.000653190422 0.0743049532
      0.253774226 -0.000120421158 5.25795622e-06 -0.000193631975
      -3.85271378e-05 0.252282888 0.509915233 -2.46599411e-05
      0.0268445835 -9.18681544e-05 -4.22236772e-05 -0.000469536317
      -7.14008711e-05 0.0562595427 -0.000264021743 -0.000190926003
      -2.96170383e-05 -0.000182927848</_>
    <_>
      1.09460783 -3.46904302 -0.00767958723 1.9395864 -0.000167142964
      -0.0124314427 -0.000596061582 -0.0017551952 -3.67481539e-06
      -1.68062052e-05 -3.2312451e-07 -9.10939998e-05 -0.000273950602
      -0.0002183857 0.516574204 0.804417312 -0.00328827067 0.398543775
      -0.000156488197 -0.00130217196 -0.000840213266 -0.00540989218
      -0.0103370463 -1.46364582e-05 1.15547597 1.76280153
      -8.67808467e-06 -4.67048994e-05 -2.10784347e-05 -0.00714761904
      -0.000185720244 -0.0153612029 -0.00126785215 -0.000107812237
      -0.000800694455 -0.000225172073 -7.34228597e-05 -0.00251386338
      -0.00034143313 -0.000122993617 -0.000610990392 -0.00174407265
      -0.00038829635 -0.00490351487 -0.00157848746 -0.000512821076
      1.93794024 2.71115851 -0.00412244769 -0.00208508526 -0.00388481584
      -3.48775211e-06 -0.00982552487 -0.0211696662 -0.018327849
      -0.0212348774 -0.00351763028 0.146677852 -0.00612441031
      -0.000824376824 -0.000693287468 -0.000961147889 1.34740663
      -0.00855837297 -3.04019122e-05 -4.46811646e-05 -2.93742996e-05
      -0.00559820887 -0.00199104939 -0.000650760659 1.39189708
      -0.00175802805 -0.000123446633 -4.02358864e-06 -0.000885365123
      -2.11210081e-05 0.624332547 0.952334702 -0.00172641571
      -1.06637854e-05 -8.171437e-07 -0.000410512555 -0.00724253384
      2.31140208 -0.000591236167 0.54080987 -0.0154901408
      -1.00647485e-05 -0.00872177072 -0.00235258928 -0.000533328042
      -0.00548157794 -0.00545711862 3.41549563 -0.020233443
      -0.000931858784 2.13875437 -0.00677031139 -0.00249434379
      -7.73779393e-05 -0.00739608053 2.26108742 -1.28834188e-06
      -0.000122799378 -0.00102932157 1.22852123 -0.000148116349
      -3.27538473e-05 -0.00056046329 -0.00503640063 -0.00173541077
      0.0132503975 -2.25606873e-05 -8.77179991e-05 -0.00092672091
      -6.15978536e-07 -4.14456645e-06 -0.00020875044 -5.21067741e-05
      -0.00850726198 -1.08022314e-05 -0.00427567307 -0.000834488019
      -0.00494829705 -0.00785756577 -0.00378633011 -0.0179016721
      -0.00148483226 -0.00312850112 0.297216892 0.231396914
      -9.14645425e-05 -9.46390064e-05 0.427700609 -6.0225062e-05
      0.51395309 -0.000153097702 0.0797757432 -3.91263256e-06
      0.0483460054 0.0792553946 -0.000191022205 0.734870255
      -0.00347419432 0.446665347 -2.26663578e-05 -0.000202296258
      -3.12386192e-06 -2.4817482e-06 0.241567314 -0.00202808622
      -0.00351825031 0.714220047 -1.13973283e-06 0.613284051
      -3.78239088e-06 -0.00281009614 0.823323488 -0.000479932351
      0.0444882959 -0.000376182288 -0.00045904232 0.507681847
      -3.37930542e-05 -0.00041536463 0.0652937144 -0.00129301217
      -0.00119077798 -0.00028544903 0.123476759 0.471337974 0.541230798
      -0.00124033832 -0.00152786949 -0.00212897337 0.253564239
      -0.00148043118 -1.39476097e-05 -0.00342087913 0.254522502
      -0.00596267916 -0.00259502581 -0.000125282197 -3.05151639e-06
      0.439000756 -2.25853327e-07 -3.72080819e-07 0.225891471
      0.821591675 -1.4971075e-05 -1.88081194e-05 -0.000209839185
      -0.000404499326 0.304236472 -0.000150646287 -9.5099349e-05
      0.248786598 -1.95388511e-05 -2.54463594e-05 -0.000143253914
      -3.97930926e-05 -1.61947228e-05 0.00509181619 0.00873767585
      -0.000247074378 -0.000124528073 -0.000104884552 0.069328025
      -0.000652965216 0.0746134222 0.253646374 -0.000120426099
      5.84125519e-06 -0.000193632906 -3.81923091e-05 0.251752526
      0.50940311 -2.46616237e-05 0.0272753015 -9.18732621e-05
      -4.22255216e-05 -0.000469423772 -7.23405174e-05 0.056185782
      -0.000263987255 -0.000190934166 -2.96183225e-05 -0.000182395728</_>
    <_>
      0.698934376 -2.65385675 -0.00746212481 1.57552075 -0.000162561453
      -0.0119997049 -0.000611305004 -0.00181577413 -3.52213738e-06
      -1.68438219e-05 -3.27919082e-07 -8.55833059e-05 -0.000264123897
      -0.000206492114 0.752096653 0.533027887 -0.00320203276 0.830396295
      -0.000157693721 -0.00131236017 -0.000841800356 -0.00535585918
      -0.0105865048 -1.4436836e-05 0.878153086 1.53624523 -8.7637527e-06
      -4.42442069e-05 -2.06255136e-05 -0.00451969402 -0.000180690229
      -0.0150931785 -0.00114721584 -0.000102890823 -0.000803543546
      -0.00022625133 -6.93137335e-05 -0.00218807254 -0.000317674596
      -0.000126752333 -0.000632180774 -0.00164004322 -0.000376566575
      -0.00500066206 -0.00164980884 -0.00048812048 2.37675309 2.60734391
      -0.00562358322 -0.00194561377 -0.00370026287 -3.54267854e-06
      -0.00972991902 -0.018489074 -0.0187066197 -0.0223976132
      -0.00341127114 0.301542431 -0.00599998841 -0.000831447018
      -0.000664582069 -0.000979726552 1.1939292 -0.0115237301
      -3.10378928e-05 -4.37152703e-05 -2.79034975e-05 -0.00557475397
      -0.00190070656 -0.00068527495 1.49385941 -0.00173881452
      -0.000125030419 -4.20076412e-06 -0.000900803774 -2.14817464e-05
      0.333618909 0.980780661 -0.00172741408 -1.06293219e-05
      -7.37174105e-07 -0.000416102965 -0.00378293986 1.85811579
      -0.000629596529 0.499406248 -0.0156071885 -1.00061725e-05
      -0.00859462004 -0.00257600565 -0.00051672582 -0.00558038568
      -0.0056758807 3.01492524 -0.0198643617 -0.000917095807 1.94327867
      -0.00660452014 -0.00244063698 -7.17141666e-05 -0.00732509699
      2.00483513 -1.26460259e-06 -0.000124218597 -0.00102153129
      1.55871999 -0.000143922065 -3.26920126e-05 -0.000528515317
      -0.00349311205 -0.00177195587 0.0945510566 -2.31457816e-05
      -8.27374388e-05 -0.000860559638 -5.45094224e-07 -4.06510753e-06
      -0.000191649713 -5.08105659e-05 -0.00803752057 -1.0119601e-05
      -0.00454333704 -0.000747182232 -0.00757581089 -0.0080426354
      -0.00357856671 -0.0169595219 -0.00444045058 -0.00311997323
      0.295996338 0.225330383 -9.00465238e-05 -9.52094924e-05
      0.407844752 -0.000353963434 0.543429971 -0.000153611472
      0.0654104799 -3.70782413e-06 0.0820994303 0.0830786452
      -0.000186353471 0.705128551 -0.0031056162 0.446705759
      -2.32994134e-05 -0.000197682035 -3.04141713e-06 -2.55487089e-06
      0.253139645 -0.00252869283 -0.00343900872 0.723369479
      -1.1727451e-06 0.59989655 -3.8953599e-06 -0.00236774003
      0.783697903 0.000726491213 0.0669707283 -0.000257646869
      -0.000236832348 0.56844008 -3.36072553e-05 -0.000412303227
      0.0673588812 -0.00112543604 -0.000607526163 -0.000272078469
      0.15322201 0.486368358 0.480935127 -0.000939425372 -0.00194531865
      -0.00169955462 0.238237277 -0.00151742669 -1.42469844e-05
      -0.00332958205 0.276635677 -0.00592515385 -0.00251537911
      -0.000123397534 -3.08759627e-06 0.448432654 -2.33725089e-07
      -3.85084263e-07 0.189834222 0.871796846 -1.49675452e-05
      -1.8804918e-05 -0.000209822014 -0.000404875726 0.304495335
      -0.000150632346 -9.50903413e-05 0.249176487 -1.95356679e-05
      -2.21103055e-05 -0.000143244091 -3.97877957e-05 -1.61921926e-05
      0.0048854202 0.00845970958 -0.000247091055 -0.000120979174
      -0.000104957289 0.069685936 -0.000653602008 0.0737816617
      0.253926694 -0.000120413541 4.35800757e-06 -0.000193636952
      -3.8113034e-05 0.253134757 0.510687053 -2.46570071e-05
      0.0261670724 -9.18597361e-05 -4.22204757e-05 -0.000469758583
      -6.98287186e-05 0.0563557968 -0.000264088158 -0.000190917839
      -2.96148391e-05 -0.000183751239</_>
    <_>
      0.846997082 -2.8295908 -0.00776237482 1.71150374 -0.00017837531
      -0.0126054119 -0.000640889397 -0.00183374609 -4.10055372e-06
      -1.78471873e-05 -3.33152514e-07 -9.43870837e-05 -0.000281767774
      -0.000212494968 0.6067729 0.663218558 -0.0033461852 0.931527376
      -0.000160042691 -0.00136731414 -0.000877851213 -0.00555669889
      -0.0108850272 -1.58863841e-05 0.980459094 1.68748438
      -9.12787164e-06 -4.85452219e-05 -2.28737917e-05 -0.00449684821
      -0.000189357161 -0.0149911577 -0.0012406524 -0.000110471119
      -0.00081993168 -0.000229405909 -7.65914665e-05 -0.00408200873
      -0.000360090053 -0.000129141481 -0.000657279161 -0.0017290666
      -0.0004027549 -0.00534648355 -0.00172764435 -0.000529510318
      2.41008806 2.7180531 -0.0062357299 -0.00210453873 -0.00405603368
      -3.86804186e-06 -0.00999143161 -0.0202938057 -0.0191543084
      -0.0208522845 -0.00352513092 0.249411374 -0.00620511267
      -0.000996236806 -0.000701426645 -0.00102546194 1.33047962
      -0.0114176152 -3.1133739e-05 -4.79760238e-05 -3.11218791e-05
      -0.00582508976 -0.0019977123 -0.000697303272 1.46000516
      -0.00177068217 -0.000129100692 -4.19112484e-06 -0.000976983341
      -2.22643575e-05 0.434476644 0.941279471 -0.00180653331
      -1.1189969e-05 -9.65663276e-07 -0.000430602522 -0.00569038698
      2.05548716 -0.000634194002 0.514908791 -0.0151733411
      -1.00824855e-05 -0.00910190772 -0.00270955055 -0.000555308128
      -0.00568544725 -0.00587817421 3.28488159 -0.02051403
      -0.000955343829 1.91841185 -0.00696993433 -0.00255257543
      -8.43026501e-05 -0.00798460748 2.22095847 -1.46860884e-06
      -0.000129917084 -0.00106824352 1.57008576 -0.000152355191
      -3.44286746e-05 -0.000560386339 -0.00568624679 -0.00183888327
      0.059040904 -2.45961673e-05 -9.60850521e-05 -0.000910813513
      -6.11802363e-07 -4.25790768e-06 -0.000214782936 -5.28206619e-05
      -0.00847076718 -1.07398937e-05 -0.0045995051 -0.000828235818
      -0.00690888287 -0.00841430947 -0.00383294607 -0.0176967587
      -0.00416258723 -0.00329105044 0.302608669 0.226701945
      -9.09281953e-05 -9.44145722e-05 0.367310613 -0.000247525051
      0.538506985 -0.000153484289 0.0874497518 -3.83114821e-06
      0.0651589707 0.0777080059 -0.000186965757 0.69547224
      -0.00323392195 0.44623208 -2.3215156e-05 -0.000201721559
      -3.04933974e-06 -2.53730627e-06 0.229469836 -0.00245178747
      -0.00362822437 0.720226765 -1.16326146e-06 0.610919774
      -3.87515456e-06 -0.0023255439 0.809535861 -0.000276295672
      0.050424099 -0.000228164645 -0.000356092001 0.542789221
      -3.42084131e-05 -0.000414834474 0.0512995645 -0.00121679157
      -0.00072675274 -0.000273350626 0.159403086 0.475748032 0.499891013
      -0.000938915589 -0.00169716857 -0.00174424588 0.229408816
      -0.00149706716 -1.41230075e-05 -0.00335722114 0.273463905
      -0.00613101106 -0.00252199313 -0.000125499428 -3.09900042e-06
      0.443786383 -2.29669084e-07 -3.81242046e-07 0.192960694
      0.862971783 -1.49662765e-05 -1.88037175e-05 -0.000209817896
      -0.000405008381 0.304565549 -0.000150627588 -9.5087089e-05
      0.249297783 -1.9534511e-05 -2.09190875e-05 -0.000143240773
      -3.97858748e-05 -1.61912576e-05 0.00483992696 0.00838341564
      -0.00024710127 -0.000119412129 -0.000104978615 0.0698093027
      -0.000653841358 0.073480837 0.254007727 -0.000120409248
      3.85043677e-06 -0.000193640459 -3.77753749e-05 0.253619492
      0.511120677 -2.46553172e-05 0.0257830098 -9.18549267e-05
      -4.22186313e-05 -0.000469889346 -6.89272929e-05 0.0564081967
      -0.000264127098 -0.000190913735 -2.96135768e-05 -0.000184216377</_>
    <_>
      0.895009458 -2.87245607 -0.00742398296 1.72140002 -0.000167492661
      -0.0119448276 -0.000604270259 -0.00183484284 -3.37446954e-06
      -1.61647476e-05 -3.11616247e-07 -8.60237196e-05 -0.000266630115
      -0.000209229867 0.590245843 0.613101661 -0.00310395961 0.664237857
      -0.000156040231 -0.00127023191 -0.000847209652 -0.00521990471
      -0.0103801042 -1.38702535e-05 0.919795692 1.55657089
      -8.68854113e-06 -4.26997321e-05 -2.03915151e-05 -0.00478908792
      -0.000181673924 -0.0141873201 -0.0011855081 -0.000106408865
      -0.000785180833 -0.000218178247 -6.98581716e-05 -0.00184924284
      -0.000328939612 -0.000118364449 -0.000633891148 -0.00162784895
      -0.000417504867 -0.00476319995 -0.00152223778 -0.000469526189
      2.28196287 2.58541012 -0.00565256784 -0.00196656724 -0.00383478077
      -3.33895605e-06 -0.00934859831 -0.0206403658 -0.0189482514
      -0.0188219287 -0.00342147588 0.405301124 -0.00593508966
      -0.000831421814 -0.000683560735 -0.000924935855 1.22358084
      -0.00997726154 -3.12436605e-05 -4.42506607e-05 -2.75286766e-05
      -0.0055431691 -0.00195632316 -0.000673258561 1.4461199
      -0.00163984986 -0.000123272723 -4.39048381e-06 -0.000905099267
      -2.16661083e-05 0.468166322 0.867641151 -0.00164025568
      -1.03929915e-05 -8.05967943e-07 -0.000402859703 -0.00572045147
      2.01177549 -0.000628940878 0.526211739 -0.0150114903
      -9.79872129e-06 -0.00856351107 -0.00206360128 -0.000526881195
      -0.0054737227 -0.00564302551 3.06489611 -0.020071473
      -0.000916876423 1.85970509 -0.0064292457 -0.00244921981
      -7.32950139e-05 -0.00742223533 2.09563971 -1.20944162e-06
      -0.000123560327 -0.00102904881 1.28750932 -0.000141073469
      -3.13283745e-05 -0.00053577777 -0.00425329991 -0.00170971104
      0.0856519341 -2.28070949e-05 -8.84396723e-05 -0.000887086208
      -5.29194722e-07 -3.99012652e-06 -0.000205680524 -4.94261876e-05
      -0.00810374599 -1.02020231e-05 -0.00414332701 -0.000788316655
      -0.00674770167 -0.00790557172 -0.00375570566 -0.0170057882
      -0.00333288894 -0.00354224816 0.300744176 0.228812844
      -9.05376437e-05 -9.54513162e-05 0.379163772 -2.24816886e-05
      0.512640893 -0.000153286208 0.0744409934 -3.80288884e-06
      0.052087009 0.0654705688 -0.000189275714 0.708928704
      -0.00329952221 0.435514808 -2.31114045e-05 -0.00020014176
      -3.05752701e-06 -2.54457746e-06 0.227761 -0.00231673406
      -0.00346870138 0.715241313 -1.16670719e-06 0.606574476
      -3.87686077e-06 -0.00245968765 0.798069477 -0.000294220954
      0.0461277664 -0.000284167472 -0.000256806146 0.5412606
      -3.40186816e-05 -0.000411076093 0.0634948015 -0.00122662087
      -0.000997830299 -0.000278377644 0.159123987 0.474976838
      0.498374164 -0.00107383879 -0.00177067961 -0.00190132705
      0.230118155 -0.00148355542 -1.41404589e-05 -0.0033487028
      0.255309582 -0.00603278168 -0.00253067259 -0.000123771737
      -3.09300844e-06 0.435794383 -2.3250125e-07 -3.82940414e-07
      0.205366746 0.846353352 -1.49653242e-05 -1.88027952e-05
      -0.000209815567 -0.000405107043 0.304609358 -0.000150624095
      -9.50846515e-05 0.249381825 -1.95336343e-05 -2.00233426e-05
      -0.000143238358 -3.97844342e-05 -1.61905464e-05 0.00481671095
      0.00833500177 -0.000247110525 -0.000118115655 -0.000104992854
      0.0699004009 -0.000654024887 0.0732529908 0.254060954
      -0.00012040609 3.47971218e-06 -0.000193643878 -3.74001611e-05
      0.253980488 0.511436641 -2.4654033e-05 0.025498651 -9.18513324e-05
      -4.22172343e-05 -0.000469991559 -6.82477621e-05 0.0564443916
      -0.000264157366 -0.000190911291 -2.96126254e-05 -0.000184558521</_>
    <_>
      0.952545524 -4.26517487 -0.00795714278 1.796911 -0.000180095056
      -0.0129711041 -0.000588236901 -0.00186094374 -3.86601232e-06
      -1.70039038e-05 -3.34815297e-07 -9.81849007e-05 -0.000293540361
      -0.000238722962 0.601674855 1.17339885 -0.0032916402 0.0138066262
      -0.000172046872 -0.00132593268 -0.000885036774 -0.00544274086
      -0.010110802 -1.55753096e-05 1.46559584 2.09821105 -9.66244806e-06
      -4.92556646e-05 -2.143657e-05 -0.00927515049 -0.000191384272
      -0.0142601132 -0.00141914142 -0.000115600655 -0.000810043421
      -0.000232594641 -7.98861001e-05 -0.00295193214 -0.000367512577
      -0.000119512282 -0.00064439862 -0.00184876472 -0.000458728726
      -0.00504841004 -0.00151917036 -0.000539582514 1.73796761
      2.82536244 -0.00607129931 -0.00222206302 -0.00387921603
      -3.31139631e-06 -0.00975315645 -0.0226729382 -0.0195982344
      -0.019772986 -0.00375227979 0.293406844 -0.00632040668
      -0.000909344468 -0.000674101699 -0.00094213523 1.66144729
      -0.00557461986 -3.21205698e-05 -4.53002031e-05 -3.21029656e-05
      -0.00579961482 -0.00216719299 -0.000657327299 1.36941469
      -0.00178708264 -0.000123976031 -4.27132454e-06 -0.000923056563
      -2.30940168e-05 0.993461251 0.950958431 -0.00172039738
      -1.14033583e-05 -9.4898661e-07 -0.000388956483 -0.00741170673
      2.17179704 -0.000641966355 0.581560552 -0.0151957702
      -1.03501907e-05 -0.00889948197 -0.00193345651 -0.000571381999
      -0.00561376428 -0.00551510276 3.93128109 -0.0217504185
      -0.000977857504 1.9979111 -0.00677800085 -0.00261444319
      -8.39565473e-05 -0.00781704579 2.63694191 -1.37161533e-06
      -0.00013133217 -0.00107740599 1.1219449 -0.000159276009
      -3.3521068e-05 -0.000604999135 -0.00844709948 -0.00179330388
      0.0256738681 -2.29991474e-05 -9.45200591e-05 -0.00100639567
      -6.27821692e-07 -4.2057859e-06 -0.000231918544 -5.18072156e-05
      -0.009092452 -1.16514984e-05 -0.00413294835 -0.000938327459
      -0.00208931323 -0.00832749065 -0.00416865991 -0.0186510552
      0.047863476 -0.00351256714 0.29861635 0.235331297 -9.24006454e-05
      -9.37747827e-05 0.374696583 -4.59013208e-05 0.475446284
      -0.000152151304 0.0932839438 -4.04370348e-06 0.0444526002
      0.0618917271 -0.000195163491 0.75525552 -0.00394825963 0.47257179
      -2.23438001e-05 -0.000206921395 -3.08668587e-06 -2.42980491e-06
      0.212545112 -0.00186118914 -0.0038454982 0.732601464
      -1.10940994e-06 0.643176377 -3.69525674e-06 -0.00282766577
      0.859147251 -0.000569214288 0.0239497274 -0.000403422775
      -0.000369008631 0.495716721 -3.41750128e-05 -0.000421302306
      0.0611210167 -0.00136494334 -0.00158664584 -0.000293926219
      0.12701039 0.471867621 0.583703279 -0.00143914891 -0.00141284626
      -0.00210767169 0.233920857 -0.00149522873 -1.36218778e-05
      -0.00353713613 0.262354612 -0.00632977998 -0.00267897965
      -0.000126006169 -3.01470686e-06 0.441789359 -2.19499668e-07
      -3.59440378e-07 0.229499862 0.859924078 -1.49661901e-05
      -1.88036374e-05 -0.000209817488 -0.000405017578 0.304572523
      -0.000150627253 -9.5086878e-05 0.249307141 -1.95344328e-05
      -2.08479159e-05 -0.000143240526 -3.97857511e-05 -1.61911958e-05
      0.00483459234 0.00837668031 -0.000247101736 -0.000119348952
      -0.000104980252 0.0698169693 -0.000653856958 0.0734635741
      0.254015028 -0.000120408942 3.81236896e-06 -0.000193640546
      -3.7785434e-05 0.253649563 0.511150062 -2.46552027e-05
      0.0257592127 -9.18545993e-05 -4.22185076e-05 -0.00046989735
      -6.88738146e-05 0.0564120449 -0.000264129514 -0.000190913343
      -2.96134913e-05 -0.000184246543</_>
    <_>
      1.58880889 -4.29819107 -0.00774724362 2.21971083 -0.000167616497
      -0.0126708886 -0.000570026634 -0.00177014514 -3.55717521e-06
      -1.69887353e-05 -3.40735312e-07 -9.20993407e-05 -0.000279601431
      -0.000226972988 0.0824244767 1.23080623 -0.0032180564 0.211215273
      -0.0001619127 -0.00135206035 -0.000858132087 -0.00534811663
      -0.0104902508 -1.49734469e-05 1.55324805 2.17046618
      -1.02756076e-05 -4.82030446e-05 -2.10071685e-05 -0.00820651278
      -0.000183928059 -0.0142554073 -0.00135112333 -0.000108561282
      -0.00078256469 -0.000238208246 -7.596465e-05 -0.0018154718
      -0.000345884415 -0.000122144207 -0.000624934561 -0.00174248067
      -0.000433437381 -0.00509422412 -0.00157889328 -0.000528783887
      1.80367112 2.99758577 -0.00165328605 -0.0020851146 -0.00397470593
      -3.20906656e-06 -0.00971357245 -0.0234604571 -0.0193590391
      -0.0152349146 -0.00361060351 0.450990111 -0.00611186493
      -0.000816985208 -0.00066181703 -0.00093009515 1.63621473
      -0.00417323597 -3.14135468e-05 -4.40652693e-05 -3.02581739e-05
      -0.00573452981 -0.00207876624 -0.000660055201 1.1219368
      -0.00175175793 -0.000122112076 -3.96014275e-06 -0.000892071461
      -2.24528358e-05 1.00988424 0.517677486 -0.00167382474
      -1.1249108e-05 -8.14330178e-07 -0.00038346168 -0.00677250139
      2.42996526 -0.00060768635 0.759650946 -0.0156211853
      -9.95854134e-06 -0.00919832289 -0.00220567244 -0.000545546529
      -0.00554463873 -0.00583918998 4.11571884 -0.0214725062
      -0.000972591515 2.24752522 -0.00689327484 -0.0025382787
      -7.71054547e-05 -0.00780849811 2.68404794 -1.33206834e-06
      -0.00012352156 -0.00106601045 0.96819663 -0.000153584566
      -3.3848286e-05 -0.000573988713 -0.00528123975 -0.00174244551
      -0.00177159719 -2.26636421e-05 -8.64132307e-05 -0.000934004027
      -6.46976616e-07 -4.39422547e-06 -0.000218085435 -5.15235588e-05
      -0.00891546626 -1.09760704e-05 -0.00397740817 -0.000873119221
      -0.00196399959 -0.00817262847 -0.00409616577 -0.0185416881
      0.190933242 -0.00371748791 0.298586279 0.243259996 -9.10555755e-05
      -9.37539226e-05 0.40205875 -0.000123046499 0.497953534
      -0.000152555353 0.0771191046 -3.87650653e-06 0.0445567369
      0.0703814402 -0.000189926097 0.722606719 -0.00350292446 0.44220987
      -2.29028283e-05 -0.00020211126 -3.06076663e-06 -2.51040001e-06
      0.225999326 -0.00209373026 -0.00371736917 0.709914625
      -1.14987972e-06 0.614453554 -3.81744576e-06 -0.00250553363
      0.813675165 -0.000425845588 0.0344438106 -0.000280561188
      -0.000384818442 0.530994415 -3.39903236e-05 -0.000410364039
      0.0612535886 -0.00143011357 -0.0012748685 -0.000282729045
      0.136936605 0.487736762 0.53722167 -0.0010753274 -0.00146117236
      -0.00202830276 0.216534719 -0.00148773217 -1.40037382e-05
      -0.00340722664 0.259891033 -0.00616090652 -0.00257778005
      -0.000124680606 -3.06539368e-06 0.423536986 -2.27371217e-07
      -3.75701774e-07 0.224461675 0.859883487 -1.49665293e-05
      -1.88038557e-05 -0.000209822683 -0.000404977036 0.304507554
      -0.000150629014 -9.50877147e-05 0.24923712 -1.95347093e-05
      -2.11745682e-05 -0.000143241836 -3.9786235e-05 -1.6191394e-05
      0.00490449369 0.00844435394 -0.000247107469 -0.000119166631
      -0.000104964987 0.0697742105 -0.000653814059 0.0735380575
      0.253953576 -0.000120410506 3.99991404e-06 -0.000193643747
      -3.72472787e-05 0.253498554 0.510979891 -2.46555919e-05
      0.0258880928 -9.1855989e-05 -4.22189332e-05 -0.000469883584
      -6.91118985e-05 0.0563808121 -0.000264124537 -0.000190917926
      -2.9613806e-05 -0.000184080156</_>
    <_>
      1.18310273 -3.83769512 -0.0077740741 1.97679567 -0.000169127277
      -0.0126326913 -0.000579594111 -0.00182463555 -3.43844749e-06
      -1.65379242e-05 -3.27937585e-07 -8.95987396e-05 -0.000277891115
      -0.000226547229 0.438769162 0.941847503 -0.00324775022 0.220455453
      -0.000165223333 -0.00132337632 -0.000866835937 -0.00536725949
      -0.0106598185 -1.45693657e-05 1.28523767 1.87651837
      -9.68165932e-06 -4.7124282e-05 -2.12293653e-05 -0.00813471805
      -0.000187570564 -0.0143795507 -0.00132583431 -0.000109475855
      -0.000788323872 -0.000231882324 -7.28995583e-05 -0.00214513973
      -0.000343893247 -0.000119717115 -0.000632803713 -0.00174439279
      -0.000424562633 -0.00488565862 -0.0015828812 -0.000521273585
      1.8318795 2.86856198 -0.00472400663 -0.00208212854 -0.00401502848
      -3.40249721e-06 -0.00978232734 -0.021856159 -0.0192448907
      -0.0192259122 -0.00360960932 0.297297329 -0.00617528567
      -0.000859674998 -0.000693623384 -0.000935096352 1.44622731
      -0.00747315586 -3.16889564e-05 -4.45542973e-05 -2.89530144e-05
      -0.00573649257 -0.00206725765 -0.000659583369 1.28902924
      -0.00174854451 -0.000120764853 -4.40009444e-06 -0.000905016495
      -2.20008314e-05 0.770720661 0.814064562 -0.00170046301
      -1.09518924e-05 -8.33220099e-07 -0.000397780095 -0.00711029442
      2.27839184 -0.000641890743 0.63028717 -0.0152634103
      -1.01740761e-05 -0.0089092087 -0.00224547926 -0.000544939423
      -0.00557798613 -0.00565073965 3.68758202 -0.0211973116
      -0.000949360838 2.11824179 -0.00675251056 -0.00252543972
      -7.63737844e-05 -0.00759059703 2.42018723 -1.29212867e-06
      -0.000125745632 -0.00105244666 1.19617319 -0.000150518958
      -3.26152876e-05 -0.000576436869 -0.00608566683 -0.00174872973
      -6.52661693e-05 -2.31658032e-05 -8.94397599e-05 -0.000932023337
      -6.25159885e-07 -4.21941786e-06 -0.000214747633 -5.16018044e-05
      -0.00877431873 -1.08670811e-05 -0.00411368674 -0.000849944248
      -0.00442440808 -0.00812863186 -0.00390172657 -0.0184194166
      -0.000671972928 -0.00353549863 0.313738555 0.242324889
      -9.22800391e-05 -9.15800701e-05 0.419588983 -0.000433527806
      0.520099342 -0.000152352572 0.0958635435 -3.97942949e-06
      0.0396177247 0.0893103853 -0.000190152379 0.711336434 -0.003635325
      0.447189867 -2.27866076e-05 -0.00020616212 -3.0598967e-06
      -2.477311e-06 0.219330013 -0.00214085984 -0.00394079089
      0.735967875 -1.13340707e-06 0.635536849 -3.76725347e-06
      -0.00251102354 0.838361561 -0.000550037541 0.0175588876
      -0.000232727878 -0.000603360939 0.517550766 -3.41716877e-05
      -0.000413773116 0.0495131388 -0.00160288508 -0.00138355466
      -0.000280234352 0.137368023 0.483513981 0.560263276 -0.00111779314
      -0.00137276959 -0.00198823423 0.213571966 -0.00149250985
      -1.38318137e-05 -0.00345225143 0.264088422 -0.00636447128
      -0.00261452422 -0.000127030304 -3.05575804e-06 0.42268908
      -2.20814073e-07 -3.68209243e-07 0.232031301 0.866001427
      -1.49684629e-05 -1.8805822e-05 -0.000209823615 -0.000404781313
      0.304461658 -0.000150635649 -9.5092706e-05 0.249101073
      -1.9536521e-05 -2.2993012e-05 -0.000143246347 -3.97891963e-05
      -1.61928874e-05 0.00489805639 0.00849900395 -0.000247080839
      -0.000122370722 -0.000104944804 0.0695975348 -0.000653421797
      0.074008286 0.253882527 -0.000120416524 4.70376108e-06
      -0.000193632965 -3.85979911e-05 0.252782762 0.510387063
      -2.46582549e-05 0.0264435038 -9.18631922e-05 -4.22218327e-05
      -0.000469656283 -7.04998674e-05 0.0563230366 -0.000264058006
      -0.000190919658 -2.96157632e-05 -0.000183422148</_>
    <_>
      0.815526426 -4.2677412 -0.00787515659 1.72622824 -0.000170053507
      -0.0128318043 -0.000619313912 -0.00178284978 -4.16271632e-06
      -1.79006074e-05 -3.38641797e-07 -9.8348035e-05 -0.000300195912
      -0.000228518576 0.672557533 1.18809378 -0.00340496679 0.245104805
      -0.000177602415 -0.00138452882 -0.000884549459 -0.00554293208
      -0.0101469206 -1.65705205e-05 1.41184843 2.20626378
      -1.12918215e-05 -5.28648343e-05 -2.24553187e-05 -0.00882215332
      -0.000189312865 -0.0152776195 -0.00138638006 -0.000110104476
      -0.000805282034 -0.000236718915 -7.99548143e-05 -0.00343796331
      -0.000360825419 -0.000133733411 -0.000642828236 -0.00183871994
      -0.000381709688 -0.00473701861 -0.00180146482 -0.000538729015
      1.65257895 2.78719211 -0.00388344494 -0.00220744894 -0.00391998328
      -4.11218525e-06 -0.0101472419 -0.0178734735 -0.0193336122
      -0.0225461256 -0.00361810997 0.0748515055 -0.00622091629
      -0.000894431141 -0.000642165018 -0.00102625019 1.72907925
      -0.00715706032 -3.06235597e-05 -4.68534454e-05 -3.24193206e-05
      -0.00586143043 -0.00206956174 -0.000691426278 1.48731029
      -0.0018484121 -0.00012755912 -4.37972994e-06 -0.000981076737
      -2.33382889e-05 0.943489611 0.955667675 -0.00179012562
      -1.18964672e-05 -8.31623879e-07 -0.000407691929 -0.00540091796
      2.03770614 -0.000668127614 0.520280182 -0.01656566 -1.03869952e-05
      -0.00932510477 -0.00295907515 -0.000562759698 -0.00573815266
      -0.005862677 4.15572834 -0.0213604067 -0.000939208607 2.00214696
      -0.00712852599 -0.00261609582 -8.39309214e-05 -0.00812496059
      2.72148013 -1.48137519e-06 -0.000134627437 -0.00106641673
      1.21279812 -0.000164063007 -3.50126647e-05 -0.000587517046
      -0.0056626224 -0.00185656769 -0.0013075833 -2.39701985e-05
      -8.59401989e-05 -0.000968206383 -7.46392743e-07 -4.56137695e-06
      -0.000217274603 -5.35669024e-05 -0.00911326986 -1.08777876e-05
      -0.00445016986 -0.000898587285 -0.00280557154 -0.00837304723
      -0.00405226229 -0.0188626759 -0.000556664541 -0.003732407
      0.311233938 0.226082712 -9.24048363e-05 -9.27137662e-05
      0.450312942 -0.000350370479 0.540275514 -0.000151242319
      0.0707891881 -4.02630485e-06 0.0407188758 0.0823255852
      -0.000189478131 0.711355686 -0.00355494441 0.464842737
      -2.27099699e-05 -0.000203662174 -3.15187299e-06 -2.48074593e-06
      0.234070003 -0.00192183873 -0.00378474733 0.703585744
      -1.13429542e-06 0.635366857 -3.77339779e-06 -0.00273814541
      0.838186502 -0.000492180057 0.0250759423 -0.0001905791
      -0.000398448552 0.489790916 -3.43600368e-05 -0.000415002549
      0.0557362363 -0.00133181037 -0.00121310889 -0.000282843772
      0.141320631 0.477402389 0.539683282 -0.00120402512 -0.00158434547
      -0.00193898287 0.233041391 -0.00146126829 -1.37777697e-05
      -0.00342577277 0.244571209 -0.00620229635 -0.00259923632
      -0.000127346662 -3.06249876e-06 0.428330153 -2.23727909e-07
      -3.68715916e-07 0.242174551 0.828961074 -1.49695552e-05
      -1.88066879e-05 -0.000209833903 -0.000404658727 0.304324925
      -0.000150640553 -9.50954563e-05 0.248935148 -1.95374669e-05
      -2.40236895e-05 -0.000143249912 -3.97908043e-05 -1.61936077e-05
      0.00503209233 0.0086421296 -0.000247085904 -0.000122715122
      -0.000104910869 0.0694761574 -0.000653250027 0.0742550492
      0.253747165 -0.000120420911 5.22763003e-06 -0.000193636733
      -3.78489858e-05 0.252333343 0.509926379 -2.46596046e-05
      0.0268144682 -9.18674996e-05 -4.22233134e-05 -0.000469578488
      -7.12648034e-05 0.0562499315 -0.000264033384 -0.000190928928
      -2.96168109e-05 -0.000182955133</_>
    <_>
      1.18436098 -4.42579842 -0.00751329213 1.93262148 -0.000159744362
      -0.0124267126 -0.000584930996 -0.00172422768 -3.90964078e-06
      -1.73041426e-05 -3.29829476e-07 -9.30038732e-05 -0.000289910618
      -0.000217475594 0.340087891 1.26633728 -0.00323355966 0.132172719
      -0.000162956843 -0.00134629069 -0.000827171141 -0.00524051487
      -0.00952888932 -1.54120498e-05 1.57173395 2.2271359
      -1.02787117e-05 -4.67728059e-05 -2.07089379e-05 -0.00823200401
      -0.000174139583 -0.0139575666 -0.00132461824 -0.000107560576
      -0.000783917436 -0.000237280867 -7.69657345e-05 -0.00152774528
      -0.000341579347 -0.000120064855 -0.000605654845 -0.00175759266
      -0.000371140341 -0.00485106232 -0.00156687014 -0.000517183682
      1.67773855 2.84254789 -0.00105974718 -0.00208150991 -0.00370220747
      -3.60459194e-06 -0.00964177866 -0.0200424567 -0.0185024142
      -0.0180055872 -0.00348285469 0.325129479 -0.00598973362
      -0.00076109363 -0.000603567692 -0.000944772444 1.70060849
      -0.00408083666 -3.16894293e-05 -4.36211194e-05 -3.13336895e-05
      -0.00548959523 -0.00202382752 -0.00067539094 1.35446763
      -0.00177783915 -0.000120062468 -3.57274803e-06 -0.000905120804
      -2.27989967e-05 1.05049062 0.684991896 -0.00166363025
      -1.13625547e-05 -7.60000148e-07 -0.000378797791 -0.00545730675
      2.16669679 -0.000568919641 0.657245696 -0.0155057991
      -9.92495097e-06 -0.0088855708 -0.00215876428 -0.00052604865
      -0.00534454454 -0.00561791565 4.16410923 -0.0206429549
      -0.000934879063 2.12311482 -0.00678973133 -0.00247608777
      -7.92675346e-05 -0.00771944132 2.70092201 -1.37222548e-06
      -0.000127323423 -0.0010376852 1.12328994 -0.00015585497
      -3.31060983e-05 -0.000564613903 -0.0039868555 -0.00170002156
      -0.00182063098 -2.23191419e-05 -8.10044439e-05 -0.000920853461
      -6.66992776e-07 -4.34938602e-06 -0.000210253289 -5.02924559e-05
      -0.00874777045 -1.0786046e-05 -0.00412987778 -0.000863109657
      -0.0011780553 -0.00805402733 -0.00379606662 -0.0182483252
      0.169651836 -0.00335397734 0.31259945 0.223265171 -9.31526229e-05
      -9.48992383e-05 0.449334115 -0.000361392944 0.560680628
      -0.000151774439 0.0765862688 -4.05515402e-06 0.0355044901
      0.0974599794 -0.000189099796 0.7174927 -0.0035696344 0.477176845
      -2.25250515e-05 -0.000203651551 -3.12166867e-06 -2.45095021e-06
      0.253986955 -0.00195575296 -0.00384776085 0.715300858
      -1.11939244e-06 0.638157308 -3.73051148e-06 -0.00289785559
      0.855030537 -0.000387016742 0.0376141369 -0.000237118002
      -0.000394411822 0.515071452 -3.46683082e-05 -0.000424361671
      0.0545877442 -0.00128799281 -0.00114217878 -0.000279808446
      0.15454492 0.487605304 0.543690324 -0.00114385632 -0.00131263584
      -0.00198773597 0.216403723 -0.00148413749 -1.35786786e-05
      -0.00348539045 0.294829458 -0.00635409635 -0.00265411194
      -0.000128420201 -3.03799129e-06 0.443345129 -2.22908653e-07
      -3.62441767e-07 0.250104606 0.84392345 -1.49710777e-05
      -1.88082213e-05 -0.000209835227 -0.000404504011 0.304282188
      -0.000150645836 -9.50993854e-05 0.248822674 -1.95388839e-05
      -2.54560637e-05 -0.000143253506 -3.97931253e-05 -1.61947755e-05
      0.00503535569 0.00869195908 -0.000247066171 -0.000125150342
      -0.000104893603 0.0693356991 -0.000652944495 0.0746243075
      0.253685534 -0.000120425706 5.78881009e-06 -0.000193628875
      -3.88214357e-05 0.25176692 0.509452045 -2.4661691e-05 0.0272554085
      -9.18731821e-05 -4.22255907e-05 -0.00046940273 -7.23567937e-05
      0.0562019721 -0.000263981841 -0.00019093079 -2.9618348e-05
      -0.000182431264</_>
    <_>
      1.84686387 -4.47239351 -0.00801187102 2.53624511 -0.000174697081
      -0.0131140109 -0.000622709689 -0.0017437106 -4.22982657e-06
      -1.8100598e-05 -3.45543867e-07 -9.93220383e-05 -0.000294977275
      -0.000231289639 -0.00166295806 1.25298345 -0.00338150305
      0.156219259 -0.000170123632 -0.00138000841 -0.000889138842
      -0.00554759149 -0.0108106304 -1.64319426e-05 1.59913194 2.19997811
      -1.04062528e-05 -5.03692718e-05 -2.18212808e-05 -0.00925667398
      -0.000188531703 -0.0145019144 -0.00143084116 -0.000113658476
      -0.000810532249 -0.000238472028 -8.21942012e-05 -0.00168399117
      -0.000378344528 -0.000126082494 -0.000645928958 -0.00183531607
      -0.000406625477 -0.00531726424 -0.00165443704 -0.000544973242
      1.70051217 3.0476048 -0.000838504464 -0.00224416796 -0.00409858068
      -3.6887925e-06 -0.00994476117 -0.025244033 -0.0190504137
      -0.0137452763 -0.00370886223 0.379843354 -0.00634063361
      -0.000884038687 -0.000654264702 -0.000994039234 1.63466549
      -0.00364964991 -3.04317473e-05 -4.63750075e-05 -3.2720367e-05
      -0.00591047434 -0.00216482091 -0.000671607268 1.04640079
      -0.00181388331 -0.000126305938 -3.97360418e-06 -0.000938588346
      -2.31203994e-05 1.0573827 0.383407384 -0.00173427712
      -1.15885168e-05 -8.97226926e-07 -0.000402355217 -0.00804993883
      2.6863389 -0.000617582817 0.736120224 -0.0157321952
      -1.04528244e-05 -0.00976460427 -0.00225369725 -0.000578039791
      -0.00566901499 -0.00591336377 4.21422672 -0.0218046047
      -0.000978408614 2.38166356 -0.00727527123 -0.00263385405
      -8.74715915e-05 -0.00836989656 2.6693182 -1.47626281e-06
      -0.000130574088 -0.00108985812 0.785596967 -0.000165065721
      -3.46169945e-05 -0.000602504995 -0.00676394394 -0.00182208698
      -0.00222848472 -2.33215469e-05 -9.03169712e-05 -0.000978536322
      -7.0092301e-07 -4.66045094e-06 -0.000228101315 -5.31950391e-05
      -0.00929943379 -1.14976156e-05 -0.00406565424 -0.000954273099
      -0.00165288593 -0.00847238302 -0.00428699842 -0.0182922557
      0.274453938 -0.00392887136 0.287451506 0.238648862 -9.22308463e-05
      -9.72508788e-05 0.427014619 0.0280287564 0.497718155
      -0.000151550019 0.0750884414 -4.00035742e-06 0.00208090246
      0.0710034892 -0.000194936394 0.786685467 -0.00366191589
      0.441539764 -2.21299069e-05 -0.000199577131 -3.1345844e-06
      -2.44629746e-06 0.25891602 -0.00147128874 -0.00326978695
      0.679821968 -1.11726092e-06 0.60372448 -3.70727412e-06
      -0.00328159495 0.849705338 -0.000602117972 0.0495576411
      -0.000584801775 -0.000229704223 0.483998388 -3.39577382e-05
      -0.000422412209 0.0674473494 -0.00121237687 -0.00160690269
      -0.000295961916 0.143752173 0.457313687 0.577331781 -0.00139432203
      -0.000910736737 -0.00246965024 0.26350829 -0.00146463211
      -1.35412693e-05 -0.00351517578 0.268990517 -0.00595886214
      -0.00269067055 -0.000124406622 -3.00428655e-06 0.435906678
      -2.22302262e-07 -3.64509617e-07 0.269468367 0.774641097
      -1.49715397e-05 -1.88085487e-05 -0.000209841179 -0.00040445014
      0.304205656 -0.000150648106 -9.51005277e-05 0.248737752
      -1.95392713e-05 -2.58877117e-05 -0.00014325518 -3.97937984e-05
      -1.61950611e-05 0.0051150471 0.00877111405 -0.000247071614
      -0.000125041784 -0.00010487558 0.06928128 -0.00065288 0.0747241229
      0.25361225 -0.000120427714 6.03252556e-06 -0.000193632091
      -3.82480393e-05 0.251571029 0.50923717 -2.46622367e-05
      0.0274203047 -9.18750447e-05 -4.22261874e-05 -0.000469378225
      -7.26734652e-05 0.0561644733 -0.000263973605 -0.000190936087
      -2.96187845e-05 -0.000182219286</_>
    <_>
      1.07644928 -2.69044304 -0.00767732225 1.87465763 -0.000162140204
      -0.0122898817 -0.000628879876 -0.00184374244 -3.88628723e-06
      -1.73787685e-05 -3.34236944e-07 -9.0514317e-05 -0.000264867936
      -0.000215228778 0.522157967 0.491553307 -0.00330461492 0.799455047
      -0.000159298535 -0.00130941148 -0.0008488436 -0.00546002062
      -0.0107757747 -1.51900094e-05 0.835514545 1.48905289
      -8.73434783e-06 -4.724459e-05 -2.18902078e-05 -0.00379873416
      -0.000187616155 -0.0159609616 -0.00121257722 -0.000108703374
      -0.000816767395 -0.000224965697 -7.32575354e-05 -0.00222859811
      -0.000337357429 -0.000131143475 -0.000629833026 -0.00174281863
      -0.000411677174 -0.00490580592 -0.0016613265 -0.000520380563
      2.23385739 2.63881159 -0.00612633163 -0.0020517935 -0.0038306443
      -3.58910506e-06 -0.00990809314 -0.0207008552 -0.0182054508
      -0.0183975417 -0.00347307697 0.286459625 -0.00611862121
      -0.000932043011 -0.000709704007 -0.00100751314 1.16459608
      -0.0112934075 -3.09712814e-05 -4.66012061e-05 -2.92767418e-05
      -0.00571641093 -0.00191189582 -0.000675333897 1.39344776
      -0.00179010897 -0.000129952241 -3.8944936e-06 -0.00091019785
      -2.13566473e-05 0.271881521 0.834638059 -0.00179008627
      -1.0778359e-05 -8.98673704e-07 -0.000430236571 -0.00626951735
      2.26083636 -0.000599560561 0.517380714 -0.0154225165
      -1.00258212e-05 -0.00868852716 -0.00255815615 -0.00053578167
      -0.0056166756 -0.00548038865 2.92026377 -0.0197931621
      -0.000937080011 2.04851604 -0.0067463615 -0.00251248991
      -7.8888821e-05 -0.00745096151 1.99130535 -1.3475817e-06
      -0.000127775565 -0.00102620374 1.47282338 -0.000149605752
      -3.34236429e-05 -0.000545620453 -0.00348297204 -0.00180322153
      0.119575113 -2.31888771e-05 -9.20690582e-05 -0.00093866617
      -6.13551208e-07 -3.99985947e-06 -0.000206207085 -5.20564572e-05
      -0.00814685319 -1.07334381e-05 -0.00453833444 -0.000791314815
      -0.00775147835 -0.00821003877 -0.00358301005 -0.0172395296
      -0.00417114329 -0.00296825194 0.272837281 0.215942472
      -9.20775419e-05 -9.89308755e-05 0.405827045 -8.94134573e-05
      0.532054007 -0.000151402128 0.0755817518 -4.02080286e-06
      0.0388520956 0.0827581808 -0.000193346714 0.762625754
      -0.00337411556 0.461910874 -2.22882863e-05 -0.000195827015
      -3.22466735e-06 -2.45882984e-06 0.271440983 -0.00133606896
      -0.00326426676 0.592424154 -1.12208158e-06 0.551387608
      -3.73852345e-06 -0.00331931841 0.83341372 -0.000458059221
      0.0759472027 -0.00060214143 0.00517256558 0.492926449
      -3.44854598e-05 -0.000427561463 0.0338074341 -0.00100083917
      -0.000588212628 -0.000290985365 0.150079042 0.454929769
      0.545684397 -0.00124997809 -0.00112430763 -0.00237936759
      0.277742684 -0.0014774868 -1.35859673e-05 -0.00348186074
      0.301017135 -0.00600468041 -0.00267614541 -0.000125785082
      -3.02448211e-06 0.457899362 -2.25508302e-07 -3.66964372e-07
      0.238974497 0.751745999 -1.49798625e-05 -1.8816263e-05
      -0.000209874954 -0.000403570943 0.303674221 -0.000150680193
      -9.51218099e-05 0.247879595 -1.95468256e-05 -3.37872443e-05
      -0.000143277663 -3.98063421e-05 -1.62011129e-05 0.00550533831
      0.00934894383 -0.000247018499 -0.000134507078 -0.000104719242
      0.0684485734 -0.000651344249 0.076709047 0.253018826
      -0.000120456643 9.43552004e-06 -0.000193615706 -3.95242496e-05
      0.248330265 0.506290078 -2.46732307e-05 0.0300051421
      -9.19067897e-05 -4.22381963e-05 -0.000468553248 -7.86366509e-05
      0.0557905771 -0.000263726513 -0.000190968829 -2.96270337e-05
      -0.00017907891</_>
    <_>
      2.43579078 -5.1707654 -0.00742233079 6.14286423 -0.000169808452
      -0.0126099102 -0.000535413856 -0.00157699594 -2.54536644e-06
      -1.70974708e-05 -4.18381546e-07 -7.23435369e-05 -0.000230197198
      -0.000212974468 -0.0380655341 0.577960134 -0.00302444887
      1.71946728 -0.000120067751 -0.00138501904 -0.000784763542
      -0.00501114782 -0.0147978691 -1.39290478e-05 1.3075031 1.18238747
      -1.20844134e-05 -4.86591489e-05 -2.03998261e-05 -0.00273259659
      -0.000188304795 -0.0149193974 -0.0011695748 -0.000108680499
      -0.000729914056 -0.000271084486 -6.27000554e-05 1.13216662
      -0.000307967042 -0.000126597413 -0.000596294703 -0.00143660256
      -0.000584188034 -0.00579894986 -0.00177359965 -0.000524459057
      3.05848742 4.15400267 1.4908185 -0.0017879837 -0.00478328345
      -2.38584562e-06 -0.00935734529 -0.0473975949 -0.0179579239
      3.17789698 -0.0033901569 1.61170292 -0.00569568248 -0.000996245886
      -0.000843039365 -0.00079438556 0.547299623 -0.00077382673
      -3.75591662e-05 -4.40336771e-05 -2.36257256e-05 -0.00584629038
      -0.00183507719 -0.000695844996 -0.00771566154 -0.00170825107
      -0.000114642418 -2.51004326e-06 -0.000835472485 -2.13616095e-05
      0.121560007 -0.023641007 -0.00161505071 -1.05884619e-05
      -9.33970625e-07 -0.000377424381 -0.0144453458 5.67338228
      -0.000470097875 1.93736017 -0.00771069806 -8.96123493e-06
      -0.0107121589 -0.0017412476 -0.00048572119 -0.00569354463
      -0.00718077831 3.01970482 -0.0204319432 -0.00111165654 4.30991554
      -0.00737973955 -0.00236748159 -6.86507119e-05 -0.00799123105
      1.56668329 -1.34028301e-06 -9.41189282e-05 -0.00115760695
      0.407312185 -0.000138779098 -3.4571065e-05 -0.000479230541
      1.10986984 -0.00163622573 -0.00436869124 -2.15164036e-05
      -9.84323342e-05 -0.000913325523 -7.8009657e-07 -4.10846633e-06
      -0.000222573464 -5.24889329e-05 -0.00846324116 -1.10640831e-05
      -0.00284256483 -0.00073993078 -0.00877602771 -0.00988581125
      -0.00345711759 -0.0194522459 0.454558969 -0.00439223601
      0.0887794793 0.314068943 -7.53802306e-05 -0.000107797496
      0.113789752 0.189793944 0.305094719 -0.000166923928 0.219266385
      -2.54525276e-06 0.0998706967 0.152042329 -0.000195600573
      0.812886059 -0.000453313813 0.194829166 -2.31009944e-05
      -0.000119643162 -3.01921841e-06 -2.73111209e-06 0.188774362
      0.272883117 0.0483558327 -0.000902589527 -1.28880754e-06
      -0.0011183233 -4.32076286e-06 -0.00249276962 0.6098575
      0.0339894742 0.3811782 -0.00138915656 0.316224694 0.274123073
      -2.88181473e-05 -0.000388361135 -0.000199183298 0.101665512
      0.215251327 -0.000272076781 0.109826922 0.252952874 0.559928715
      -0.00145769457 -0.00101000082 -0.00463559106 0.402481377
      -0.00141474279 -1.63144614e-05 -0.00308321533 0.263466358
      -0.00425409293 -0.00274098502 -0.000103794948 -3.02023591e-06
      0.324920982 -2.53387896e-07 -4.63100321e-07 0.0203537233
      0.119622052 -1.5018838e-05 -1.88515951e-05 -0.000210064347
      -0.000399413984 0.300856799 -0.000150834341 -9.52212431e-05
      0.243570372 -1.9581963e-05 -7.11892499e-05 -0.000143386249
      -3.9864939e-05 -1.62290708e-05 0.00776054338 0.0124146305
      -0.000246834679 -0.000175068635 -0.000103910301 0.0644390285
      -0.00064431323 0.0860617012 0.249953121 -0.000120595374
      2.57061329e-05 -0.000193569867 -4.11457186e-05 0.232867211
      0.492010891 -2.47242351e-05 0.0424179509 -9.2056398e-05
      -4.22939556e-05 -0.000464844052 -0.000106804386 0.0538990647
      -0.000262608344 -0.000191148865 -2.96655053e-05 -0.000163954639</_>
    <_>
      2.64108491 -4.63105679 -0.00729822088 5.74252415 -0.000164560392
      -0.0126006994 -0.000567682029 -0.00159176614 -3.30810485e-06
      -1.78362225e-05 -4.21621763e-07 -7.75218796e-05 -0.000243809511
      -0.000214561631 -0.0321991108 0.578224897 -0.00309446757
      1.76587558 -0.00013130407 -0.00134012336 -0.000789544138
      -0.00496783247 -0.0139553286 -1.56003025e-05 1.18123794 1.23532379
      -1.24423741e-05 -5.15588654e-05 -2.08445072e-05 -0.00399577338
      -0.000185076118 -0.0157843567 -0.0011900214 -0.000108955181
      -0.000748386607 -0.000263669819 -6.68861903e-05 1.04337144
      -0.000307599665 -0.000136546689 -0.000599239836 -0.00149361126
      -0.000515213876 -0.00502025662 -0.00183118251 -0.000512461585
      2.96737599 3.94661641 1.47033119 -0.0018239785 -0.00439634593
      -3.00138231e-06 -0.00950644631 -0.0411973819 -0.0172260236
      2.66909623 -0.00334371417 1.47170794 -0.00566333858 -0.00106296409
      -0.000771852501 -0.000856450875 0.712752998 -0.0028985024
      -3.61849961e-05 -4.46068989e-05 -2.58449181e-05 -0.00574900443
      -0.00178280345 -0.000697601354 -0.00355742499 -0.00179942383
      -0.000118363852 -2.56477529e-06 -0.000841130444 -2.07056964e-05
      0.0171676166 -0.0223566163 -0.00164709589 -1.07356391e-05
      -9.34591696e-07 -0.000385102991 -0.0101658721 5.16811514
      -0.000475166045 1.78562498 -0.0086252084 -9.17927355e-06
      -0.0106954025 -0.00251980266 -0.000486004108 -0.00555803347
      -0.00703337556 3.00990963 -0.0201834142 -0.00106773805 4.02459717
      -0.00740147568 -0.00236947672 -7.45231373e-05 -0.0077788434
      1.62022543 -1.47013702e-06 -9.94568181e-05 -0.00111173594
      0.435882896 -0.000148470601 -3.43567626e-05 -0.000475797831
      1.06856012 -0.00166508823 -0.00562078226 -2.22558992e-05
      -9.13825716e-05 -0.000927219691 -8.33449633e-07 -4.14237456e-06
      -0.000212020052 -5.26724471e-05 -0.00833433773 -1.08128133e-05
      -0.0030642089 -0.000762700045 -0.009444125 -0.00982909929
      -0.00325664575 -0.0190420225 0.264415145 -0.00431324355
      0.0750617161 0.320342332 -7.61407719e-05 -0.000112127149
      0.0858158469 0.180998117 0.356595218 -0.000168930506 0.223430991
      -2.53215717e-06 0.0798606128 0.177562296 -0.00019308379
      0.807693422 -0.000241038273 0.192287564 -2.29144789e-05
      -0.000116797899 -3.07614846e-06 -2.7034655e-06 0.212775499
      0.25697273 0.0606873631 -0.00113285135 -1.27622536e-06
      -0.00122839212 -4.28816429e-06 -0.00289672846 0.62467432
      0.042024307 0.415940642 -0.00135523954 0.317322552 0.290301442
      -2.92777931e-05 -0.000398637116 -0.000377419521 0.0901812613
      0.265293241 -0.000270225748 0.125681758 0.291226089 0.58036983
      -0.00145795278 -0.000876430131 -0.00468613487 0.382733643
      -0.00145817362 -1.61751759e-05 -0.00312458631 0.304978162
      -0.00436709682 -0.00279089622 -0.000105427142 -3.00351348e-06
      0.378911167 -2.55633495e-07 -4.58017809e-07 0.0125428662
      0.116697177 -1.5019732e-05 -1.88524882e-05 -0.000210065453
      -0.000399322656 0.300829411 -0.000150837499 -9.52235423e-05
      0.243501171 -1.95827943e-05 -7.20507669e-05 -0.000143388403
      -3.98663033e-05 -1.62297529e-05 0.00776621327 0.0124475136
      -0.000246823765 -0.00017649855 -0.000103899198 0.064353779
      -0.000644135405 0.0862839073 0.249914765 -0.000120598226
      2.60362285e-05 -0.000193565516 -4.16927396e-05 0.232525915
      0.491724432 -2.47254575e-05 0.0426850542 -9.20597522e-05
      -4.22952871e-05 -0.000464742014 -0.000107460524 0.0538690463
      -0.000262578338 -0.000191150248 -2.96664075e-05 -0.000163638164</_>
    <_>
      2.71313548 -4.38867855 -0.00734629994 5.4402895 -0.000149913365
      -0.0122837545 -0.00056945387 -0.00165311212 -2.31532135e-06
      -1.67325488e-05 -4.08408766e-07 -6.60094593e-05 -0.000202176001
      -0.000206194047 -0.0288757943 -0.000631576288 -0.00301289256
      2.3074677 -0.000117225944 -0.00125967502 -0.000772441039
      -0.00509253331 -0.0140850777 -1.29017708e-05 0.671826899
      0.689878881 -1.07017631e-05 -4.42449273e-05 -1.91656254e-05
      0.297963977 -0.000190480205 -0.0156385507 -0.00102631759
      -0.000101438141 -0.000763823744 -0.000251584046 -5.43934293e-05
      1.23179746 -0.000267791969 -0.000134331582 -0.000587880961
      -0.00137960585 -0.000509109348 -0.0055356482 -0.0017430794
      -0.000496756111 3.46827102 3.65321755 1.13595283 -0.001650127
      -0.00426789327 -2.24333553e-06 -0.00963899679 -0.0414525643
      -0.0170115698 2.33448648 -0.00334333023 1.525473 -0.00575796375
      -0.000939236314 -0.000885998888 -0.000844563881 0.282204956
      -0.00737152575 -3.55331576e-05 -4.1663614e-05 -1.99152819e-05
      -0.00564390467 -0.0016751925 -0.000669973786 -0.00151957793
      -0.0017399732 -0.000120869816 -2.62509593e-06 -0.000737329712
      -1.84537112e-05 -0.00536349695 -0.0185050741 -0.00166564016
      -9.78910703e-06 -7.69635506e-07 -0.000415885937 -0.00951636489
      4.92382765 -0.000469208608 1.66032529 -0.00920400582
      -9.15885903e-06 -0.0100961765 -0.00223971717 -0.000463031116
      -0.00571145397 -0.00682955794 1.95715427 -0.0194167867
      -0.00107266847 3.81564617 -0.0071281651 -0.00228790869
      -5.8674319e-05 -0.00743854698 1.05880928 -1.13777253e-06
      -9.14719931e-05 -0.00102903915 0.973524094 -0.000131702036
      -3.15530378e-05 -0.000446360587 1.49172592 -0.00164414244
      -0.00360829849 -2.10396065e-05 -8.90378797e-05 -0.000855649821
      -6.07744596e-07 -3.69775876e-06 -0.000191412706 -5.28728888e-05
      -0.00774677005 -1.04984547e-05 -0.00358608924 -0.000627709145
      -0.0133530563 -0.00954357442 -0.00295992079 -0.0168343857
      -0.00104821729 -0.00350626907 0.0649334118 0.357746512
      -7.57491871e-05 -0.000108434535 0.115320161 0.173276857
      0.344737649 -0.000168738436 0.227725595 -2.4757162e-06
      0.0839259252 0.207655996 -0.000188695922 0.861734211
      -0.000242345399 0.19192934 -2.26823522e-05 -0.000115007395
      -3.01166165e-06 -2.65722451e-06 0.206261247 0.304735065
      0.0784848332 -0.00139360898 -1.2579959e-06 -0.00135634269
      -4.2351985e-06 -0.00267326715 0.62705195 0.0511053652 0.420333982
      -0.00132477831 0.310211301 0.351670474 -2.88441443e-05
      -0.000398757082 -0.000213808191 0.0830931515 0.262716889
      -0.000266988529 0.110536158 0.259417772 0.556628823 -0.0012867261
      -0.00118410331 -0.00484958803 0.406047285 -0.00153279118
      -1.62736069e-05 -0.00320468773 0.306081325 -0.00443117833
      -0.00284834858 -0.000105080799 -2.94657457e-06 0.360103458
      -2.47769606e-07 -4.5231161e-07 -7.73218271e-05 0.151557401
      -1.50202331e-05 -1.8853023e-05 -0.000210064594 -0.000399273238
      0.300832868 -0.0001508391 -9.52248447e-05 0.243475527
      -1.95832708e-05 -7.25627833e-05 -0.00014338945 -3.98670818e-05
      -1.62301531e-05 0.00774751976 0.0124489516 -0.000246814685
      -0.000177592141 -0.000103896054 0.0643061921 -0.000644028303
      0.0864201635 0.249909103 -0.000120599689 2.6196416e-05
      -0.000193561558 -4.22651683e-05 0.232330769 0.491577387
      -2.47261651e-05 0.0428354964 -9.20616076e-05 -4.2296062e-05
      -0.000464676676 -0.000107853855 0.0538575239 -0.000262559392
      -0.000191149767 -2.96669223e-05 -0.000163466932</_>
    <_>
      2.92689252 -4.09331083 -0.00766986655 5.69563103 -0.000175105364
      -0.0131182289 -0.000595567166 -0.00162403332 -3.42241628e-06
      -1.8278768e-05 -4.2334915e-07 -8.2622013e-05 -0.000247730262
      -0.000224901334 -0.0304274578 0.645680964 -0.00323561672
      1.63182855 -0.000141369368 -0.00138144207 -0.000834924576
      -0.00523704989 -0.0140742837 -1.61699427e-05 1.23330212 1.35818064
      -1.26726873e-05 -5.32442828e-05 -2.15815489e-05 -0.00497481832
      -0.000195555258 -0.0158454794 -0.00126611115 -0.000112244401
      -0.000771635852 -0.000262439164 -6.98401636e-05 0.883799791
      -0.000323820306 -0.00014186019 -0.000631354051 -0.00158686133
      -0.000515273772 -0.00518846326 -0.00187292765 -0.000536186271
      2.86770248 3.96639776 1.25278652 -0.00193560764 -0.00454532262
      -3.14753515e-06 -0.00991092809 -0.0424894616 -0.0177783053
      2.36000228 -0.00352772744 1.3772974 -0.00594819523 -0.0010787514
      -0.000803219213 -0.00089911645 0.81076026 -0.0033082685
      -3.49762813e-05 -4.61199597e-05 -2.61288715e-05 -0.00604660669
      -0.00187935634 -0.000690832734 -0.00272691366 -0.00184441695
      -0.00012423053 -2.94910478e-06 -0.000870938005 -2.14460488e-05
      0.097036913 -0.0210808218 -0.00171417487 -1.09125949e-05
      -9.40716916e-07 -0.000408794353 -0.0110109635 5.2119298
      -0.00051072397 1.72771358 -0.00971328933 -9.71906593e-06
      -0.0111035639 -0.00262798206 -0.000517754001 -0.00578452973
      -0.0070672608 3.18858027 -0.0212221853 -0.00105392013 4.01270151
      -0.00771741662 -0.00248141796 -7.72098356e-05 -0.00836599339
      1.74950051 -1.46415709e-06 -0.000104407984 -0.00113951322
      0.362807155 -0.00015428428 -3.53240939e-05 -0.000506801414
      0.763732493 -0.0017510741 -0.00542590627 -2.31559297e-05
      -9.44747371e-05 -0.000966241467 -8.53987046e-07 -4.3304276e-06
      -0.000219903653 -5.5016666e-05 -0.00872340146 -1.12075986e-05
      -0.00322325341 -0.000811416423 -0.00908303261 -0.00981391873
      -0.00351789338 -0.0188257676 0.277478039 -0.00441217469
      0.0768401995 0.353107184 -7.69861799e-05 -0.00010913398
      0.133647308 0.157983482 0.358839929 -0.000167024846 0.21647802
      -2.65508152e-06 0.0636716411 0.205869824 -0.000186921228
      0.856225967 -0.000513269508 0.187867075 -2.28223198e-05
      -0.000119706834 -3.12365819e-06 -2.69878069e-06 0.204813361
      0.299381405 0.0870736465 -0.0013147014 -1.27253611e-06
      -0.000956741627 -4.27966643e-06 -0.00276767206 0.643687963
      0.0606454611 0.430184662 -0.00124606513 0.322103143 0.313304275
      -2.98225041e-05 -0.000390979723 -0.000387616659 0.0880397409
      0.224748433 -0.000266494026 0.0813638717 0.261212617 0.545870304
      -0.0011644722 -0.00100631395 -0.00478000008 0.390288591
      -0.00146412104 -1.61675507e-05 -0.00311767985 0.303558856
      -0.00419110153 -0.00278080697 -0.000105958461 -3.02699709e-06
      0.346437693 -2.51194706e-07 -4.56107813e-07 0.0166594349
      0.147742897 -1.50142478e-05 -1.88476242e-05 -0.000210034428
      -0.000399912969 0.30127573 -0.000150815278 -9.5209587e-05
      0.24414745 -1.95778848e-05 -6.67885834e-05 -0.000143372657
      -3.98580924e-05 -1.6225873e-05 0.00738707557 0.0119658038
      -0.000246840646 -0.000171453954 -0.000104023115 0.0649273992
      -0.000645102409 0.0849770606 0.25038895 -0.000120578268
      2.36895867e-05 -0.000193567554 -4.21454388e-05 0.234721065
      0.493789613 -2.47183489e-05 0.0409135595 -9.20385937e-05
      -4.22875164e-05 -0.000465241261 -0.000103507322 0.0541532747
      -0.000262729853 -0.000191121188 -2.96610197e-05 -0.000165808495</_>
    <_>
      2.55983019 -4.52485228 -0.00770474551 5.87923813 -0.000166547223
      -0.0130966064 -0.0005737014 -0.00158899545 -3.11515578e-06
      -1.82997592e-05 -4.31602047e-07 -7.90989579e-05 -0.000231082362
      -0.000223015799 -0.0324621685 0.384307027 -0.00323964655
      1.68280721 -0.000130600543 -0.00136714161 -0.00082340755
      -0.00529045984 -0.0141603276 -1.52920547e-05 1.08599031 1.09369552
      -1.11907802e-05 -5.2817617e-05 -2.15667787e-05 -0.00401739078
      -0.00019504888 -0.0167806447 -0.00123064208 -0.000110842855
      -0.000766525976 -0.000267234776 -6.72469541e-05 0.807456613
      -0.00032327784 -0.000138295014 -0.000616607373 -0.00155693735
      -0.000548159645 -0.00557286711 -0.00187708996 -0.000564055692
      2.95661068 3.9943316 1.27676582 -0.00188903848 -0.00479070097
      -2.68256576e-06 -0.0100172842 -0.0440937765 -0.0172694214
      2.7653923 -0.00352113927 1.41519356 -0.00597300101 -0.0010611146
      -0.00085243053 -0.000896095706 0.619057715 -0.00389279774
      -3.59299229e-05 -4.62747885e-05 -2.5396479e-05 -0.00601524021
      -0.00185219268 -0.000702553894 -0.00271163508 -0.00184065162
      -0.000123855687 -2.6310654e-06 -0.000851493736 -2.07132216e-05
      -0.000790794904 -0.0221099816 -0.00175077701 -1.08150089e-05
      -9.87470344e-07 -0.000407524814 -0.0131480265 5.47629166
      -0.000487845129 1.77378249 -0.00940868258 -9.49732384e-06
      -0.0110139931 -0.00243444741 -0.000509229722 -0.0057951794
      -0.00703402516 2.80150008 -0.0207851492 -0.00112486817 4.09087038
      -0.00770233572 -0.00246641133 -7.46141741e-05 -0.00824971404
      1.51239657 -1.40300995e-06 -0.000101260324 -0.00112125429
      0.441452801 -0.000147933693 -3.49219736e-05 -0.000501373317
      0.980405986 -0.00172142766 -0.00516925566 -2.26953925e-05
      -9.92222776e-05 -0.000948666886 -8.00010071e-07 -4.26876068e-06
      -0.000220143163 -5.55248371e-05 -0.00856336579 -1.13346969e-05
      -0.00332673779 -0.000773341104 -0.0105349058 -0.0100060673
      -0.0034514307 -0.0193014536 0.210404813 -0.00412811199
      0.0951413065 0.374433011 -7.44014105e-05 -0.000105998384
      0.137719736 0.191842049 0.339975536 -0.000167321879 0.243094921
      -2.43224804e-06 0.0421940535 0.246361077 -0.000186995443
      0.835035861 -0.00025100357 0.148437411 -2.32142393e-05
      -0.000117262774 -3.0601891e-06 -2.75549132e-06 0.209389195
      0.249246642 0.074796699 -0.00122575171 -1.3029221e-06
      -0.00135470775 -4.37182553e-06 -0.00243283482 0.629579306
      0.0694906712 0.404475391 -0.0011438264 0.322847307 0.275434315
      -2.89326927e-05 -0.000377764925 -0.000189561164 0.118477315
      0.194014207 -0.000262656366 0.0853032023 0.22759679 0.513185203
      -0.00112431601 -0.000866337854 -0.00467702234 0.362587273
      -0.00141078082 -1.65135643e-05 -0.00303812558 0.284794688
      -0.00418183301 -0.00270466739 -0.000103589686 -3.04628702e-06
      0.282344937 -2.5391418e-07 -4.711153e-07 0.030043304 0.0907883495
      -1.50142469e-05 -1.88477534e-05 -0.000210029175 -0.000399919518
      0.301338553 -0.000150814682 -9.52096161e-05 0.244195133
      -1.95779248e-05 -6.68294306e-05 -0.000143372119 -3.98581287e-05
      -1.62259366e-05 0.00731120259 0.0119051263 -0.000246829906
      -0.000172346714 -0.000104034792 0.0649346486 -0.000645075866
      0.0849999785 0.250442505 -0.000120577744 2.36127526e-05
      -0.000193562169 -4.30155924e-05 0.234730184 0.493849754
      -2.47184325e-05 0.0408960953 -9.203847e-05 -4.22876037e-05
      -0.000465213263 -0.000103550308 0.054173965 -0.000262722664
      -0.000191116706 -2.96610488e-05 -0.000165848076</_>
    <_>
      2.59467697 -4.60926199 -0.0073451791 5.70776176 -0.000158020368
      -0.0125621604 -0.000573091616 -0.00162054924 -3.03440402e-06
      -1.78987666e-05 -4.18409172e-07 -7.21615797e-05 -0.00023281372
      -0.000212097773 -0.0308898315 0.267175853 -0.00310429395
      1.88335514 -0.000123797407 -0.00132905541 -0.000800411915
      -0.00506003108 -0.0141436262 -1.44332771e-05 0.933744729
      0.977705121 -1.1240988e-05 -4.86816425e-05 -2.06248133e-05
      -0.00232831202 -0.000188239588 -0.0163228549 -0.00113882788
      -0.00010835642 -0.000772467756 -0.000253128237 -6.25364046e-05
      1.11803579 -0.000301105611 -0.000135548034 -0.000617995334
      -0.00145580771 -0.000505089061 -0.00504854834 -0.00179032236
      -0.000513077539 3.08078861 3.81480432 1.40299666 -0.0017601843
      -0.00447908649 -2.7720987e-06 -0.00966771785 -0.0411618464
      -0.0169780068 2.61771488 -0.00337121426 1.50005805 -0.0058078235
      -0.00104504172 -0.000814238039 -0.000866365794 0.540162444
      -0.00485252822 -3.50987866e-05 -4.42505261e-05 -2.38159409e-05
      -0.00576534262 -0.00176615769 -0.00069342833 -0.001817093
      -0.00179141818 -0.000121724763 -2.72484658e-06 -0.000777898706
      -2.00544091e-05 -0.00224625506 -0.0223841928 -0.00167328538
      -1.02440554e-05 -9.12596647e-07 -0.000405612547 -0.0104605537
      5.12681818 -0.000482886157 1.72713959 -0.00916509517
      -9.23558946e-06 -0.0106733944 -0.00242328783 -0.00048857939
      -0.00562997069 -0.0069767544 2.57170987 -0.0199440643
      -0.00108551711 3.95486188 -0.00738553749 -0.00235717534
      -7.02351026e-05 -0.00779592479 1.38643467 -1.38068833e-06
      -9.69499306e-05 -0.00107066787 0.502688289 -0.000141736949
      -3.39504913e-05 -0.000465826539 1.24402726 -0.00165796024
      -0.00594087876 -2.23143015e-05 -9.28210939e-05 -0.000883313245
      -7.36293146e-07 -4.0280097e-06 -0.000206181183 -5.31734113e-05
      -0.00806841813 -1.07479127e-05 -0.00327333552 -0.000712459208
      -0.0115888268 -0.00967032276 -0.00319044851 -0.0178022273
      0.0985422805 -0.00407967297 0.0961274281 0.344122976
      -7.49828905e-05 -0.0001068321 0.120247781 0.209575474 0.357220829
      -0.000168742888 0.264454931 -2.46640229e-06 0.0490876213
      0.218147814 -0.000189030412 0.822385013 -0.000301200955 0.1735975
      -2.32069087e-05 -0.000117522053 -3.00861871e-06 -2.73732439e-06
      0.199153453 0.227047279 0.0415918231 -0.000784301606
      -1.29746775e-06 -0.0010916579 -4.3583218e-06 -0.00238241488
      0.631063759 0.0502137616 0.409174383 -0.00132393115 0.300290287
      0.291218549 -2.85678252e-05 -0.000384247047 -0.000320988067
      0.113024741 0.185667709 -0.000260744884 0.107170403 0.242819443
      0.544923723 -0.0011018283 -0.000779045338 -0.00451398687
      0.379774332 -0.00141312415 -1.64551293e-05 -0.00306413462
      0.290906519 -0.004358673 -0.00271528005 -0.000106281535
      -3.0233366e-06 0.312933534 -2.5319622e-07 -4.67773816e-07
      0.0248291045 0.120443523 -1.50132983e-05 -1.8846853e-05
      -0.00021002625 -0.000400018616 0.301387668 -0.000150811116
      -9.5207186e-05 0.24428466 -1.95770572e-05 -6.59155121e-05
      -0.00014336966 -3.98566881e-05 -1.62252363e-05 0.00728026032
      0.0118499212 -0.000246837852 -0.00017109621 -0.000104050632
      0.0650289357 -0.000645255554 0.0847678334 0.250500441
      -0.000120574528 2.32394086e-05 -0.000193564993 -4.27095219e-05
      0.23510024 0.494176328 -2.47171629e-05 0.0406025425
      -9.20348757e-05 -4.22862176e-05 -0.000465312361 -0.00010285819
      0.0542131215 -0.000262752146 -0.000191113751 -2.96601011e-05
      -0.000166200844</_>
    <_>
      2.59467697 -4.60926199 -0.0073451791 5.70776176 -0.000158020368
      -0.0125621604 -0.000573091616 -0.00162054924 -3.03440402e-06
      -1.78987666e-05 -4.18409172e-07 -7.21615797e-05 -0.00023281372
      -0.000212097773 -0.0308898315 0.267175853 -0.00310429395
      1.88335514 -0.000123797407 -0.00132905541 -0.000800411915
      -0.00506003108 -0.0141436262 -1.44332771e-05 0.933744729
      0.977705121 -1.1240988e-05 -4.86816425e-05 -2.06248133e-05
      -0.00232831202 -0.000188239588 -0.0163228549 -0.00113882788
      -0.00010835642 -0.000772467756 -0.000253128237 -6.25364046e-05
      1.11803579 -0.000301105611 -0.000135548034 -0.000617995334
      -0.00145580771 -0.000505089061 -0.00504854834 -0.00179032236
      -0.000513077539 3.08078861 3.81480432 1.40299666 -0.0017601843
      -0.00447908649 -2.7720987e-06 -0.00966771785 -0.0411618464
      -0.0169780068 2.61771488 -0.00337121426 1.50005805 -0.0058078235
      -0.00104504172 -0.000814238039 -0.000866365794 0.540162444
      -0.00485252822 -3.50987866e-05 -4.42505261e-05 -2.38159409e-05
      -0.00576534262 -0.00176615769 -0.00069342833 -0.001817093
      -0.00179141818 -0.000121724763 -2.72484658e-06 -0.000777898706
      -2.00544091e-05 -0.00224625506 -0.0223841928 -0.00167328538
      -1.02440554e-05 -9.12596647e-07 -0.000405612547 -0.0104605537
      5.12681818 -0.000482886157 1.72713959 -0.00916509517
      -9.23558946e-06 -0.0106733944 -0.00242328783 -0.00048857939
      -0.00562997069 -0.0069767544 2.57170987 -0.0199440643
      -0.00108551711 3.95486188 -0.00738553749 -0.00235717534
      -7.02351026e-05 -0.00779592479 1.38643467 -1.38068833e-06
      -9.69499306e-05 -0.00107066787 0.502688289 -0.000141736949
      -3.39504913e-05 -0.000465826539 1.24402726 -0.00165796024
      -0.00594087876 -2.23143015e-05 -9.28210939e-05 -0.000883313245
      -7.36293146e-07 -4.0280097e-06 -0.000206181183 -5.31734113e-05
      -0.00806841813 -1.07479127e-05 -0.00327333552 -0.000712459208
      -0.0115888268 -0.00967032276 -0.00319044851 -0.0178022273
      0.0985422805 -0.00407967297 0.0961274281 0.344122976
      -7.49828905e-05 -0.0001068321 0.120247781 0.209575474 0.357220829
      -0.000168742888 0.264454931 -2.46640229e-06 0.0490876213
      0.218147814 -0.000189030412 0.822385013 -0.000301200955 0.1735975
      -2.32069087e-05 -0.000117522053 -3.00861871e-06 -2.73732439e-06
      0.199153453 0.227047279 0.0415918231 -0.000784301606
      -1.29746775e-06 -0.0010916579 -4.3583218e-06 -0.00238241488
      0.631063759 0.0502137616 0.409174383 -0.00132393115 0.300290287
      0.291218549 -2.85678252e-05 -0.000384247047 -0.000320988067
      0.113024741 0.185667709 -0.000260744884 0.107170403 0.242819443
      0.544923723 -0.0011018283 -0.000779045338 -0.00451398687
      0.379774332 -0.00141312415 -1.64551293e-05 -0.00306413462
      0.290906519 -0.004358673 -0.00271528005 -0.000106281535
      -3.0233366e-06 0.312933534 -2.5319622e-07 -4.67773816e-07
      0.0248291045 0.120443523 -1.50132983e-05 -1.8846853e-05
      -0.00021002625 -0.000400018616 0.301387668 -0.000150811116
      -9.5207186e-05 0.24428466 -1.95770572e-05 -6.59155121e-05
      -0.00014336966 -3.98566881e-05 -1.62252363e-05 0.00728026032
      0.0118499212 -0.000246837852 -0.00017109621 -0.000104050632
      0.0650289357 -0.000645255554 0.0847678334 0.250500441
      -0.000120574528 2.32394086e-05 -0.000193564993 -4.27095219e-05
      0.23510024 0.494176328 -2.47171629e-05 0.0406025425
      -9.20348757e-05 -4.22862176e-05 -0.000465312361 -0.00010285819
      0.0542131215 -0.000262752146 -0.000191113751 -2.96601011e-05
      -0.000166200844</_>
    <_>
      2.50389481 -4.61179304 -0.0071100085 5.64073277 -0.00017005048
      -0.0121349758 -0.000584540656 -0.00171643461 -3.32261948e-06
      -1.79003273e-05 -4.0102293e-07 -7.49370811e-05 -0.00024911511
      -0.000203932519 -0.0307393521 0.279605031 -0.00301973638
      2.27677822 -0.000126069077 -0.00139089371 -0.000805805961
      -0.00495284563 -0.0141145522 -1.52087823e-05 0.866983354
      0.982040346 -1.30317248e-05 -4.94099077e-05 -2.138331e-05
      0.0694611818 -0.000185877012 -0.0173990112 -0.00106449029
      -0.000111491005 -0.000776513363 -0.0002544155 -6.43313761e-05
      0.944824517 -0.000303887355 -0.00014055254 -0.000625683635
      -0.00142377394 -0.000555998762 -0.00471755536 -0.00187244976
      -0.000483945827 3.45283508 3.67611909 1.57321501 -0.00176076696
      -0.00444431975 -3.04694368e-06 -0.00939107127 -0.0413418338
      -0.0179899167 2.66819215 -0.00327634299 1.57075667 -0.00560092181
      -0.00107324624 -0.000795448839 -0.000886617927 0.528281868
      -0.0052635083 -3.590294e-05 -4.63541182e-05 -2.52133505e-05
      -0.00579670491 -0.00172518857 -0.000708304928 -0.0022925986
      -0.0017722504 -0.000122219586 -3.00219131e-06 -0.000831580139
      -2.10387007e-05 -0.00234011188 -0.0222008843 -0.00166064792
      -1.03297352e-05 -1.02663387e-06 -0.00041044812 -0.00646684039
      4.94914627 -0.000522184127 1.68320215 -0.00926844589
      -8.93412926e-06 -0.0106591536 -0.00253911619 -0.00048805913
      -0.00574973552 -0.00731055718 2.53423095 -0.0199397914
      -0.00105151662 3.81328344 -0.00734226452 -0.00235682423
      -7.42766279e-05 -0.00770573132 1.40517855 -1.5309962e-06
      -9.91444904e-05 -0.00113103667 0.508115113 -0.000142923454
      -3.51903218e-05 -0.000449435116 1.27011812 -0.00171820202
      -0.00573583599 -2.29531051e-05 -9.69680914e-05 -0.000893740507
      -8.06112439e-07 -4.03193644e-06 -0.000210271683 -5.22725968e-05
      -0.00789949484 -1.03021075e-05 -0.00322106504 -0.000699051074
      -0.0118399384 -0.00980270747 -0.00331019284 -0.0181859769
      0.046392411 -0.00438694842 0.0860028714 0.333844841
      -7.57630551e-05 -0.000106836545 0.131319121 0.196939468
      0.354150653 -0.000169128863 0.252227306 -2.55794225e-06
      0.0564758629 0.203473389 -0.000188712977 0.86101979
      -0.000163387725 0.194683447 -2.28941062e-05 -0.000118891789
      -3.04002515e-06 -2.68438907e-06 0.191679597 0.266953379
      0.00848425925 -0.000818300992 -1.27390433e-06 -0.000949243666
      -4.27952182e-06 -0.00271166139 0.646459222 0.0537774824
      0.411741972 -0.00144910498 0.301613539 0.330599517 -2.79005362e-05
      -0.000392800983 -0.000214593034 0.113636985 0.192029029
      -0.000258662592 0.116439529 0.244884372 0.570609689 -0.001267427
      -0.000749427069 -0.00474477466 0.399129093 -0.00144683651
      -1.62883734e-05 -0.00313781109 0.324079484 -0.00447663292
      -0.00280054985 -0.000108851731 -2.97009296e-06 0.343293399
      -2.47975692e-07 -4.57982566e-07 0.0156800859 0.165258855
      -1.50133574e-05 -1.88469821e-05 -0.000210023558 -0.000400015851
      0.301419705 -0.000150811014 -9.52073606e-05 0.24430497
      -1.95771354e-05 -6.60067599e-05 -0.000143369514 -3.98568009e-05
      -1.62253145e-05 0.00724027306 0.0118201673 -0.000246831478
      -0.000171689986 -0.000104055885 0.0650258139 -0.000645229709
      0.0847983062 0.250526607 -0.000120574456 2.32190359e-05
      -0.000193561849 -4.32189918e-05 0.235077947 0.494186521
      -2.4717292e-05 0.0406149775 -9.20350431e-05 -4.22863559e-05
      -0.000465290505 -0.00010293394 0.0542216823 -0.000262746238
      -0.000191111511 -2.96601811e-05 -0.000166197031</_>
    <_>
      2.77516198 -4.33201361 -0.00740034878 5.72301388 -0.000165840611
      -0.0125803147 -0.000604026543 -0.00167495897 -3.35020127e-06
      -1.83306147e-05 -4.14361409e-07 -7.61995325e-05 -0.000248363329
      -0.000212439365 -0.0304550994 0.21311371 -0.00316717499 2.10444856
      -0.000128063941 -0.00137375714 -0.000820446585 -0.0051716906
      -0.0144558521 -1.53547098e-05 0.902822733 0.944431543
      -1.21050944e-05 -4.99350244e-05 -2.14309403e-05 -7.20635071e-05
      -0.000191119732 -0.0171843003 -0.00111631944 -0.000112852336
      -0.00079707813 -0.000257060048 -6.53984316e-05 1.00760472
      -0.000316492835 -0.000139947617 -0.000639280537 -0.00148954138
      -0.000530314108 -0.0052467105 -0.00187228166 -0.000515731866
      3.32333016 3.81930089 1.36893761 -0.00182834908 -0.00459676096
      -3.02070794e-06 -0.00982567202 -0.0421693325 -0.0174393468
      2.48587251 -0.00338082574 1.48362648 -0.00587391714 -0.00107325183
      -0.000835156592 -0.000915117038 0.51198256 -0.00556481723
      -3.59910846e-05 -4.68473736e-05 -2.55729465e-05 -0.00583874108
      -0.00177482597 -0.000708179316 -0.00211510877 -0.00183575728
      -0.00012447132 -2.93052926e-06 -0.000828379649 -2.08797319e-05
      -0.00279079634 -0.0213452112 -0.00173403404 -1.04338087e-05
      -1.02058948e-06 -0.000424688042 -0.00937629398 5.13517618
      -0.000512110244 1.70828855 -0.00945628248 -9.3454837e-06
      -0.0107028987 -0.00249991333 -0.000500753114 -0.00580294477
      -0.00704495376 2.49554229 -0.0200839061 -0.00109996833 3.96771789
      -0.00747217517 -0.00242026616 -7.59895993e-05 -0.00778027391
      1.34396577 -1.49772779e-06 -0.000102961334 -0.00110648933
      0.586457908 -0.000145501312 -3.49141774e-05 -0.00047219274
      1.21790159 -0.00172190112 -0.00504080765 -2.31177164e-05
      -9.93215144e-05 -0.000908547896 -7.92032665e-07 -4.03647437e-06
      -0.000213054154 -5.42214002e-05 -0.00816237554 -1.08635622e-05
      -0.00342156691 -0.000722397177 -0.0121252844 -0.0097754728
      -0.00328366924 -0.0180315208 0.0668920055 -0.00404908089
      0.0670979992 0.36564675 -7.42703196e-05 -0.000106363936 0.13733092
      0.173313364 0.350806296 -0.000169881212 0.237786621
      -2.39059023e-06 0.0337061509 0.230330735 -0.000185343539
      0.893346548 -9.60167454e-05 0.171002224 -2.29881698e-05
      -0.00011538736 -3.0496044e-06 -2.70247097e-06 0.209763587
      0.269857645 0.00401006639 -0.00105407916 -1.28834131e-06
      -0.00111924612 -4.31430908e-06 -0.00279303128 0.654158592
      0.0877556801 0.390362442 -0.00133518886 0.34112519 0.343269974
      -2.75071288e-05 -0.000385021442 -4.80975941e-05 0.120201156
      0.198257864 -0.00025534656 0.115909457 0.252361357 0.558897138
      -0.00116191851 -0.000658497622 -0.00490223942 0.381745636
      -0.0014484796 -1.65222518e-05 -0.00310921366 0.352796078
      -0.00452627987 -0.00280082994 -0.000107505555 -2.9529067e-06
      0.324953049 -2.52113296e-07 -4.64982975e-07 0.00868792832
      0.149503365 -1.50138521e-05 -1.88473532e-05 -0.000210028957
      -0.000399959448 0.301348507 -0.000150813314 -9.52086048e-05
      0.244223177 -1.95775574e-05 -6.64612235e-05 -0.000143371202
      -3.98575212e-05 -1.62256329e-05 0.00731191039 0.0118935667
      -0.000246835261 -0.000171705076 -0.000104038962 0.0649704784
      -0.000645155727 0.0849049538 0.250457466 -0.000120576515
      2.34682229e-05 -0.000193564323 -4.2749085e-05 0.234875381
      0.493970633 -2.47178905e-05 0.0407834724 -9.20370003e-05
      -4.22870144e-05 -0.000465259393 -0.000103269325 0.0541858226
      -0.000262736139 -0.000191116327 -2.96606486e-05 -0.000165981852</_>
    <_>
      2.42428994 -5.06332541 -0.00783132296 5.8463192 -0.000165388774
      -0.0133389588 -0.000578682462 -0.00161566865 -2.75607931e-06
      -1.77027505e-05 -4.24359911e-07 -7.72045969e-05 -0.000229954603
      -0.000235557774 -0.033579655 0.496932626 -0.00322565716 1.62782979
      -0.000129280583 -0.00133224681 -0.000814879662 -0.00528860372
      -0.0137486244 -1.43574534e-05 1.23269689 1.2036562 -1.13309698e-05
      -4.79180926e-05 -2.06073673e-05 -0.00131786196 -0.000198319947
      -0.0144729894 -0.00124987285 -0.000113709699 -0.000774240645
      -0.000266579271 -6.50646616e-05 1.18566298 -0.000322142936
      -0.000127483232 -0.00061770383 -0.00157678744 -0.000564769551
